0,1,2,3,4,5,6,7,8,9,10,11,12,13,14,15,16,17,18,19,20,21,22,23,24,25,26,27,28,29,30,31,32,33,34,35,36,37,38,39,40,41,42,43,44,45,46,47,48,49,50,51,52,53,54,55,56,57,58,59,60,61,62,63,64,65,66,67,68,69,70,71,72,73,74,75,76,77,78,79,80,81,82,83,84,85,86,87,88,89,90,91,92,93,94,95,96,97,98,99,100,101,102,103,104,105,106,107,108,109,110,111,112,113,114,115,116,117,118,119,120,121,122,123,124,125,126,127,128,129,130,131,132,133,134,135,136,137,138,139,140,141,142,143,144,145,146,147,148,149,150,151,152,153,154,155,156,157,158,159,160,161,162,163,164,165,166,167,168,169,170,171,172,173,174,175,176,177,178,179,180,181,182,183,184,185,186,187,188,189,190,191,192,193,194,195,196,197,198,199,200,201,202,203,204,205,206,207,208,209,210,211,212,213,214,215,216,217,218,219,220,221,222,223,224,225,226,227,228,229,230,231,232,233,234,235,236,237,238,239,240,241,242,243,244,245,246,247,248,249,250,251,252,253,254,255,256,257,258,259,260,261,262,263,264,265,266,267,268,269,270,271,272,273,274,275,276,277,278,279,280,281,282,283,284,285,286,287,288,289,290,291,292,293,294,295,296,297,298,299,300,301,302,303,304,305,306,307,308,309,310,311,312,313,314,315,316,317,318,319,320,321,322,323,324,325,326,327,328,329,330,331,332,333,334,335,336,337,338,339,340,341,342,343,344,345,346,347,348,349,350,351,352,353,354,355,356,357,358,359,360,361,362,363,364,365,366,367,368,369,370,371,372,373,374,375,376,377,378,379,380,381,382,383,384,385,386,387,388,389,390,391,392,393,394,395,396,397,398,399,400,401,402,403,404,405,406,407,408,409,410,411,412,413,414,415,416,417,418,419,420,421,422,423,424,425,426,427,428,429,430,431,432,433,434,435,436,437,438,439,440,441,442,443,444,445,446,447,448,449,450,451,452,453,454,455,456,457,458,459,460,461,462,463,464,465,466,467,468,469,470,471,472,473,474,475,476,477,478,479,480,481,482,483,484,485,486,487,488,489,490,491,492,493,494,495,496,497,498,499,500,501,502,503,504,505,506,507,508,509,510,511,512,513,514,515,516,517,518,519,520,521,522,523,524,525,526,527,528,529,530,531,532,533,534,535,536,537,538,539,540,541,542,543,544,545,546,547,548,549,550,551,552,553,554,555,556,557,558,559,560,561,562,563,564,565,566,567,568,569,570,571,572,573,574,575,576,577,578,579,580,581,582,583,584,585,586,587,588,589,590,591,592,593,594,595,596,597,598,599,600,601,602,603,604,605,606,607,608,609,610,611,612,613,614,615,616,617,618,619,620,621,622,623,624,625,626,627,628,629,630,631,632,633,634,635,636,637,638,639,640,641,642,643,644,645,646,647,648,649,650,651,652,653,654,655,656,657,658,659,660,661,662,663,664,665,666,667,668,669,670,671,672,673,674,675,676,677,678,679,680,681,682,683,684,685,686,687,688,689,690,691,692,693,694,695,696,697,698,699,700,701,702,703,704,705,706,707,708,709,710,711,712,713,714,715,716,717,718,719,720,721,722,723,724,725,726,727,728,729,730,731,732,733,734,735,736,737,738,739,740,741,742,743,744,745,746,747,748,749,750,751,752,753,754,755,756,757,758,759,760,761,762,763,764,765,766,767,768,769,770,771,772,773,774,775,776,777,778,779,780,781,782,783
0.16262394936434327,-0.06098622836698856,-0.052627762228326595,-0.10710744921759933,0.08673017593048558,-0.2299644566900092,0.1746705894196671,-0.07593127709149254,0.032093322603728845,-0.024747624549722527,0.1464002067025165,-0.20582465795174634,-0.0320531403488421,-0.03822313832269778,0.11356046825873214,-0.10979995910725322,-0.017053407757025088,-0.08759642879411945,0.00441078766957877,0.058470934369601206,-0.10987250472327441,0.11466178398197914,0.0903484850572973,0.0504388468882058,0.09027500792445893,-0.06818337291941558,-0.01209960955384558,-0.09338753042788915,-0.026599394964583106,0.05322495967183758,-0.06897666217451319,-0.03948593968757876,-0.0685278570423136,-0.084331190004161,-0.06698247422639922,-0.0011704473103084563,-0.11183911072491541,0.02354713130215665,0.1659817169800293,0.07198627400990601,-0.02346167583239606,-0.09202854346558131,-0.07461160947997629,0.16929771079808406,0.00541279142995837,-0.06372447588452183,0.018888664167729687,0.21002949208345,0.012104330940741127,0.06190438979371804,0.030202643719007875,-0.03503557935411508,-0.11406240680419628,-0.03474485924326876,-0.020700010339459327,0.05885173211623875,0.08408775438546824,0.09329962112837346,0.028743059787149746,0.08869310206102035,-0.0752472924825193,0.12550046006826251,0.051482581427035365,-0.029004843840002643,0.05147343929107958,-0.003315177552809103,0.11700321535280853,0.15664022540753167,0.2198777917956758,-0.13471640014735461,-0.14557500533713133,-0.05669223229427353,0.00784474945521858,0.07841417489290149,0.029203094961869822,-0.19390329866112585,-0.02283089367770713,0.08576652756414309,0.0243104876935659,0.07759102025117938,-0.021867096739018998,-0.01986479696405577,0.018845552096846914,0.04119457771884461,0.02001938501069546,0.01209027757876512,-0.06688802881300193,0.037918725116218695,0.012742566672912735,0.11289721690226441,0.12687183463902255,0.0315168942169284,-0.041737834400927896,-0.056856641613614575,0.040189683302136466,-0.02119198371074011,-0.06735303938521636,-0.03533360700191558,-0.12432611828637928,0.0318302462686183,-0.06574084126278877,0.10378911942655476,0.015611263115869176,0.0548493257468725,-0.11021521675978685,0.04164480034009289,0.11006106785217273,-0.07632534929006798,-0.01610853739388226,0.005484258639114013,-0.13712228615893296,0.031705352202248176,0.08480547775652107,-0.08576443490751307,0.03520777173476194,-0.13183859340939205,-0.005077964574114085,-0.15292925465738,0.13529583109595647,0.05525443435588504,0.006274873203384609,-0.07429564565321017,0.06336075691987654,0.10621885647289767,-0.2535354726695433,0.07614705011484045,0.09820033277236787,-0.05325452723907172,-0.16720429046788665,0.036423570085710566,-0.08244455618040804,-0.08145151157080206,-0.08653164143592056,0.05726866722090619,0.09458763455163614,-0.01738266644914218,0.08001086653480781,-0.11022849939608244,0.08016830272546357,0.004846143091377692,-0.01846756419271639,-0.009985174254895283,0.08723680226886453,0.07135746946860949,0.03316873043818457,-0.013650356768066446,-0.03363594980048118,-0.027453429720124777,-0.02199135323948525,0.09479736073822362,0.009803307715062009,-0.1664854035703868,0.17063122811167153,0.2602273954322645,0.07371997928745111,-0.018365774052022128,-0.045904039940910635,0.00898366841945295,-0.02494188092427611,-0.2024300404352843,-0.0834155398344373,-0.09239422440879354,0.05277024690399874,0.05904056991257705,0.08993895838450074,-0.012871251059237847,0.09525832305772503,0.021629047238114298,0.21925938589499244,-0.18962924906034823,-0.06499763725870862,0.05860705071760653,0.19466739106927655,-0.10790239500306338,-0.11800875973074507,-0.07333649118634243,0.12908617597334568,-0.017786712606620438,0.07401962883151994,-0.00627381650488542,-0.08296792574957289,0.04955341721564596,0.09690707136100858,0.16529412183139974,0.02311827118425871,-0.06078312307388696,-0.04743791678374357,-0.016566682755556745,-0.014447527823184822,-0.023098881150822557,0.1455821640194037,0.12295144463405491,0.24817843882902638,0.11116635873481688,0.06043009058563472,-0.1630887511348111,0.06042173597927557,0.03794924243105783,0.08111865573301806,0.04416841383707423,-0.14401633173670608,-0.06607837823013962,-0.1572013287730166,0.15653147594412298,-0.18571543724440667,-0.22023529395733854,-0.18699864980866515,-0.12443782563971453,-0.18698121720020425,0.1164506206929107,-0.19619843300511564,-0.2078883732110642,0.07054475714982057,-0.19618812048348602,-0.24581927260442785,-0.020729481538409977,-0.008055758084067681,-0.0264260757936459,0.17800008035188764,0.05055251226132557,0.22591536225402145,0.06365763143475324,0.15134315150439584,0.00982746659058733,-0.12179886330773051,0.24342907072396114,-0.05410958116151068,-0.06937942494935903,-0.20701621990561292,-0.1884085116641044,-0.07376894015067553,-0.0444069386620988,-0.04409693761667819,0.12238142686563287,-0.10337755555533829,-0.29449095514094414,-0.3912000654979506,-0.29232107389158823,-0.4057318925836403,-0.08360758689492373,-0.21236178895011565,-0.21597126249970167,-0.1620090005157421,-0.24382414495327,-0.14104002797263204,0.07174269195841358,0.07516691716496479,-0.0029448883669749705,0.234245846690247,-0.11658703092715329,-0.03907300364054897,-0.023584416718699684,-0.27920180439275727,0.1920759999317082,0.03453272626246695,-0.16569102058189245,0.02793074654141306,-0.06378000625910987,0.012682856515130321,-0.06784263323727995,-0.01122299330648049,-0.11406532611709119,0.15013735424430183,0.00472014005621061,-0.08741180735924528,-0.1248635023740559,-0.24612898263260832,-0.20851366707851818,-0.14304619695664664,-0.2216375611540283,-0.059325234620173944,0.012975076491672186,-0.12373712484476022,0.033677021806753325,-0.10375905466213117,-0.0658003096248191,-0.15942686779231643,0.10482499159764698,-0.02531180292153947,0.13951734587294734,-0.07816935923393507,-0.04631063722819177,-0.0010986041489945003,0.03608724064458035,-0.11795507064349829,-0.02668891974165027,0.06766477197694014,0.14054615326181352,-0.009007651068182687,0.0930100268642606,0.18326780634746292,0.20507972503310423,0.08748273184946911,-0.16661506560823286,-0.16799400111973353,-0.19415254766918952,-0.06632406325996018,-0.12966229025021403,-0.27942023573427494,-0.12906985959526185,-0.024109562474196884,-0.16699976907420438,-0.07551445010679736,-0.10973022166713485,-0.08227623000789616,0.13921418958410847,-0.0026896629778685554,-0.0698797956330466,0.062326739991040915,-0.06309084778129319,0.0952397240821985,-0.012872235822536781,0.09849352022873707,-0.028392875565263393,0.4389723104196145,0.2521369214588787,0.24579584235136742,0.1630954079842147,0.11988236443877091,0.013984995713523463,0.024153741137554422,-0.09296166902591486,0.11729421130152633,0.05046379236677722,0.11509946139152999,-0.0979130459429622,-0.2940855712527171,-0.06801028972833677,-0.12061793769774604,0.189653566466924,0.06564560411625087,0.11668071340489543,-0.1162878967189423,-0.018567362501444383,0.14392348432973248,-0.06257962908803609,-0.20353082086034777,-0.19747195816575153,-0.2622267239811629,-0.2460187588753708,-0.06011807505559491,0.16555465885762177,0.06291332061895417,0.1752034169161258,0.1150703015432501,0.09951105782233384,-0.07918638565254749,-0.12646329645267076,-0.08744358920795847,-0.06225192292675117,0.36062448332991337,0.43736479407225937,0.21222068910057876,-0.0010196597909878124,-0.2374697697854678,-0.10767490001718986,0.043976444373506084,0.08826992851120544,0.013663861920489531,-0.040639979372198314,-0.05416452127783881,0.09724293751378503,-0.19473469049459913,0.03488171459453747,-0.02345460061491215,0.06987756673409212,0.044661861915498945,-0.3045987746504233,0.07566316087961619,0.0490006229940432,0.00988697744250479,0.022065577650600514,0.1499558372634286,-0.029813462396526394,0.15053249174956096,-0.020789942233388675,0.11598312534399326,0.08524485829040764,0.0879343565175209,0.4504108644204992,0.39013671815143286,0.1103996814185499,-0.1834126093144596,-0.052953432132302636,0.12598563037594177,0.023409873936967796,-0.022805230653745758,-0.03717964572014524,-0.09775747293485733,-0.04372060636136614,-0.1423777675040099,0.1777090096285211,-0.04734737959322279,0.045875793544149855,-0.10546298878890172,0.06909704651128132,-0.166955155289848,0.10019485069264654,0.04453590747136119,0.24421442441899735,-0.12447042652758464,-0.04243861109261623,0.04485476847723023,0.20580021790206465,0.017039651922594937,0.23819414222764299,0.09121414830641618,0.23196936727057266,0.3429783082217388,0.2630723692566489,-0.06756851703268982,0.17958063623737203,0.12563917472810168,-0.10093312050609987,-0.330784913395816,-0.27170339728501186,-0.10046791070048457,0.1336148694573406,0.03383520293285975,-0.20869769559001378,-0.022685895848521122,0.16097172804298343,-0.04216821884754474,-0.07402794050972832,0.21747367104222523,-0.00797196268535232,-0.025255168495727256,0.09213603584076008,0.10454807002814942,0.025439229107677555,0.12100878611058145,0.16808452419949943,0.14156827447445947,0.17486852249958867,0.374194048394785,0.28387511207354893,0.3870223632585058,0.2860020831689771,-0.07135521773079738,0.007182663066981418,-0.15628703082921006,-0.37157737490242143,-0.2882531396919521,0.03975766674338204,-0.08047372208155816,0.06823308356478618,-0.08005152503137042,0.10030491851524483,-0.03828745767847011,0.14588015305972626,-0.06768782496584909,0.08621507068523863,0.04871125733760075,-0.07718511048950862,0.1435281273861923,0.0637281584451712,0.1869963293137381,0.39233855223318037,0.1331651681616203,0.13829462778681478,0.19067088445840666,0.15312096606951034,0.315600107839005,0.2860052580485763,0.18862345880901144,0.08471064309067916,-0.16229653843717992,-0.10488033734519114,-0.14628398922452637,-0.26215382214655075,-0.13100889184498515,-0.11780108055792231,-0.03332307218094266,0.2229507040812396,-0.029000339741130407,-0.047634304072097344,-0.19502111572650419,-0.14019224492552881,0.02392884687950467,-0.1170432981831143,-0.018326912632523663,-0.13093802808694494,-0.01830263510261172,0.2473042104860978,0.48576558163819494,0.5418342816699456,0.5290764576097069,0.5359709502328815,0.53530455903979,0.3490234661572994,0.34565176839191764,0.24799312579005478,-0.03651004618701116,-0.03219605909490111,-0.3145706415457864,-0.3735822026548809,-0.12921375329841192,-0.34487771056918504,-0.26820312606845964,-0.0886612888135238,-0.13242613337011122,0.05580595633574998,-0.06496558181143455,-0.028901044453559684,-0.025667461641497268,0.019003757483647955,-0.07994354751939574,-0.08367764971804359,-0.16818136056960323,0.0008452470965784217,0.2103347687571231,0.24962415110609934,0.34248944482697624,0.30280757567531535,0.5004900479164611,0.33965777605189235,0.41620823452458383,0.5407482218687499,0.3155267897346982,0.14807787638479775,0.046063163758754445,-0.21559695813224813,-0.09925902040311223,-0.033513538633997975,-0.03552979060818687,-0.03314722140503805,0.03199959114343552,-0.09328012187375613,0.13526988639400203,0.1804621151439648,0.16773050392814562,-0.08039932607850324,-0.024978007765123954,0.03516873754210599,-0.05483233212611318,-0.1521219617506601,-0.09544504205243165,-0.13526439224354492,-0.16958402611673276,0.18897775774921008,0.17538121255164857,0.19715656345206511,0.1022502761384364,0.3733371253808963,0.09365926333282083,0.04297730468758386,0.016974221344586884,-0.0016376066836947495,-0.03714376905542249,-0.25587840005741186,-0.1062810505051992,-0.26727277211294265,0.041467564259579676,-0.22521995514967816,-0.01277897148993781,0.1478357845169073,0.0383255641539496,0.17598763543091528,-0.08449856754073022,0.037159016247917766,0.08551763158039107,-0.01387384697901514,0.11402073187883012,-0.07024951936188031,-0.3562757381773611,0.23863864728271528,0.015941180250602083,0.053785460425777476,0.021994900753334715,0.10403995269608446,0.04497170619043556,0.04570312124664016,0.03331794639128784,0.13203305165785661,-0.15993264160436485,-0.17754507711307477,-0.10695913972760317,-0.04792201318848549,-0.05753794649842014,0.12231102713784209,0.07462850625024046,-0.0746174399173734,-0.019610167121097376,0.0872547696287286,0.19286969496845224,0.015946745304459095,0.17622703962808198,-0.0773059310878686,0.014362976461037104,-0.25171136749817097,-0.06749848785263378,-0.13904732022551547,-0.12018088898716699,-0.02864416913680337,-0.1306868262005945,0.1044775622785805,0.10697157167851698,0.21709758928920989,-0.007602467907509418,0.08800850348029388,-0.19400366827808563,-0.07780912475544553,-0.2883468376513467,-0.2632833564308616,-0.25593113871440504,-0.07258687151881392,0.04108879189276304,0.016662290583757434,-0.09728397840920379,0.2832825943418915,0.1425096085790102,0.20187140537425902,0.13769406838147016,-0.05390474262190615,-0.19176796146058392,-0.09135386527288397,0.12271421044376452,-0.105162307114607,0.07324715062497032,-0.12151529287240954,-0.11536742307186021,-0.36533177280201534,-0.08198573737958903,-0.1978475249255683,-0.003002745673786659,-0.07204405969696503,0.006647291423345594,-0.14219778066802327,-0.07626967383768256,-0.36452385741796506,-0.2579885206996114,-0.08061868233487453,-0.11185127102118918,-0.09140049918992228,-0.007384832035218464,0.00450052959257277,0.017790186562531,0.200836260631346,0.006782660579181097,0.0216029210461305,0.12266280079718944,0.11231032702246141,-0.10941649959792134,0.08405133427889036,-0.10372881920547257,0.07349173616992556,-0.19564595849019817,-0.14124064001576628,-0.16369303020398462,-0.1854831155554466,-0.08428265071643251,-0.14740073821481442,-0.053505546581394815,-0.08828371688938648,-0.3036778107628162,-0.2927045119134541,-0.10788261037448207,-0.2191996659380893,-0.169808058007875,-0.269614755675397,-0.006626693460857066,-0.3360380303936388,-0.10530077077829206,-0.04260345256007976,0.23583879176841596,0.0802386120841983,0.024914198621902982,0.16255127693041843,-0.09258440719794368,0.034818939750721145,-0.18950635554495032,0.009162324742484353,0.041215987537703426,0.08617651017770896,-0.09033085106368899,0.011581496738842343,-0.03575850898442415,-0.09789760644362767,-0.1175321729411147,-0.13781313096755532,-0.16953681031040246,-0.30859021658391855,-0.3444641047809525,0.03647989211443322,-0.006915604999219265,-0.3302180239479248,-0.15563874946130557,-0.06616318692558354,0.049908232285924635,0.023115020157797372,0.010387645196574365,0.16631323035837622,0.11570947163834781,0.1010113845647746,0.0044385976084572315,-0.0014401327056308524,0.1034056601568495,0.12408791357689888,-0.11801344991206353,-0.04580359744543915,-0.07889058237949904,0.12256163419402867,-0.0058280682008028965,0.14395467666872197,-0.05570976533950868,-0.0015945224586896933,-0.1535242524186897,0.0686069599196786,-0.13462668070755804,-0.2898651977221685,-0.1776566998152573,-0.3575040025092264,-0.1669068426294229,-0.12016574364432758,-0.060746801655340445,0.11728097332878351,-0.0030833753465535595,0.1644605978937798,0.13521731635585316,0.06689763020368591,-0.13528172010304376,0.1275464927282992,-0.04312244688124821,0.0065099036472056485,-0.12779152387718776,0.028484153710840107,0.010986918561174038,0.003131174895095782,-0.013289899931553125,0.1051112420732745,0.09681149925585188,0.07278656750234405,0.3354097367675773,-0.05482976958506481,-0.03035198687501319,-0.09967259248476536,0.035246092303250966,-0.08194372510681967,-0.27490050521518294,-0.11144933960992601,0.018585501354607285,0.11399645935620126,-0.12962490221706446,-0.05164467420318271,0.00042585648871231433,-0.041861573270889636,0.06950739366496327,0.0054474050138295415,0.0577990564122664,-0.055988095941835084,0.1557985417761307,0.0013320682297856556,0.1295443778643642,-0.043710961636872846,0.05919335941410201,-0.0677489653017057,-0.09490151210705923,-0.07024562015432816,-0.00439725560895725,-0.02168393289875243,0.15411080183232953,-0.11485318910609003,-0.10912098151214583,0.16771939871775607,0.0577507785044992,-0.18938091761333473,0.049529624718038893,0.022058443778731753,-0.2161175089125294,-0.041114785281628985,-0.004688861761499305,0.07579239250047627,0.09961788252431596,0.0035518400851059454,0.09799110402451278,-0.01602898745575355,-0.0802849219985164,-0.08495300346341071,0.0578126760705777,-0.19507984341639623,0.06797017010999888,-0.11046789374117079,-0.035732996573054905,0.05072760327331075
0.12543825143511772,-0.1904239350815063,-0.07697365984036109,0.008550330592297291,-0.0559644721037787,0.08980647148910502,-0.20499489519066957,0.039824325412092194,0.04623617900526911,0.008552201069150058,0.11386783461351883,-0.11931326399965828,0.11444148997579903,-0.06678272300294356,0.07620595017838742,-0.028775979884554735,0.08507847426987716,0.08169115433082207,-0.14276119600307613,-0.011804958026065846,-0.005599070499171929,-0.020143365190697243,-0.0719221151552119,0.18878795081233404,0.024553829012538112,0.15914576078829193,-0.05327070399620954,-0.10253551477610019,0.01686893924696442,-0.05267949905675816,0.24265875758833422,0.028186446273897974,0.11890407485875011,-0.018779405697784926,-0.02893692969259425,0.0006204813461662156,0.03935396093975329,0.08894225780047459,-0.007629133843239413,-0.06576774456756747,-0.100421028922506,-0.0004492192032456547,0.06333048036207134,0.05101967582500297,0.003078477504278356,-0.05430765400389085,0.02221517018791431,0.06189223149709063,0.0004997954170805549,0.014890840431018003,-0.01140281976446874,0.09519410715262487,-0.040175865378879363,0.02219772345164155,0.04308696435619876,0.07619641718034051,0.15323263794343062,0.07118954227540582,0.06362629168076192,-0.14337951965720142,0.06428474937407329,0.23301649134345792,-0.07950107889112415,-0.10014018705798346,-0.01869023126269505,0.11453028410002658,0.06590216371342905,-0.04141778916210122,-0.0006328008312380887,0.10219695768794554,0.06636288348525253,0.24796906704635466,0.10904928458011007,0.03934149608913723,0.068386705971393,-0.03525192065277276,-0.09906785331765147,0.016303076453191886,0.0473013015019978,-0.13749623662643087,-0.04870753285322215,-0.03323704191189491,0.030208401606414522,-0.022402444531551973,0.048153832389444706,0.01345538597718614,0.10981089712705053,-0.1674658768357331,0.16933549838259238,0.14540682008237119,0.0071352043517127995,0.0664078558285293,0.06609162286574725,-0.05897284373867375,0.03606369947320794,0.0993423828667463,0.05099248299231214,0.1254105184527364,0.026543686604887935,0.005652131178907697,-0.08108882896961049,-0.07800519522591891,-0.08868340745007415,0.1407047042406525,0.0016780378388048284,-0.10739209039648248,0.03779144036613226,-0.017508973642488157,-0.3021492274268518,0.05115099147331059,-0.1516281460609771,0.06149060338061171,-0.09248219854806639,-0.14218828447815343,0.053078725446779274,-0.14577292443358442,-0.04110207505700491,0.02657505096595894,0.06834365990697283,0.08407597219761348,0.020173899981906808,-0.05300205015182831,0.23781553234274871,-0.0067574493597864485,0.24287612137519982,0.024134318212527806,0.19976389634244296,0.17864450159494066,-0.06540914662948358,0.03926990061978476,0.047398663815369314,0.04772629803224959,-0.031196585193508142,0.03470430098521676,-0.0354342311584175,-0.11326450473422339,0.10390612450178988,-0.051924464673415584,0.1416229261917159,0.06388923891395817,-0.08562050599630379,-0.012475670599136719,-0.025230595976529088,-0.08338710342445316,0.05426108537703147,-0.03676895751087974,0.1755637052191755,0.1120236358562857,-0.04534022665376293,0.048297582389357246,0.03961149814579414,-0.07937822610104654,0.19892411372245014,0.22301019073055442,0.2379061214318273,0.08100332868706328,0.20197836114490036,0.026843166939957835,0.11673795157319329,0.20751839297831828,0.06102031875529312,-0.08199993644389313,0.004314411628283751,0.07349589809131615,0.12446480479900845,-0.10284735129472357,-0.012809084154727972,0.02701317626141345,0.04714399378127162,0.09469263155725051,-0.09118250856006305,-0.038436428994324055,0.10734144553089318,0.05213258442309403,0.061366070815621704,0.14982722263022574,0.06302990958808684,0.11891809752011506,0.039446662328502934,-0.061107105474680706,-0.03540501809644752,0.10884103448254628,0.057954908521706115,0.005012075417353927,0.051777001136533767,-0.1025184487237551,0.036883811304750894,0.03588752779845445,-0.005117098519723717,-0.15221424499535488,0.19776146358731325,0.060289345645777564,-0.24108436216114004,-0.018608973719308267,0.04799616681539286,-0.018971343957875527,0.06167717341646465,-0.09354739933097203,0.02177267742677974,0.0023845227838190475,-0.0017974218589358432,0.007824844420613736,0.06169856051169914,0.16221406135042868,0.03266700278830479,0.05328907626414262,0.12825712054629534,0.08473380621114138,0.12861753456168173,0.16285000214402043,0.19324712732288502,0.003820233984388689,-0.22130863616231422,0.028029326277727987,0.1255968878925471,0.06336529289387358,0.08287850910999299,-0.1611923292856219,0.11317140535605119,-0.0019865512107268735,-0.12527774393584837,-0.0681883117225144,-0.07959626002160754,0.06483841346333025,0.05981001284455333,0.1552280674783138,0.0704486645447614,-0.11984056173010912,-0.11684936460897567,0.1601405830882926,0.22701418866226242,0.06999459201598306,0.16566126993238542,-0.06285187383278737,-0.0823043145109383,0.0027410304144085094,0.03838702134767091,0.04662111554514803,0.09183172870580293,0.034913089934276526,0.14735208303239147,0.28301861444142584,0.13082632038813954,0.34069825125617337,0.05038957694170791,0.03756024703505927,0.11474045788864758,0.0018793777260041023,0.1501073110118436,-0.03561625087912949,0.14454745647707734,0.02307391820561745,0.2602113169183861,-0.04263254042443878,-0.014909630217908348,0.03075167896163429,-0.19093030961052532,0.1135948757556698,0.1393364236612094,0.09255157394794782,-0.08343460416022389,-0.10189338760507519,0.14677357410026493,0.22464817275236673,0.1941811379843525,-0.013754046645014185,0.023062513850602876,0.1374805076063014,-0.04260921489405183,0.12493286144108819,0.22908286395270086,0.31008714813938565,0.1402480403567863,0.2496602544403075,0.12071216212352213,0.08166843188355749,0.045949428503181226,0.05924275169840517,-0.00824056206997523,-0.01134196678492018,-0.06251816889709662,0.030883457477184073,0.007492757230259555,-0.13659237301061036,0.000895199061043747,-0.03888815375292288,-0.12470984009721793,0.1072421128596981,0.1816897925448128,0.2587886969515279,0.22957215165431136,-0.010156159799954137,0.13278230427623872,0.16960026551835022,-0.030905565446529625,0.25200876807094785,0.1895781836926686,0.1570974222255734,0.1411600594365258,0.13442698775463274,0.2601769164816866,0.007153092945805649,0.03242072004762176,0.05733634356993866,0.07617001497099078,-0.14937990896076875,0.15008124738692813,0.026080565905322674,0.06056020996715087,0.024319238265556094,-0.010793860990389741,-0.021165570977494212,0.03185946366190364,0.05772064394305733,0.15726891514546473,0.050482714374818605,-0.019892552354110846,0.22120447310813407,-0.0976820024515968,-0.09248907237907085,0.0557387649527346,0.07474363657069974,0.013321868593583735,0.11537708074923558,-0.003990132184198495,0.1929913411130354,0.038171697565936615,0.15810069481944336,0.08627384167606796,0.012576619225755621,0.038369620711795775,0.09852443887289689,-0.16682968137375298,0.060215055938974846,-0.03219640663294092,0.1834879084556669,-0.06548273506163908,0.11872458856973925,-0.24448378956922054,0.09273632133081042,0.042507293439250575,0.012763312192014582,0.011296249620630491,-0.019510932127663874,0.05440732336733226,-0.011020595492216604,-0.21856427686922336,-0.04471292315806113,0.2356023913534966,0.10502388221307919,0.2227832728240931,0.06073663970824723,0.029456432623049037,0.05399116048341954,0.02106424714936398,0.11723244045366404,-0.07880016785831725,0.009845703800364269,0.0822562324500125,0.018603210391124322,-0.09119652497640927,0.07028552524828778,-0.09281907298039657,-0.041043551641680116,-0.07917007390828099,-0.005995089005294165,-0.036669660290813505,-0.036868200137875555,0.08258876034154124,0.2015733783449107,-0.01892014149021878,0.07306122265912328,-0.026267906894982113,-0.0012582229739899623,0.07569443161473041,0.00016443929857744435,-0.03942503308635867,0.06642363753677072,0.11793012268889702,0.06715315434213469,0.06546486058141668,-0.15382121317043398,-0.0637227167493751,-0.049853640500640645,-0.16331218209774406,0.15123678733148796,0.02747895101246089,0.22490730446629711,-0.1190850311868735,0.1381721273414847,-0.06391305190154442,-0.036889532120421904,-0.09525217255363004,-0.09047498515802005,-0.1273256095098884,0.029163030520162166,-0.12654813890832647,-0.009066397907808712,0.015068986799073755,0.09041907405095723,0.03851409812841182,0.07280592010729153,0.08006739216938538,0.029565417514277135,0.08083077772201055,0.03254690797071196,0.05899639099489196,0.24233456664302916,-0.02079985224739976,-0.0670076948720554,0.20160263106232182,0.05536647546701778,-0.04457597230528951,-0.1037559788939538,0.127211328235281,-0.061299907730321436,-0.021753221331476568,0.0723678946944857,0.0247544213988869,-0.004966655271077461,-0.017754461754786722,0.11823693158371308,0.22706500874756935,-0.045074721357983294,0.06875460356333557,0.2244253672635466,0.17028669085559003,-0.016962024401793344,0.004910704599288268,0.0038555183047024938,-0.028049529351693126,-0.0472293774338034,0.07934110130616943,0.10713136457751272,0.264902590885064,0.10498049052897898,-0.01984530800736952,0.11783983478187982,0.11470580811788399,0.11335247507008221,0.17937524938218224,0.13553142645191857,0.04996838999066794,0.15794592994492024,0.08679177442058784,0.30416246043919526,0.11892505260401738,0.11898962743433002,0.13274417531282587,0.011497956021253692,0.1353915826595998,0.0158749104318948,-0.05809909749657719,0.0003454144985479116,0.147196668132809,-0.10453171802048174,0.023231406300767164,-0.03198429491694026,0.09454682831240734,-0.05515966089880742,0.23698255130968207,0.1762579111936422,-0.04607014203128884,0.17527797005742435,-0.02871561173409587,-0.03373860920438815,-0.03349415525629604,0.11033243978384093,0.20909929442361946,0.023673251750733097,-0.008796833949079715,-0.013505305040715404,0.24721615497478153,0.2200653021223565,0.0011087370132181965,0.05747734916528662,0.003353616327432651,-0.0025042362720089878,0.10069168539740908,0.06222529779330439,0.06439118171063056,0.05042504865689516,0.17371029858877388,0.06304718154598438,0.03010101518583781,0.04873350375661703,-0.08202764174078879,-0.0067079340054050805,-0.014601088609358282,0.03919758537645229,-0.09239259090615351,-0.11329229022180495,0.1911396049925729,0.19101694221965695,0.15835481655534286,0.2345584443669564,0.0999442057876234,0.05471897462195851,0.12871493651897592,-0.09868073121277415,-0.04737770586390841,0.10310682457101741,0.019187082705849404,-0.12403815298983455,0.06949787495251121,0.10353450366374675,0.07106018404550865,0.011160145909424777,-0.046639129405619886,0.08251608943916872,0.14534564271870384,0.07275277910346362,0.15208341501227948,0.09512363260230866,0.11032683292030955,-0.17005614197647426,0.12558984278043545,0.2316662746654565,0.010627477021945754,-0.09165668853506144,0.11022642481902968,0.02853967769534784,-0.014080976862506991,0.2201582752091828,-0.07415642749084479,0.13327533793326388,-0.06450029839146844,0.20190875681953463,0.07147928810485686,-0.015524755862782225,0.021948346611578233,0.06185431571573318,0.08663359909809579,0.08659130467180874,0.05905098443598258,-0.042448907713967275,0.09238614893887355,-0.07225787945629422,0.2086644886404065,0.20690506692265337,0.23540343595808844,0.022996944923951584,0.10966281839036046,0.14502857265117966,0.09357398787038779,0.08033902788623559,0.13925373086104184,0.09490429361470683,0.16731924283502234,0.031764427571589364,0.14136871658274724,0.13311526981691996,0.14509110232561603,0.04696204382480505,0.060823762044278085,0.013413875099910447,0.014870478050010566,0.009910303768715633,-0.023754253487252016,0.2863795007093235,-0.08074698743879569,-0.11369446688693115,-0.07524272836140951,-0.06463625766174892,0.020762414511733062,0.19365379830460372,0.28770665772896886,0.17401918020806167,-0.11284699190921547,0.15629075402572443,-0.0496717733468899,-0.002478034924419161,-0.05421126278226832,0.1593401200197209,0.015559437506580542,0.10975614811641528,0.10715034397394736,0.06090177567862355,0.08880745928609426,0.14446272596012721,0.022088851198924925,0.15415954374297922,0.03511891224673796,0.045978048027895214,0.08820348997581806,0.13877241450460867,0.057341950532203395,0.009501345031495346,0.07571242153695516,-0.15088609660135827,0.16772804071451827,-0.12473467377698905,0.10506065344604884,-0.019850509000742568,0.13004650651184768,0.10434385840222249,0.1481611359866665,0.03981214014486249,-0.11979930631831455,0.07745239074554988,-0.010862134355709789,0.008321008855421409,-0.030088002057344933,0.21687248212850607,-0.0029157730065860962,0.09573661771264504,-0.05172169758972474,0.20428451627798272,-0.013048464400254051,-0.22390191842742224,0.29138889991697986,-0.09385889515093887,0.1407813227754197,0.0804397426800951,0.07071313422800186,-0.019504321581125632,0.022563713658694716,0.12603774635910692,-0.026274591900914527,0.031051116309967836,0.10920005479816701,0.030362777615692633,0.00037689288493159066,0.21303238962483884,0.1312543672854123,0.1042007119548875,0.028278212855437895,-0.035524513559415924,0.16203286112475954,0.20952983350419901,-0.08792800338204068,0.03271392325694142,0.16869402425337876,0.3042775264704597,0.25914574765001963,0.12210107969048148,0.1522730846935684,-0.0536596192049542,0.08655952155625496,-0.11232693093310638,-0.04751140212425248,0.03623226566443835,0.22044270058783966,0.0784404944751764,0.03102687042164289,-0.013364194913597761,-0.12848112975940018,0.06401962276538405,-0.020405660946571657,0.039727341998203436,-0.07088675678643773,0.038423121970850564,-0.10331797406622754,0.13286240532031346,0.2280846699289346,0.18477819405634574,0.3455633572246576,0.1559072572445404,0.1548172092119088,0.12100840965139405,-0.06476380593695968,0.23036769362634377,0.11584899041760051,-0.02162954712139106,-0.09592314249515319,0.05011786349628573,0.08623107222462459,0.01812204413423089,0.02373193064240801,-0.014977962676610843,0.0033691707376797236,0.1371582941268462,0.14370594993545205,-0.14637352699449616,0.01757832561152294,-0.11643518831822008,-0.12434689879668703,0.06609525952130198,-0.07957186068792828,-0.3165844612093829,0.0766317387851803,0.1500384391020645,0.22399005191309954,-0.017431278920469195,0.2047518160214198,-0.21171967210422202,-0.048065994172559134,0.09261648724526124,0.051973257794766546,0.14028368349273718,0.10148344655100901,-0.01057364260793607,0.14603244651412742,0.06133025783843266,0.17082884487697148,-0.07918232347419922,0.03484323408486639,-0.039155164905299605,0.08430425006826532,-0.018311055354430544,-0.021541058370022317,-0.12900480342269574,0.03447148164636873,0.1149343016922692,0.10172955790682808,-0.3026471432551233,-0.16466589929508343,0.19415181294466988,-0.028299261674754345,-0.011932169323604769,0.12069085057908271,0.03598013572154923,-0.03982443500652995,-0.001723059687735388,0.19830434965851615,-0.14428146569960257,0.14059279736916994,-0.017189493526984106,-0.01917020864017428,0.18402102525780153,-0.07041753401898684,0.08364071327110754,-0.03444255087712848,-0.14148280910508992,-0.012649160684947968,0.12059821639683235,-0.014871604355764421,0.058586344053005335,0.022499492883002275,0.008327297154731137,-0.03810562091842894,0.016816540648605847,-0.20053444824255262,-0.038941412849718804,-0.17328103289602034,0.035995169089137476,0.05042156597560617,-0.07062141264906668,0.09347612728615638,0.06223075823742221,0.06768974416706722,0.006125980299854715,0.06763462029429915,0.11793418663764745,-0.048136390046407324,-0.06598360614411634,0.13905427091920491,-0.22410881102136102,-0.27135643732033016,-0.18079886204119616,0.022781627450585457,0.018897787225503407,0.053294664367488864,0.011241920433589852,0.1573821421280828,0.16122250594119947,0.11954522524128024,-0.11193586579376892,0.04000194995403191,-0.08297610671510959,-0.046426847783426074,-0.09868791231923951,0.0047472278722357165,0.05830120296527758,0.01238149458373176,-0.11477899812017299,-0.14883959848778505,-0.07234518514311342,-0.0731550730687506,0.08449845143162259,-0.023195260214179125,-0.010142047725932217,-0.00903351035915511,0.1173314198883711,0.16968290692564345,0.04652275201875145,-0.021280545158769624,0.14380994699547178,0.04750917009048884,-0.03845382053707714,0.1047015324847386,0.024367155956136036,-0.1397589115402254,0.06633479195201424
0.027543297675094055,-0.1881033647248415,-0.21754353802283058,0.011190878034592006,0.06589640295549214,0.05841878251033479,-0.1385371998928904,-0.03714021741359337,0.06421976940042408,-0.15601444338162399,0.006089075715479233,0.018893704437330443,0.09009657556012131,-0.2474797134596882,0.012057191978699658,0.19937286613914426,-0.06455995638154226,-0.034063155265656855,0.09296000051940002,-0.07875348261070246,0.11325626595736772,0.05161409362202635,-0.1598465650158082,0.0076201192655371815,-0.1483374184011326,0.09281555934071471,-0.170506669779566,-0.18361459397434868,-0.11616966362984606,-0.08274648911778255,0.12905485624936777,-0.0042649760198400785,0.02666123211553743,0.10505081700893448,-0.0721305251078764,-0.060046474497365554,-0.08611130279427312,0.07636072444267814,0.16198124361630437,0.027843793989315434,-0.06120009806555669,-0.05251317904597024,-0.11320432625094833,0.07133874478322152,-0.10808099539508013,-0.025943106908458097,-0.11794505162822025,-0.19233990071314866,-0.25608550224258225,-0.09137249869188294,0.019382748812219568,-0.034220375730193986,-0.024796711247957032,-0.10957721054110488,-0.09560737871839843,-0.10920945679187029,0.018684143613568956,0.20232626121192102,-0.016069122063747273,-0.1393659378588312,0.12484076035735125,-0.10231467830583785,0.05351657503934697,-0.04477040515079662,0.009929174884530437,0.34284971357048155,-0.07160919993522895,-0.048263725916679955,0.051087456903096046,0.006910719902146603,-0.031106661154566527,-0.06655456789791794,0.0606676097796275,0.10821637870447073,-0.09595427515105312,-0.1137177229704545,0.18459067528830642,-0.14025151325418259,0.07396647131845142,0.04372544301638491,-0.11302807363041702,0.07297714093184045,-0.11276085712974342,-0.11139433234873895,-0.1413942463494864,0.08098909802274097,-0.04735786245928649,0.10608964437695022,-0.08342290616150522,0.058918746767689226,0.13862346899042405,-0.010028623454445485,-0.11337634723583886,-0.034987472249538694,0.12740688854505258,0.07929518031610397,-0.025307878545382145,-0.16793933561163524,0.07685506735998023,0.16511701111281618,0.16713722643336898,0.06529435119416117,0.012183563842901835,-0.060444063564180944,-0.0437616735546304,-0.15521782607748014,0.2208091589921079,0.001969920850816538,0.23765532906555395,-0.010027496011431861,-0.16418865229930488,0.18371728772531412,-0.08842192488918534,-0.04623002355145225,0.16242774749443512,0.14345637510914266,-0.2050894998294327,-0.005085689113977479,-0.11333129722871828,0.04467598901837266,0.1717755214042256,-0.05817859773590084,0.13612072769738662,-0.10768515848830983,0.1863687984977239,-0.13267291705396356,-0.10565398122673869,-0.037381084034709806,-0.19510222229676982,0.13191885578209392,-0.09663504625014253,0.0622806943110647,-0.13414156732534585,0.013935559139483593,0.007550346932078992,-0.03330592640632181,0.055050740380401135,-0.11041703956174104,0.1499469697191145,0.017805563572885128,-0.28158362629461936,0.19811693508636327,0.042884425639308,0.15266470605837673,-0.019507107645803417,-0.23537427537458183,-0.056905744527311806,-0.14710645384678978,-0.025403906974455524,-0.07480472963354921,-0.027165123660762115,-0.2325486733470249,-0.10126308911764244,-0.18411699295346276,-0.0889308105806573,-0.31094692523047757,-0.20139703256011884,0.03652602401996337,-0.1706046284395159,0.048355786952867776,0.11339698520478048,-0.03553908558076674,0.0716697162373907,0.08545974370882053,0.15747211778339118,-0.03272813737319306,-0.01135587792508313,0.07798136292533328,-0.0770036274694582,0.0023795149186244292,-0.0722859819318487,-0.23468029635413876,0.02873904138147162,0.15123768849224553,-0.06982028622571713,-0.03587871757323437,-0.07704253896894786,-0.13643991080681636,-0.07059833977140537,0.05024000743460382,0.1480883062802506,0.020979055355723714,-0.08494400152875925,-0.1627157308724218,0.10322354128853932,0.030720093342478126,-0.055824773414819256,-0.12505564844139935,-0.12024882131127176,0.08405985281103355,-0.056471351670441386,-0.18336518589782,0.07881483275970086,0.03299625528626485,-0.029573787305599404,0.057818779834654194,-0.08520792264450663,0.09426501426779663,-0.1465600032137737,-0.09846148109670826,-0.1553067842197959,-0.06501800191966126,-0.13586174832341913,-0.12384017740069601,-0.07715071079671199,-0.05649667897522625,-0.10927680175366342,-0.04003445993663405,0.14926140209808494,0.021297710392833,-0.03801306889301552,0.1920846146892507,0.2465093425117861,0.07542018368127963,0.10651133153858126,-0.08773893060840979,-0.007147656686124881,0.03536864702186704,-0.013119662462826677,-0.0921060484401814,0.14989664448836887,0.0180089937805966,0.09546758256681973,0.03868161538944871,0.08492741377715195,0.0906160748709933,-0.030139575248467717,0.06524166624475039,0.1859959099075562,0.1585978102873415,-0.004814019120908326,0.06212168876631578,-0.2224202438353024,0.04585072571551634,-0.09134533038796899,-0.21844270979514646,0.0010552372029067648,0.06601444593441227,-0.06346486493608292,0.20212420284821042,0.14507407875749506,-0.14969628191949175,0.06261431245574663,-0.047628304314729315,-0.08561942043735686,-0.07579730216267809,-0.08308588953370916,-0.15337075437141257,-0.05619629984147678,0.07249266890082588,0.1479484664769931,0.1435838210794374,-0.05985242874651162,-0.014643926397855792,-0.09274994502855455,0.08337298480293324,-0.1966794788596845,-0.1857003980334266,-0.13927548135525966,-0.062183946254739685,-0.11584310199833815,-0.06612860051964338,-0.046775692793783734,0.015573752079408284,-0.1172167794469939,-0.09752202647203737,0.01684354135062747,-0.038355014501878254,0.010111547217253518,-0.18059642899949566,-0.00923100510655955,0.04879731782694757,-0.0554084674528658,-0.01700742837068268,-0.011059726468961409,0.03317981013664183,0.04935411523420267,0.16139543990005592,0.0534364015033753,0.08407619044054124,0.030569072404794076,-0.10868900226786947,0.035998777358125865,-0.03683530885386681,-0.09961225581302138,-0.12716459788301682,-0.05389217022277527,-0.12784665374393372,0.16266204100344717,0.13420507186513828,-0.059651704516978064,0.06610428491596039,0.1038717690892259,-0.07219505048965008,0.09774572765591256,-0.06306954094471742,-0.15502136723623858,-0.3177670296722366,-0.19627539263866847,-0.06354167593053943,-0.11002779324647594,-0.0653056188087635,-0.1469434397983651,-0.007473350267953361,-0.043599535485376484,-0.14492325671829231,-0.03386094559612708,-0.05998435324692623,-0.1576465807515578,0.13780404755840403,-0.016372117656807066,-0.047022279575031065,0.04176883927906279,-0.04752617421215075,0.041888169623320023,-0.19030004615913607,-0.0982565422725582,0.03781489128902282,0.12173738806130169,-0.011676188892135465,0.009337653852228662,-0.10450329833484971,-0.11681976752478515,-0.25061798654760636,-0.11541956459573502,0.02760519121112753,-0.24315696484410476,-0.04464831866344632,-0.1404935374964848,-0.13353446039932637,0.03224940465826941,-0.023055410037374064,0.07617802988694142,-0.17839757983363475,-0.0460997221937475,-0.047918896512284814,-0.06138485663093348,0.03970779377067086,0.08109719417687813,-0.1232105211168896,-0.1159081619630533,-0.15912122216921368,0.06131346315538517,-0.09453487044493203,0.009298416734988218,-0.013887971776576656,-0.057361542805989735,0.08832297556832922,0.09353155260760956,0.06899460708036556,-0.13447851374455197,-0.12167780796715248,-0.031887913268363995,0.17669178255814427,0.09530750016414924,-0.059246118844477204,0.006899092583117948,-0.14492565072954225,0.12464349322009473,-0.11756839347005964,-0.06946275052880957,-0.04531368087060939,0.16582880133857228,0.012368829573866385,0.10600026766549714,-0.015692024755885544,-0.12815922828177193,0.06935951396405181,-0.07560665081640731,-0.15817556636707406,-0.10459970798468116,0.010051753535945602,0.16308282704168622,-0.11628094868978235,-0.11845781980835479,0.2905505265035421,0.2002481417439307,-0.02182693825475853,-0.00313950004751949,0.07260290643837025,0.2710554038373119,0.04464323142901386,0.13159054929400957,-0.08426995130135223,-0.11679723450643831,-0.03424568785860969,-0.1851122910112329,-0.18732499014417378,0.05607067451504036,-0.20613823635567444,0.007438376886307495,-0.035081067505881185,-0.03974004100418238,-0.13699074235031633,-0.20865673894424114,-0.07201969105857482,-0.12626455591652327,-0.07044365592628651,-0.05200441358994826,-0.13515071341826018,-0.12121588348002961,0.09202835545379326,0.11484222507839882,0.1823961079420383,0.24148173349911,0.11597525245430443,0.2077576997148361,0.17802303767408176,-0.039872889033142005,-0.07693547740936373,-0.012291613197361845,-0.010860922196207982,-0.07590515949007978,0.15892546896074763,0.06913410115540951,0.11675305730164383,-0.061446648717984595,-0.09706876909703203,-0.11106513488356627,-0.013952723071349742,-0.12827793474836047,-0.06581312670696454,-0.045894465698425715,0.08938897289860005,-0.05348000225494076,-0.18145612586967985,-0.12100651412956923,-0.04552661368172397,0.020619043389724704,-0.06938563080766415,0.24818724668668035,0.41642487565510156,0.28006915221818457,0.007603915277480724,-0.21886708394421364,-0.15595587728080315,-0.152431845671312,0.123965780994771,-0.041929963182372444,-0.04178020146408528,-0.02043074673702173,-0.11889083923262982,0.06833611123150889,-0.001552766173080229,0.1453438539217031,0.010904840433726004,0.025721419284832393,-0.02982478644023131,0.14517867005672838,-0.2134475545899545,-0.05349251911597194,-0.030897462507840465,-0.15158883936188483,-0.11207306716653233,-0.29283291185023425,-0.052636229210484685,-0.2140278771341218,-0.006143225143453763,0.054853801766061215,0.04021684643802591,-0.1506820182879516,-0.2720102618666332,-0.24963422673280838,-0.13317938941941013,0.11041018308824439,-0.009814449412206145,0.1640828714874979,-0.07601146425996523,-0.14923222436680303,0.10088390667560154,0.13351734851609634,-0.020289696832388793,-0.05926293273288054,0.07586211766634525,-0.10298635106501579,0.09098027282555884,-0.14115727449851376,-0.011198187954059163,0.0023807071815087648,0.12512755483582916,-0.17936944858644055,0.011710043310562204,-0.045473164405479764,-0.06446636985169932,-0.16991684419033548,-0.22130756741234894,-0.09639693871354353,-0.04537395288961701,0.04864500684827667,-0.19821458734772876,-0.2134122765259891,0.0018944373375407567,-0.1014864421813563,0.1374138387318838,0.08058446117980561,0.04323211480476962,-0.0944207594893575,-0.15661595154330618,-0.09810833537324007,0.02055450271144977,0.042972559750629365,0.11186051670685299,0.14142846424246927,0.084631696488785,0.0009796236410123396,0.024064748790424577,-0.021990238029666022,0.11356332550780543,0.06001951613003516,0.0341330711890739,-0.12300151310478885,0.07711962432716335,-0.22122679756916336,0.022784939190556058,0.016210423044288894,-0.22127687790899378,-0.09775223862482599,-0.24834549136175732,-0.09433464376238122,0.032851508123475176,0.050081102040615944,-0.10001436625891692,-0.011902320218350625,-0.04674401706297073,-0.06173682739959835,-0.13067811083171088,-0.030790960325358652,0.030724421667544573,-0.02581622056890098,0.19978536920528245,0.020190090590302415,-0.023145172058595034,0.04582057264998092,-0.11340747001911701,0.044560150234291766,0.17207915571417345,-0.08200707892368665,0.04027337943348471,0.07579318054497922,-0.17996392933798175,0.12568721638802074,-0.18945216558849168,-0.10731233301912713,0.0008332255520635099,-0.04910903779116547,0.07650031919588962,0.026721091828203317,0.06257919287690744,0.020596427348296316,0.10245614203096794,-0.28867705412338773,-0.04123176625279937,-0.07341403786236417,-0.1240527110540535,-0.08020018616738836,-0.05269576130258285,0.050913580926494915,-0.0964994874377926,-0.020834937676481133,0.02506082816438806,-0.11801838761236373,0.10878517469941745,0.2443476983975396,-0.05414091253767309,0.10620677633844047,-0.026045027759708312,0.012377502469343517,-0.0736048505993074,0.16413469196932692,-0.08716817390360251,0.04348860787537926,0.04249150049986575,-0.11034566038164514,-0.18952958154549812,0.0724514167887433,0.026931360751218596,-0.12349136445159109,-0.1573296707252658,0.006977526541541177,0.029593410632856507,0.042833326957960896,-0.016115574900892857,-0.09544594940409801,-0.13011086958632148,-0.20505898111552479,-0.007494317422985243,0.18880922160902275,0.04532527801613995,-0.01041648241356476,-0.15452966917489144,-0.06878702104873873,0.010254862769234168,-0.007411752488355534,0.07529495137653697,-0.08686477562566877,-0.017119920371083876,-0.09798398262559156,-0.1197805075973146,0.03419737592751295,-0.10458107436419568,-0.017115585559260522,-0.08414023488462193,-0.01353320493877085,0.01854015975843279,-0.007425947642446008,-0.01137854182256265,0.02605420716425413,-0.011883244647804868,0.01519637264957046,-0.002163478518647596,-0.11005317751782204,0.04450803579384445,0.08746581901705602,-0.08969572179460764,0.021507693078880195,0.10584206799511829,-0.039790002487282164,-0.13455216253434077,0.0035892633046158357,0.16383818577202566,-0.07707531932016914,-0.029047199845233046,-0.13971816521281616,-0.1218482671583187,-0.07120810806720176,0.05815723466456956,-0.13182068999971863,-0.07990016199613287,-0.060668507147039426,-0.10705818902887672,-0.21704907536693085,-0.19546906801620634,-0.10499127688859283,-0.11613090481089916,0.001163734347729191,-0.1781564136779182,-0.14648110329471853,-0.10888094744532192,0.0069000793973197395,-0.019091414461991647,0.07859503790514406,-0.0796491409487822,0.08888893409696919,0.09181206104285144,-0.028685992709262507,-0.06469296786333732,0.015715396276526943,-0.07793837060454059,0.20902583376015102,0.01753597888950122,0.06330473725770651,-0.15947978327302553,-0.23317172374280853,-0.0010432187263380598,0.019065169670653054,-0.07955806962518377,-0.09089913284598422,-0.09432355914489327,-0.039600105270620876,-0.02809244047887762,-0.3001576856503552,-0.0957943322817425,-0.20455481391332547,-0.11779190921137227,-0.05443051235861065,-0.14604876967359642,0.2853681091828675,0.2445929629718696,0.07640932095791794,0.0638981923079956,-0.10678086726980511,0.2352956650859335,-0.0006074960152947666,-0.014778773502331885,0.1180099245453221,0.024501402732644874,-0.07489426985255701,-0.014965206313961699,-0.03493565677370867,0.014983771658593669,0.052544121852789706,0.04584438794117532,0.13980439512390874,0.021148824031959775,0.10927801273360332,0.1950057845725686,-0.1332902667075005,0.012955353248796929,-0.186588938236791,-0.22309692549664517,0.12077128887753746,0.09878333169259403,0.050985695844279574,-0.04623813858180093,0.15468709639970726,-0.13388840374699373,0.00556805337526076,0.04531579530192608,0.1258599590772041,-0.15508199243979118,-0.30885335811294623,0.009097808826191362,0.029319186608009296,0.014742740554089669,-0.08927926261810826,-0.004585456050869462,-0.15192214301508586,0.051383675710652194,0.11091723005681037,-0.047187586936515674,-0.1600627752684577,0.031885065565812734,0.03756167730417408,0.043068072390909186,0.15000932717121856,0.024007884563070306,0.21345275188438112,0.05780659940666443,-0.07834112347573165,0.13009032504003212,0.005400441493432116,-0.04441589220109264,0.027413203126586762,0.011348361073757418,-0.15750469439388876,-0.08773910241926397,0.11231891784009997,0.015153566743549155,0.061459372866886075,0.0995760419491004,0.17682208466081586,-0.06631425831126345,-0.07164465270785095,-0.09546797477692846,-0.05988593256024535,-0.0894645815735081,0.0021492455891119282,-0.009588148316506381,0.05662292233741059,-0.11547038751429911,-0.06560118379276131,0.02314113932762298,0.060540738518579704,-0.24161681354347933,-0.06478034220260903,-0.023694353189517053,-0.20376528140430433,0.047885742048081596,0.13402955212905854,-0.19343539864178327,-0.16217327906880832,0.09272338257190817,0.11109470082826983,-0.1297170289379038,-0.101201293772841,0.0635026581711333,-0.02674159567179039,-0.0545708655798372,0.15697451546090938,0.027340681343661976,-0.18438433335652013,0.022855964657773373,-0.1430206507570265,0.07170112622081629,0.09554799820762865,0.04221193000469772,0.09092706048447152,0.19355549891140203,0.06808868412577913,-0.043587902992421906,-0.11494541759348964,0.01710678503746181,-0.11005059442591097,-0.14943289922525865,-0.04938488041932026,-0.1809773893762199,-0.1325532119224063,0.04812401770004518,-0.05014700627153895,-0.03316469432956614,-0.005030832368251374,-0.19785840407497987,0.016183152049386373,-0.002822216809083093
-0.005625361847358779,0.03317991618320071,-0.21759747181694994,0.19007823632779194,-0.031439826354034354,-0.14452608657524046,0.01004827297765483,-0.12822148718526993,0.005534555108242092,0.05295550833277628,-0.1329943976196517,0.0834379280360626,0.011993691984024205,0.03377207304159857,0.03929330052447209,0.05013833334115818,0.11093146508118792,0.08494072990153398,0.04758632047105077,-0.07753867750328518,0.027528395370593747,-0.056888110316912974,-0.14597994224348687,-0.005242402397429581,-0.09238572455140151,0.11240942370232845,-0.004875634296369639,0.0034215419957441336,0.07641589698298061,-0.04291710706800732,-0.026764200717369846,0.11536240135356811,-0.13947257508290067,-0.0878027446941441,-0.015738492892909187,0.07423275087266266,0.02103545587581581,-0.11816487611660033,-0.09825672869303548,0.1624967798110675,0.016409602366061277,-0.07715917692686426,-0.059277694469912136,0.36838886596044657,0.13374289174041523,-0.16469245275426422,-0.04792296806528784,0.0709389174461747,-0.028762793301728387,0.11283270797454212,0.17531887261501172,-0.0003504930576628403,0.028369236609867378,-0.017970943550722686,0.08717519173432728,0.14888780147387895,0.09233482252185957,-0.10940247544750589,0.07432898384100241,-0.0591103221818777,0.17372137220195896,0.04656534014152245,0.10290759675904734,-0.007817634615628295,-0.011809888415750392,0.02968064069606543,-0.01787421566012846,0.13143980668467048,-0.15473059325657368,0.037050730855601746,-0.07360071661287475,0.08057139570260129,-0.18967843079050709,0.12419257264140729,-0.03723109519129169,-0.12483355358548505,0.07129032676521542,-0.016775484846085043,0.03004482477268079,0.121622286191778,-0.11028243392195856,-0.07474302652586665,0.006935998162653783,0.055646824975551026,-0.07146621246197454,-0.08041924638579065,0.07602306795438663,0.09688170242503745,0.1387536348694347,-0.03016021431267735,-0.2633883476206087,0.04186473363774624,0.05802627704091242,-0.16864473905691357,-0.013141436335612345,-0.00889842530925912,-0.019260832797769564,-0.09994340047952767,-0.035445442976587374,0.01237861879562373,-0.2257357186739371,0.05520335082869166,-0.06771470195710487,0.08024852304474278,-0.07751574098200599,-0.17228980218009265,0.11775642846988763,0.16519913625377974,-0.18691261987345015,-0.13025213180671713,0.008312606500354102,-0.10604074703899706,0.07492045982601495,-0.08081108911070135,-0.052861674925224124,0.020182450782588384,-0.21030465440573637,-0.026960358742333608,0.1937186040793541,0.06641126137490194,-0.09374351035745604,0.09756401372286468,0.200484532647254,0.11159191887313698,-0.09953431957260225,-0.1547630341991931,-0.1615641045953438,-0.2524659964953468,-0.14866614404732814,-0.21807371560351133,-0.12359956128728171,0.04328013892430908,-0.03686709354907632,0.006218614149815386,0.2261160539524621,0.048608089136946184,0.12405156355815594,0.04259249024935025,0.059408643578091,-0.13602223541512534,-0.05580190618021923,-0.027330102236784067,-0.04571552883558565,-0.02006543342850884,0.028816021071605122,-0.009476793296413438,0.09143878696930391,0.01689733769380345,0.1431103214252303,0.036024446274817865,-0.0026190239310460287,-0.1190208447013012,-0.13622199856959719,-0.17874914915039886,-0.1312461285804621,-0.4918309886616502,-0.18592905629875492,-0.1420699218327292,-0.025549832020960023,0.0002998400156988309,0.18971930814862883,-0.07253444798620316,0.022434681864670104,0.025292669319507893,-0.0013888291150901098,0.055435584873802915,-0.06638107947543623,0.010720130593755173,-0.1228893199522432,0.004667062188121811,0.05981797275358609,-0.03030778490157101,0.05797026223446987,0.022981826232987865,0.02122425605643306,0.06587413917041807,0.015411238583996347,-0.12147019196974754,-0.09783595425972642,-0.026518019389802534,-0.30435263715256416,-0.11469709867413762,-0.6392371593465302,-0.6505249555839591,-0.4812319641357132,-0.28339958132762827,0.08751118726295141,-0.02612816402134618,0.253471621985538,0.17647564012121883,0.12285198106985011,0.21054352379837085,0.07754313311655586,-0.1191430112517715,0.13576568220469537,0.09905596750123391,0.00927612725704122,0.013936161410415992,0.13443612096505933,0.18965357525181195,0.09277760315607515,-0.0815066427659733,0.10010410012007263,0.20903550033925558,0.014910119125429283,0.007451530538657856,0.06708372175226796,-0.02158848410924811,-0.13239409115441958,-0.21081858432101513,-0.7824580674399458,-0.690533033047443,-0.535223638069563,-0.19542314709381586,0.05389622717752935,0.2046520600177924,0.19381741051873752,0.14419223869532483,0.12619874127154074,0.1021668464927314,0.006720494779881071,0.12279048601042435,-0.19933676461268712,-0.14123307387607822,0.15857642307571804,0.060695623393884075,0.07469379941984,0.15262570004257184,-0.1587203440567761,0.2035697272600509,-0.01020256747845981,0.039205427863975066,0.22690797120432374,0.0623047557010527,0.1737970115960055,0.19760006082595402,-0.041229250659554205,-0.206076914359984,-0.44868872310007896,-0.5049248190808772,-0.2861404194929287,-0.18314608199300866,0.32931590716422776,0.16997333711689772,-0.11037341628057755,0.0356144594979143,-0.05472370545940212,-0.05593101249052831,-0.01611256268860808,-0.11548730461129258,0.09767109340859828,0.10940692555887369,0.006584614414862874,-0.09832780669578567,0.018222331069907515,0.09683640552967077,0.19993541188982403,0.002020835629479385,0.044766083802350636,-0.031750728266331636,0.032008616975402034,0.21604113034719152,0.31749860966456234,0.1344968513508467,0.14547605487048196,-0.20385075625911486,-0.6411879138378324,-0.47027961954167347,-0.10097548111554407,0.11366977947302762,0.1888631147783647,0.22724225590771507,0.17723391486923182,0.2916451852162585,0.06262961879015805,0.08505069547226575,-0.007793633498520367,-0.013928890930320455,-0.13804959597596655,0.05190727672257696,0.03157264748693421,0.2001170422268354,0.10038111712304099,-0.06608387582890167,0.0015328686173488725,0.11024934914961758,-0.05585015436985937,-0.06761995702544127,0.0525764192096527,0.16009049887704657,0.1630853699140725,0.26372206153174205,0.07401966314355247,-0.02335343837079534,-0.5647665133093969,-0.26565696505246666,0.016452763466402533,0.3008247345339554,0.19706493180063173,0.15098285533676606,0.30388449874696566,0.14878758924060617,-0.008624087615017947,0.009813713443427007,0.07423984490077641,0.029974543690286293,-0.07444175365225954,0.09649947010528469,-0.15466772783946015,0.08386784283559708,0.12623957015904735,0.007759451737335406,0.055307236106482985,-0.013524741322116767,-0.091191737447156,-0.07150628473726457,0.019985725213958676,0.15534802146845644,0.4724231263394175,0.13072599684864517,0.2358076182881284,-0.2644683082724734,-0.49794191286019335,-0.43785538124281326,-0.10637627030599402,0.018079984886136734,0.27862476921821855,0.0475030278509006,-0.07414986511593041,-0.14062769192195457,-0.038039486330794375,-0.14949419689933383,0.07987268737943337,-0.20388897922528917,-0.0972696797579791,-0.09032467808741668,0.04642647484230406,0.030708294115377732,0.012029908887395661,0.016980282288277,0.026241280111598705,-0.11569188762302136,0.06693213619507947,-0.027144100431919234,0.23406903951563882,0.21950351637876384,0.36684080955750215,0.07673333138185959,-0.07694741784637049,-0.3460481503931376,-0.39081828282638453,-0.5468960108813137,0.08715047960038821,0.30689910078440613,0.18278933145757384,-0.12158923352061576,-0.030068227568973534,0.1310629354038771,-0.0981068359375516,-0.020911786247028823,-0.06380136953545588,-0.12334636690094969,-0.08583442048139861,0.05135577355551128,-0.005642968671029345,-0.23996399612056787,0.07056578829676384,-0.029303196390556938,0.0649239314551314,-0.02957537085734878,0.3769461522407597,0.04175151662543187,0.2862695952742448,0.10813654669116267,0.1207784241264783,-0.18184891110406165,-0.10627353483381495,-0.396003078087998,-0.3280155762273222,-0.2743973056257669,-0.12261835495086609,0.13941239562800672,0.03376763163394685,0.07659190704032816,0.21793436770827185,-0.021283126471540372,0.010164961177929206,0.0813790403176598,-0.14631384982756965,-0.03954795094532616,0.06478164035206045,0.034155020601221935,-0.009536543661998556,-0.09459691598773459,0.020758531759524704,0.07160232127882907,-0.07243755017399406,0.07162901847824313,0.279990194996004,0.1318811369539961,0.13603984629031682,-0.0788271562525891,-0.16767243698765943,-0.22252865716329792,-0.3160438845105727,-0.4751236717075968,-0.504966297805989,-0.14446624301696162,0.17241333975766288,0.22490272262942523,0.14498912757317245,0.15305520280369264,-0.08677403191848418,-0.10124530960426448,-0.06298519994870554,-0.11590474699651437,-0.01808278859739623,-0.08043657971487532,0.10880605840132372,-0.08889791141555958,0.055151895425926155,0.16685145615714128,-0.11898246068656511,-0.056151667998347136,-0.09544998611484722,-0.08936261213931268,0.08061926333056046,0.031192166160334444,-0.05733835095165967,-0.16736505921689415,-0.24054691086891586,-0.2571376697756926,-0.403047014726654,-0.12888899619560484,-0.2545289620470188,-0.014754056353625795,-0.02216780147904639,0.08858687269883314,-0.04374479732561509,0.22149923173837643,-0.1678042056223576,-0.06535165482800305,0.012739619775612684,-0.22907874859580213,-0.012387403041943893,0.11810378102630324,0.024617511285492787,-0.001071524973114086,-0.004512692260153318,-0.029194452276738045,0.055534901429394254,-0.09217271053370413,-0.01591235895099884,-0.06424889077504496,-0.02213679129874823,-0.08929212006185352,-0.013158385190799305,-0.3677892743469795,-0.3313059097080232,-0.4584315609771081,-0.38155782788512577,-0.40714684957059827,-0.13687216299408858,0.18666886746948427,0.08868120735867488,0.08470396546446357,0.11311341975173513,0.1465863039988491,0.01047936548729645,0.29292726464492896,0.2228057203650893,-0.056810659354017974,-0.2091366248262604,-0.13455465009118286,0.029612423825949218,-0.058693110946716656,-0.009274941717259727,-0.20075125296557356,0.04023900709071127,0.0990673276083912,-0.15898595139442143,-0.09744047704013359,-0.03815803300513037,-0.2603175377742958,-0.1308890452545326,-0.3281289470213787,-0.4999180124263813,-0.4298110622736806,-0.27601094482321964,-0.08201260089236455,0.18360269949164745,0.14949610092646667,0.021021394586418253,0.06084070001028315,0.06810163309851337,0.1511040355635173,0.16879418185095305,-0.01830609009221861,-0.20627170538545594,-0.03177575560526452,-0.09458247183069805,0.06576102216564733,0.0648929031187313,-0.10613898066143114,0.10371735248783734,0.13812912538642635,0.037804994861375514,0.04849883676330248,-0.07738496207592174,-0.16738272551110223,-0.0014414850346217627,-0.07612881340469442,-0.041705234716288744,-0.16182285956380568,-0.20085921337071255,-0.2916532501555635,-0.16833790970445572,0.09061523577505595,0.18755069886493,0.1099874103250488,0.03163247524031867,-0.014046724136873433,-0.03254371685070561,0.18485687224816202,0.024725407971607206,0.1550435996092325,-0.17180832826914633,0.043044137919896364,-0.02340597283563604,0.16567872814685491,-0.04730852530986421,0.17815921859033182,-0.05996932472616308,0.003466684844247882,-0.11560133358775106,-0.010122786979663777,-0.05860144442476181,-0.17551563375123821,-0.29290223106797103,-0.058499632835250066,-0.06918811931005277,-0.19250235982675556,-0.19584960561309742,-0.2940698270220608,-0.04917037168826433,0.122782351498039,0.18843720451292664,-0.058073151927591604,-0.08345873709868333,0.03526832336608843,-0.05182937401097655,-0.040273145037722335,-0.0008747307642058278,-0.0010067953885331757,-0.13545638591225764,0.034949326709388426,-0.03522395664785517,-0.07398149236800307,0.008051609834715139,-0.14677895077453856,-0.18469461900541567,0.03278534004470799,-0.17743254530659056,-0.09003861323120078,0.027073154987768067,-0.09122470173957115,-0.24306790652498256,-0.21454799018621462,-0.37143149771778855,-0.3679461676069052,-0.2280829725803215,-0.061240736719508755,-0.01033500898315452,0.08904291080902899,-0.029701169604783986,-0.050256483535424376,0.03672291605585225,0.08015513776756353,0.0774199384444017,0.06099212044612302,0.028804449275395744,-0.0070869499855088685,-0.11485475761387637,-0.07920984907192498,-0.10679488727121247,-0.08199800010305615,0.18675326694512986,0.07736789937967688,-0.06957872731056497,0.003125160688362482,0.0296259613205363,-0.02593289775196261,-0.15589423540261,0.04011906983700686,-0.28182674469136487,-0.14018397483776385,-0.24027589120180212,-0.3479819805729148,-0.20487523927408838,-0.23896388989713988,0.04356185528193136,0.08669984873639361,-0.03225982015293499,0.04727063892701273,-0.29220490765906393,-0.07527911996139024,-0.016717433541603446,0.21300934598571264,0.05664193524356543,-0.04663678291869999,-0.06479230040237616,-0.0687921737769655,0.049010786532782236,-0.11410812984416774,0.09078921584333285,0.06885416292331506,0.10197067767140096,-0.03589900327576406,0.1061758503937178,0.08192853288996085,0.017223528558880145,0.0773268049197213,-0.12272597325137885,-0.13514182680416822,-0.060678218564410136,-0.015313465260434336,-0.2573595694290992,0.021892451262558413,-0.16962649916204728,-0.028849363015314527,-0.051929358828158245,0.06609178033216982,-0.027662746451438562,0.03711702778058476,0.2009156989498073,0.10348793559372516,0.11039316876436142,-0.03252073031846474,0.038910761409662833,0.07594937865715382,-0.0027679428349065573,0.016868206331127244,-0.18141180135060597,-0.078293784281329,-0.06337037272189028,-0.016170676290164797,-0.14261740107997312,-0.1358618732390337,-0.0008805406943545183,0.03612236344619822,0.10666042613543555,0.08874544218697747,-0.06464209212906202,-0.15060116056251285,-0.014041293177975011,-0.16461426803312015,-0.03486362689567393,0.1576151276776079,0.21009801831799915,0.08216414285417678,0.19017855563970507,0.03790401472092164,0.05532796691606233,-0.13285897648449113,0.03944319888172367,-0.004122743432773346,0.037525328133951,0.055121808484747126,-0.04350478084003579,0.08079068269269385,0.18703934074087478,0.22902366131155535,0.0761408655802402,0.027742873950212958,0.03814372640842283,0.009937735744445363,-0.03588162381013243,0.19541589703721596,0.10600591197853869,0.012857029248944093,0.16690704532015088,0.07924246899233206,-0.1366871968356444,0.08009155751859061,-0.014172154739945307,-0.05238172948467729,0.12011612132036201,0.08291540604619335,0.007946082164645924,0.18258680994802542,-0.013287105419476258,-0.05817574081390232,-0.09551145771829983,-0.09555337002904543,-0.038033235207401914,-0.053976965363288824,0.31047936933175696,-0.11007224992245086,0.010621804925299703,-0.04813204263291883,-0.07135876901544917,-0.0678985665232702,0.0015351224919998695,0.09487468940275252,0.13236291954648965,0.06976292849513277,-0.04297671686096233,0.19702068877770054,0.21509474476342175,0.23164778387973556,-0.07270721976323169,0.015546219200379296,0.06768479416923319,0.06917702374513851,0.09574759574672857,0.10532705535013759,-0.06821910368918749,0.05377649128722043,0.05144253875578615,-0.05019066367922563,-0.12535027299270854,-0.013076722466801175,0.09093613129068366,-0.02442024621119106,0.06551344732593344,-0.07463374764904371,0.03681924669677194,-0.12857089692833226,-0.11479609708327246,0.20774346557857915,0.012059966847695799,0.10926620683968685,-0.2741403543255359,-0.031069158984953098,-0.03674568453451414,-0.07531537667393245,-0.01125335626261619,-0.078211910345966,0.09543524780363997,-0.020926117271661052,-0.2012533548897154,0.016152024571717,-0.008169844122269176,0.13597852849018743,0.06264095099367877,-0.1239366807750518,-0.08427946625983783,0.0670166557986456,-0.19849315141393725,0.025357648960742087,-0.0701265210343068,0.048734169663305606,0.052721757399472845,0.036354274140770096,-0.07578643894192007,0.0022490718551620285,0.1209175329513429,-0.01956469813546074,0.04356272135354314,0.1637700646310557,0.18984997927475825,0.154629928312144,0.013239174226173864,0.007813940959408228,-0.01943501523851982,-0.05388836551188773,-0.019757275636747233,-0.1428162872143385,0.04516483905735871,-0.02259328115700087,0.12083399181750497,0.11188882405613373,0.1501641383495952,-0.06869224803475997,-0.015627532358483097,-0.07145123196265414,-0.16470308270159492,-0.08112960180375975,-0.07896339433963628,0.11253641775547363,-0.2750188887727063,0.04992678293967072,-0.02646664695955423,-0.04687098164453679
-0.02199275509915523,0.055186650150357106,-0.0011866704796098875,0.24643485665144857,0.028295471048014928,-0.03847343641313637,-0.04435664230787023,-0.01300667356706997,0.16766656756593698,0.06292226671926711,0.14631464024016463,-0.11781020282437066,-0.040010807190512955,0.015581782048815052,-0.011656429432292368,0.0788991675277394,0.11376096631314772,-0.02800143143562034,-0.27859413045413706,-0.08367102414221081,-0.11143993581878558,0.06686295023945424,0.21295789256770967,0.04291837643607821,0.1905882031955766,0.04241258575296329,0.1209083701950566,0.04102220081220234,0.0841483279956578,-0.08408835282966906,-0.022398583177619107,0.15942205173861881,0.10158181509546602,-0.12690814363848887,0.11612549240588921,0.1321531096990256,-0.017792402058941115,0.045258460798596564,-0.04131931086078173,0.05837765565735275,0.03910222664496969,-0.022245054006738808,0.0021851406870203437,-0.049852271759365505,0.07510004209162228,-0.05295491315449112,0.04929245453085432,0.039946893362562755,-0.06851228902252647,-0.030916458600328035,0.039869466768031096,0.1460547102533574,-0.05543935105021759,-0.0037745905719515924,-0.010014349786526648,-0.1667297967297818,-0.006177802318619268,0.08380298271331674,0.08674307228513901,-0.03939253472489178,0.06248085898008775,-0.01627675897210395,0.04491345030286312,0.10997730804704335,-0.03970698842014631,0.08177787868950041,-0.11151970836332421,0.15798646673447117,-0.09270945884734587,0.05261529577481869,0.04251989359113218,0.11761252834535664,0.20436467094159666,0.03501331551958794,0.055645698619176044,-0.059743009248828714,0.09121690043643856,0.1336361176174049,0.14031164534714102,-0.08883732518064152,-0.08273203640411228,0.09619358813921947,0.10252816176362714,-0.1963884282761084,-0.07304525194309386,-0.21087837012903407,-0.010507506841839315,0.022779878645164637,0.04373016157691737,0.05324867054211546,0.07423064538469394,-0.0007502944515378259,-0.141050448646513,0.0420634965219933,0.10687156081749434,-0.10620113583861128,-0.08924658542090662,0.08596269541176912,0.17077871302039901,0.03267919182347658,-0.02620426066023381,0.09169991426265825,0.07468255855815202,0.06947360548917254,0.17409360024801862,-0.1347042170927543,-0.18308069160981344,0.21372824710325036,-0.07052091515114724,0.12476508621360467,-0.17571179058595737,0.09447128811257857,-0.132783119629468,-0.09012415562209378,-0.1312712007961282,0.06353886056830738,-0.09178857022367871,-0.09828146225396862,0.059492545273729866,0.15988247877017722,0.01508487231726508,-0.0018574779297034008,0.05665096108633164,0.14766526648467707,-0.05728927233241512,-0.1282427564809023,0.14215448535529565,0.14324180908738784,-0.1357580661197592,0.09143955621750965,0.10523499077138151,0.05729085169473288,-0.10191346980320018,-0.06287626470425678,0.047366603817019924,0.05105935000190358,0.18191476229075407,-0.1349056682657087,0.10893974882622816,0.02990178045343994,0.09020344537273778,0.2108684719953097,-0.035661684835390534,0.023113214713587595,-0.15194772375719212,-0.053654702291025286,0.16854411214665194,0.22172333394795857,0.0007615322642658554,0.006050727643715775,0.06612005219237474,-0.007569710498789285,0.2199450765077859,-0.15121154087273178,-0.23414901809084476,-0.13237231986914125,-0.23421977373455002,-0.18573258267067885,-0.14243088852992505,-0.20341142634297285,-0.03184971685108776,-0.11646174978389037,0.02911710226777312,-0.036652545122421644,-0.0084710611686514,-0.014854681013296909,0.14580500363942853,-0.10469340332287176,-0.04963846199205493,0.015096543780256932,0.0010216443940840457,0.12441445207376096,-0.021766171385285905,0.025644965118783326,0.0010975035510539586,-0.1340633203949893,-0.0794132681294288,0.012951225195208848,-0.017506899794897043,0.3241000572177488,0.04099214545806887,0.11489524827728924,0.1964601529027014,0.11310678139552591,-0.2550952820033975,-0.15969327817239076,-0.04631957838293632,-0.0018274054849463338,-0.05204078695346789,-0.20258088374348734,0.06836515117168972,0.13853281955415095,-0.03783612150982954,0.10747232252468995,0.11585549676711925,0.07425771959935648,-0.1271994377656354,0.2531486962996168,0.2125712232220283,-0.062048927451295706,-0.05107182412705802,-0.11664274291526955,0.03069334137306664,-0.10543786269564509,-0.04441858652513244,-0.0743247513302235,-0.18351994760348694,-0.0849740428852349,0.013303366201246126,0.12290736760345738,0.18330999475540324,0.25193287607748627,0.060896492020188084,0.05247122762929055,-0.06440159512453597,0.14880444732945763,0.10119950270825584,-0.20275116413432187,-0.148208843198348,0.09675928262117983,0.12064335924786142,0.15670085787504948,-0.017258861461509158,-0.08869189997740712,-0.006966947668814263,0.1815067210734487,-0.02907968904798706,0.03971487252868941,-0.08902666240554774,-0.13330550602895366,-0.18220656716554837,-0.39222826444765746,-0.18508224056321465,-0.023111110215695944,-0.05243317960255283,-0.10604050312391693,0.02652264443536413,0.06131433663090105,0.24421695293512347,-0.10777366498888048,-0.1644241982888385,-0.16722042230062256,-0.0422804718583136,-0.23202547215411193,-0.12641145587957794,-0.3285210348430074,-0.08594050848116955,0.023595874604083647,0.24747120572485287,0.05758915260187265,-0.011462186276001348,-0.0888561828722853,-0.1285175496798205,-0.08022724935340667,0.05154344157860616,-0.2555488860585272,-0.1098650625338033,-0.2871933966778149,-0.37639675015902624,-0.19746122609616198,-0.3423428520047467,-0.3979660706690855,-0.31180259869800775,-0.21197040057719416,-0.15685504700907607,-0.02628215141834354,0.020916013881844456,-0.023185139716159025,-0.2550300831000404,-0.26405918501335957,-0.04618338776455848,0.00018172969229362544,0.001980474461705599,0.09329800804817354,-0.08846503174742498,0.11976880624114941,0.04394048858005687,0.07669369637254483,-0.07733375955199835,-0.09725507687041068,0.18927619798048792,0.18982531278179013,0.013711891426378525,0.03837075132246007,-0.1188104193541896,-0.0999966832414614,-0.5004115634431079,-0.15852285537166766,-0.41368275626381096,-0.1459060847933367,-0.08685286346099853,-0.16043350508248105,0.11423453905692649,0.16899652561136347,0.18249147285173734,-0.3459345276829738,-0.22412104292263235,-0.022685306816049952,0.06966979669686353,0.08119142833245505,-0.06602684257977319,-0.13833918388209876,-0.1552690371789043,0.26630801069722077,-0.03775338242725273,0.08650691797240748,-0.008009783388111686,-0.006513487323600076,0.040405870012339855,-0.056747871275507906,-0.01575971634745734,-0.10028012186887268,-0.08369039853202231,-0.20032072941603613,-0.1312895216563492,-0.17361310283102746,0.023784450983675803,-0.04825457059998411,-0.14132033952820822,0.1916591314475254,0.2689055777944901,0.24154369343029297,0.10556900035999336,-0.045749043500673416,0.06005252850510833,0.1370510846812664,0.17136440239876172,-0.035330832398940644,0.06888611305213875,-0.15064161050711522,-0.10775453996500035,0.0478623086942973,-0.12948308831079314,0.11592519061065841,0.02470613018514278,0.03384687956587428,-0.13542390454340994,-0.136316884623395,-0.01636357978807282,-0.08233156596966922,-0.1483617628755899,-0.052719436122310566,-0.027722442669802786,0.13599069985945378,0.17707727001290569,0.05489824228307039,0.282283792878391,0.6409213718426917,0.6076805136031024,0.4345786818154876,0.2567004411867402,-0.10251285577270956,0.2663607046559671,0.29564091294547606,0.21607665381513794,0.010507716106617514,-0.006402372905206771,-0.07762023244559317,-0.04088107060062039,0.05402004461733941,-0.1298877538357723,0.20747981872883448,0.01483967579375976,0.05245530489048663,0.03167585897003023,-0.08685675683362466,-0.016895836697426867,-0.31122093272372164,-0.11617339258933689,0.1862735508232615,0.2895466754839804,0.2630237306184282,0.3379529725714039,0.5622162384861545,0.44536413718267465,0.7616478070846261,0.36123023074216803,0.24519235535977035,0.1828397391158759,0.14859534725499968,0.1425141782582955,0.3457258051753917,0.20552744827840078,0.06361105855497962,0.17171912675841483,0.07660365105929981,0.037589728434777724,0.02306089661893327,0.12988364177377276,0.04138896336271873,-0.042743609801189804,-0.20050026337460153,0.06548061121716206,0.11801379653367863,0.05287477427191415,-0.05434859576181779,-0.1281946112756344,0.24757256466616132,0.42780885700654697,0.6837717219569382,0.7901957315385272,0.7136001523234369,0.6493257834579802,0.4057406502568384,-0.05897090588004577,-0.10438296860983746,-0.009636693408650863,0.08662139227066885,-0.05557050578482035,0.049152844438492,0.39397364256799605,0.2760333288506954,0.18544130943794052,0.19118793169969095,0.1475760813996902,0.1700392846263145,0.10127728994271215,0.06616348349730798,0.004453345849905703,-0.08131841342800579,0.09694506918508262,-0.06917939105080655,0.05814790645266621,0.14173560451318729,0.03679223949889293,0.09490405048080887,0.5373724878985143,0.8511329948014702,0.8180472841566868,0.8204694996767965,0.4944883929117067,-0.08479318203178245,-0.3162221654783336,-0.386366187248486,-0.2877288373245635,0.07409756025360324,-0.21848167150432646,0.00841143795106561,-0.10601788028525702,0.23400889774535447,0.2998804527852238,0.10160333082372719,0.25431709125834984,0.26682393327783654,-0.10989009237966955,-0.10208654517467157,-0.12545823242468282,-0.03242674791725558,0.144189670816964,-0.0004918873086667565,0.13590384999513572,-0.07130527944736621,0.15781531252178072,0.10373584598256323,0.274327976384543,0.36148463231287836,0.6602566956129885,0.3395864692133178,0.002252477151348553,-0.42481023846236027,-0.6052101725817447,-0.5042620482043104,-0.281475901311819,0.05087537618145783,-0.13858277137764385,-0.07473418522149113,0.30967916702975,0.1819771192301893,0.20179764191221333,0.12255543642496593,0.4172653015478762,0.30747418792467435,0.06595558386655008,-0.08438063597909233,-0.10171291832889345,0.0499114375237293,0.01180337717721798,-0.15056691459712623,0.12185280661375235,-0.07945588022779014,0.09191247030023922,0.08826852764471965,0.16770838279673114,0.1064547970576133,0.13515462204121367,-0.08940966998840573,-0.2234516847138903,-0.3095847206528467,-0.515195655659025,-0.5438340992136802,-0.14923952597459095,-0.0772460580416385,-0.06074957199242355,0.08198828768613606,0.17994391513459232,0.17363525338539726,0.23846496557876162,0.29029064723831227,0.1625105819657744,-0.0344897440302452,0.04175451862321244,-0.24059016112433018,-0.11168250423955743,0.13559341689647308,-0.03401863218349578,0.16002562935931564,-0.14962166096691976,-0.05265755226711632,0.058905985290999066,0.10484586365326107,0.17055543086297217,0.07114626360617413,-0.13865709110810417,-0.17311176255029215,-0.48165326991494833,-0.44297092585847375,-0.5011529260266568,-0.7469377679604033,-0.0568661146436673,-0.047746443086136584,-0.055698349832317876,0.019453005899394325,0.04886266193182733,-0.0001808051685740447,0.20032766258409682,0.0969811416647784,0.10882609144514159,-0.020234048299160902,-0.06587253183816912,-0.2155863356211833,0.05597349660095824,0.04482906208860818,0.09774327595777044,0.019733958072929925,-0.07637014229501399,0.11081762212501847,-0.04301999012466696,0.19054924712724503,0.09695279754256235,-0.10424001874502692,-0.08329832408462641,-0.1653965988936272,-0.4648408649543986,-0.17896681960090088,-0.3678432882692048,-0.12962219581855688,0.09445866541748123,0.18354930366994865,0.23212334290518333,0.11231739291367124,0.13939227900865994,0.17492771938659288,0.2085285783043102,0.07548819909460117,-0.09200862100173438,-0.1265550527674089,-0.051553219749503006,-0.039577313300924746,0.043957813758484586,-0.06659214906170054,0.14464857409008006,0.0472863973344702,0.05941258459447368,0.0709650788411445,0.15597067577719426,0.05446025559400448,-0.00809629808435081,-0.00241921669567712,-0.10747401579813308,0.014762557639627985,-0.2213627336087473,-0.1558701199527586,-0.20915029176461425,-0.053848195048714076,0.1750399025788288,0.36375413112762445,0.2722868986712188,0.19616884519607566,0.24190738766271508,0.23813540950770196,-0.11607124098768104,-0.09867132726837022,-0.09608669201178152,-0.24820608097408609,-0.2240514726536265,-0.05356856191255231,0.06759464563996731,0.10381707606734121,0.0016279260258467345,0.037604466916283635,0.080972903083061,-0.1900900953319711,0.1733730441157944,-0.14759030490835165,0.03898432804723015,0.0986967549564501,0.11961683004680372,-0.01931901079588613,0.09439291601520335,0.11860668265948993,0.18607127986582644,-0.059712041600653624,0.06106509415724171,0.20495817596103288,0.16174810875700676,0.32469136229654694,0.19641698761481213,0.047667371486241186,0.015071654389411304,-0.10482479837193162,-0.23029799878312224,-0.08543344031018202,-0.11387127323734865,0.14515695076033389,0.11097910763478867,-0.0603109888105688,0.024319778604706282,-0.13412083200713906,0.030954061401377374,0.2123782276624777,0.13045367441421782,0.1355150660228325,0.0949583893664057,0.009497274627529563,0.11271662637249531,0.009690660993312918,0.0002985645042175155,-0.1917012399706952,-0.13863773319541964,-0.09703679960357224,-0.045991007549951744,-0.11715555803496532,0.14695955244172818,-0.019407795767928226,-0.07117054337486148,-0.06432072680813246,0.1156337713663517,-0.169229670637289,-0.12735469999287735,0.012707612848562696,-0.09607665856027468,0.04482202993871827,-0.0034139867046605755,-0.08361174006446614,-0.06871115624435878,0.08366314244298587,-0.039749596825037564,0.12970609634696406,0.11371787647749208,0.02494062984387496,0.0736751587886883,0.27168024485253156,-0.0031534420944702023,-0.10507626794807409,0.06842326814267484,-0.09257808333431339,-0.2690448979354888,-0.06195696046357006,-0.21551248617640686,-0.021145512535247837,0.024059684083198606,0.041064167638790464,-0.026779277071972925,-0.06793705349427152,-0.023947215933111877,-0.12252593729202865,0.1043174816637052,-0.1250726591240679,0.15063592442395854,-0.005932142960860743,-0.060162642330806586,-0.10604663096292807,0.06540395423189987,0.05099802978389639,0.09073669138935458,0.024184843411339727,0.013613611705016652,0.09929765753748038,-0.02982859914800341,0.13604885672966008,0.003999372263232532,0.19403243285664284,0.19176888908386247,0.024765790386305428,-0.06503856911718951,-0.0019809970949639594,-0.17736946748186952,-0.18923669003606822,-0.07157519446838574,-0.13714663159238796,0.16058474411433354,0.06578563355567778,0.20910852363622168,0.08355163250455107,0.3596928186519252,0.08794755510851295,0.02281577445033078,-0.12904985403617522,0.033893858342705134,-0.12994301690120322,-0.02023116703565956,-0.024325101991086596,0.09868910984375542,-0.017978332781533934,0.001903989520609042,-0.03861204467757009,0.035077908856323364,0.05951774533351703,0.3028368205684389,0.04490332669159607,0.03307345241983187,0.01843289375479708,0.21031707148165552,-0.08555131722508452,0.11927115439018804,-0.21854213591142765,-0.18390470219786684,-0.15985818471058472,0.08856990785017135,-0.0021594508140615376,0.1153066963668832,0.07537868761103472,-0.19260151151790558,0.021373770993270785,0.049596742610664726,-0.1209321329081032,-0.12664928596216052,-0.0007252136205379604,0.16454545449340854,0.1516698645079659,0.17966386976825374,-0.078541467940991,0.07351270250165935,-0.05053799770778322,0.0687410499969978,-0.0038888959899722637,-0.17518994660330336,0.027418484012165255,-0.2419145165212501,0.2167660466449943,0.2538056715638508,-0.10947550888947813,-0.054365412605725826,-0.01669504378527082,0.012639368897706855,0.026798168328667524,-0.20452416345305888,-0.1070359785890287,0.12405604654816968,0.06306820250483489,-0.06185340413616533,-0.12433895824444494,0.04499599734182867,-0.03329782154095754,0.10704606689012972,0.11516995663075147,0.07877633779163498,0.04062101286329653,0.037498735182491194,0.0968706708291143,-0.0643863358220255,-0.1505883705614579,0.06776081954900659,0.03301209120557877,0.02843851105464815,-0.016975123449078443,-0.220372426655329,0.2919811007329418,0.285183891970198,-0.05320370665700388,0.07220234796437676,-0.009403963021867894,0.009920357814124366,0.02195854321977166,0.09210582675197944,-0.07783176478190991,0.07699812081699396,0.08482301853826121,-0.24602130002945363,0.15521768152773224,0.07435283594772968,-0.04961083185675286,0.013398905263013915,0.05985767668950588
-0.02621971044400457,0.054753234067011075,-0.20287540215664854,0.023403068064395773,0.1132629983671527,0.0773476439152937,0.023998925310381405,-0.07583949310777768,0.009248001149731155,-0.11641807420832712,0.01427291953255636,-0.015229250737684266,0.0526377122374452,0.14190446630238754,0.08699276074403302,-0.08095278006173028,-0.0945375908681533,-0.08436063938424068,-0.08483274427776608,-0.10164120778873395,0.20136373539285093,0.13217512868365608,-0.05699505044789431,0.0071781473898779955,0.25001275467464606,-0.17565726238231424,0.04178752299738436,0.20253938614363284,0.01709453368930705,-0.05292195637061782,0.12919900318369085,0.228286975592055,-0.016079366832149004,0.12155764340826837,-0.09398222200973746,0.02807954209240888,0.06558267203648692,-0.04300822739468872,-0.04974877704788814,0.0695975641748395,0.09099858345723481,-0.10304471882163002,-0.06057106343934406,0.04291646436565291,-0.1491110907645939,-0.09494533904120628,0.036358286480053174,0.08332440581668421,0.029717516815927245,-0.005279389919292239,0.1704860810247047,0.022430954039098523,-0.050583981880703,-0.20491422453914157,0.0548287372333366,-0.042816102088980526,-0.0326631440062886,-0.008349661226691953,-0.08394925269262193,0.04946002721537622,-0.011553631047850748,0.26758199257098964,-0.06295608004136015,0.032754009283496484,-0.051895808790371444,0.07652752657995288,-0.08432983675437322,0.02079484313623766,0.01968503150019728,0.06133386393188415,-0.14847230013192378,0.09804445282151308,0.053301054781869805,0.16582801599125768,-0.0483363674422032,0.021508889661691503,-0.0716474183914627,-0.06817886284926783,0.07954729090589223,0.06334574082453387,-0.012375777335416482,0.015269481278934736,0.033409071665820286,0.07912072849567783,0.06064078719261558,0.1810714755891655,-0.0002231827835153239,0.15105378288365398,-0.0293344015495208,0.058825062342401827,0.03273246806032975,0.07695570919605607,-0.014333148691119842,0.16685665532080052,-0.2197116416241917,0.05561639994757635,-0.004026586416920019,-0.009405839170587134,0.11654160071873156,0.1166101025325394,-0.12117279532234747,0.17422150712132198,0.013619551688519574,0.09657391524944262,0.10568202597681882,-0.02136575520641197,-0.07784785187785179,0.0629262392657132,0.04673222771388776,-0.0484403687831972,-0.08894444772412097,0.002810898206897509,-0.02782175415062907,-0.0034890483800396016,0.18705391899537144,0.060166088968567934,0.13645940114176253,-0.07358208690502417,0.1481766503907221,-0.004291161220715466,-0.016477636232737604,-0.020326946251556902,-0.033071732751724744,-0.2805260848420011,-0.13212553774704885,-0.03833681739656684,0.04624602211638225,-0.012537168861514843,-0.058348426540732114,-0.09951612127684528,0.08895256275536692,-0.07850269842214265,0.12446890618969918,0.15571358132947644,0.08782690817140984,0.055508457719446055,-0.13266614731819962,0.014441127479430436,0.10769948820772005,-0.022353792509195086,-0.03925248521945732,0.04265199096460319,0.07256936562025622,0.08655713137264742,-0.09592072223930818,-0.07657441119919933,0.017564938205096164,0.08342218274503578,0.13302197790644907,-0.03750168189354654,0.08768307326534987,0.060280980365291705,0.007852742372767351,0.007405045418033,0.016887007763767146,0.21160524651519763,0.13197479229367826,0.2861996463073288,0.3216186888934923,0.02089259286567663,0.14917071040092902,0.15183494409887519,0.008312137329558125,0.05395380092371935,0.21785092318798863,-0.051375777085865194,0.01847461471435448,-0.1878772615908312,-0.0643909970753819,-0.07717220515522422,-0.07790331593230082,-0.028687276711166557,-0.03550296726210359,-0.156518471863303,-0.04072424015580401,0.1320082602594115,-0.04985047319123446,0.23079769844959125,0.07300717627146722,-0.21873583604509034,-0.3082477299139852,-0.2974485416940362,-0.15508137950422476,-0.1622764817660742,-0.19821265151531975,0.0069341288570055025,-0.08684538238952165,0.0605574119142601,-0.033376975919365136,0.13794701219222005,0.08903797827238655,0.13314844925009386,0.08869498128272534,0.2907181658365288,-0.14646911258511575,-0.015988087536465308,-0.17831637760322272,0.06284915507205353,0.028799613587273686,0.19515841944404647,0.03890006178694819,-0.14631728989619172,-0.017548805098283417,0.33571673383116557,-0.12796226777719613,0.118238423613422,-0.1695093881829744,-0.16349669152865642,-0.23981118180745928,-0.37865112603933043,-0.34237916637006066,-0.26259950874163823,-0.12101221001483584,-0.24236368156985388,-0.36805773798829056,-0.2216457102485249,-0.22345100905657667,-0.029115784203686285,-0.07230800293151017,0.05523531833055024,0.23950576365859133,-0.10642818006786472,0.07638045574103285,-0.027999352743233372,0.07151682842270808,-0.009881937138551315,0.013621223711312342,0.005998848242458315,0.1475652519712789,0.15368870859872635,0.1574563828678087,0.30675700628351266,0.19023895034867527,0.13742712336873356,0.0652661715236361,-0.22019075423342832,-0.045157752027416204,-0.2953286658897494,-0.2484819664373052,-0.12170010046688394,-0.41803345115250573,-0.29705557988355497,-0.17702726724444365,-0.2499175697823993,-0.1456852238727888,-0.18412382506159145,-0.2060647744868375,0.0489160197310978,-0.09157300586963119,-0.028195889734293437,-0.10210209520995038,0.024239686822333777,-0.08005148191729054,-0.03855117769716963,0.24861924678234265,0.004470212519277752,-0.017309909972053585,0.18875251120378284,0.1373557290576085,0.22569367285162437,0.12334549289610898,0.025776345302302293,-0.036968841998768924,0.1076311091965415,-0.014954573124851536,-0.14341245069381567,-0.10002096278796926,-0.4282934873739175,-0.1675986879883281,-0.10485821604062995,-0.2673588318257313,-0.25388398278656465,-0.16518388505447462,-0.11857382624249183,-0.026980004482201274,-0.10494266017709264,-0.07132757797387713,-0.09373231447868019,-0.11113989116584488,-0.09642878193227629,0.0784275460959869,-0.22303230912880112,-0.00959768961661854,-0.079362375279002,0.07382541985043205,0.0338702392308704,0.10334053607860234,0.12298230760764335,-0.1471872665585638,0.06564831757187874,0.006163533035866662,0.02029392041396958,-0.04250478970837214,-0.11032606720623826,-0.08840580086982812,-0.08908387602850161,0.27686000213793893,-0.10779761303721799,-0.12734133938367542,-0.008323962577723868,-0.16044673883055144,-0.02442221347285521,-0.05241877455816196,0.09369543893173403,-0.21203765692870108,-0.14737025686698624,0.03150899615495473,0.27896748374933616,-0.05913486989259921,0.06281394747465012,0.20787619990762515,0.1220926610900086,0.2884308374586463,-0.08765326934654588,-0.08440289316936858,-0.1025290076751937,0.036525142614062284,0.14897452090662225,0.04555290030154026,0.09764607418314526,0.03373818118723827,-0.21624254653307967,-0.12461500799336178,-0.039225279596763744,0.13010728511105754,0.15508354991866793,0.08389653047149487,-0.06972848575255917,-0.21181661679409414,-0.020332196624087077,0.04923397436781988,0.05842394567031249,-0.07249303948652955,-0.30411280216091696,0.06908361168619125,0.003310265550788443,0.012016266447416418,-0.05550875744944702,-0.19967861236416395,-0.0049946924134427854,0.12484724762555513,0.11132157121772117,0.009683079962094054,0.11564860481939358,0.04293625865527866,-0.08560233419418166,0.02856293716337805,0.1681688068547498,0.08698278442183661,-0.17010314699114756,-0.09891437091210509,-0.18290467228747873,0.012404796665588485,0.13268358450575254,-0.0416306770370718,-0.32532968723456984,-0.1932839599635776,-0.0874348712537435,0.14807073668047904,0.07588965462449929,0.03575168033573975,0.11140506740644966,0.053657730715521317,-0.09891614236153273,0.008936972382786268,-0.10268787551846378,0.022583726395000985,0.10710769686203794,0.07582797628444303,0.10547373254766641,0.12083779933549,0.1526766245967975,0.0772084562653591,0.08837248864888388,-0.0031279177315754548,0.009521010427390798,-0.16112022838470594,-0.07209936219409065,0.0029437215409173897,-0.02522617525294677,-0.047492450877444324,0.020093471068441508,0.09955653421430855,-0.07131760329037028,-0.25348332832213244,0.18642194993804545,0.08288663547493517,0.1691408049658651,-0.0653701373599814,-0.21445195202817033,0.17435586624124766,0.10258364147631442,0.15877295054325724,0.06538475007545684,-0.13856045989365268,0.20270178484153764,-0.2911068753532388,0.017697741894053865,0.0031982695506487047,-0.036399531832610015,-0.23843652406012686,-0.27416992783641525,-0.16207074913497702,0.09826179692704783,-0.23557376814717443,0.025925659339155246,0.13000968580798347,0.29231337661585066,0.0985664213186923,0.15026607483359394,-0.1475896855693323,0.05221358631601522,-0.03965162154068521,0.011499588659830256,0.11553782175942763,0.02038315089561181,-0.016602802509009515,0.0503192450345271,0.06404710230714988,-0.010284135457839056,0.10379547376767286,-0.1507848416380952,-0.004463664172666476,0.0583785262303133,0.014868909777849236,-0.04544791223137279,0.230899491873446,0.043431989577204864,-0.1379595080521833,-0.09052682158880968,-0.3494186534600108,-0.017292702753426623,-0.09932165269222298,0.08271344343268108,0.3827152531378504,0.31212813438193265,0.03167802963352681,-0.11812186428318402,-0.08655668667192379,0.001906171058646926,0.06782318060991363,0.0016040395190734917,-0.009509427560303287,0.11703954287151708,-0.06697999951541608,-0.0030246207071496453,-0.1560690214840423,-0.03155184063471562,-0.18777487335213094,0.1880343628447111,-0.05049435137919764,0.05084924724891763,-0.18808117657437237,-0.13590352577705925,-0.014723325911822375,-0.015088789865807408,-0.01809144714818027,-0.14848433867112917,-0.09979716464071392,-0.09494498510660211,0.11990953919125223,0.2956183693641073,0.3457455646571373,0.42051524765582815,0.24864215916822152,0.1250308729854136,-0.06359721182505897,0.12170264981985844,-0.08619840004026057,0.16189303261067164,-0.18642811245941404,-0.11357156039948596,0.02393101579862576,0.1708747213285661,-0.11808687663054583,-0.14968918793378616,0.004349588578957288,-0.04812811339016631,0.19204998875570245,-0.029919481786169606,-0.23055029692671342,-0.11379502670720053,-0.02680545815071187,-0.17740089979366383,0.27070250331945966,0.06428234032675952,0.08541791950319179,0.1337022545760209,0.3946432322022735,0.39554034308284625,0.44370394629825655,0.11874477838436934,0.019334943635114798,-0.17700032627645304,0.004724997640618574,0.0013829588667250768,-0.31039751681548655,-0.06614775195510442,-0.3525522329303281,-0.08381505313065246,-0.012496450415143084,-0.15332392199824085,-0.01143083236190401,0.031678359317729284,0.025641847270395302,0.2074021781266541,0.02874651680815208,-0.2046429985176145,-0.16613590069519574,-0.23819265710151244,-0.250963467910728,-0.153583623845931,0.06042377504705057,0.2847951836511753,0.25245766904329725,0.1361924884298531,0.23883634593907918,0.4192241650092895,0.3450856865129573,0.34520947374520344,0.03683354029074714,-0.1384268857766461,-0.191289721921716,-0.06871107984577574,0.13973869682511084,-0.17742995157044236,-0.2073326947804458,-0.12204883487037167,-0.10350337223143488,0.0948950032723342,0.12731035139839258,0.006486286248475154,-0.1840137437918222,-0.04412417815135269,-0.01401963591659351,-0.05114458358474627,-0.17709754449057585,-0.24965470404244758,-0.3116845282393041,-0.1847774681394519,0.018019116710953832,0.06313697605906232,0.2014722195182709,0.19672563578132177,0.32085469055452664,0.17875870754055606,-0.0005466827091283576,0.069068498469469,0.10406569525907286,0.05019390397220101,-0.04862296981699529,0.03612532810856389,-0.16568182003755963,-0.07698511900538467,-0.22737751430763126,-0.15672438302593836,0.019605445488028807,-0.04275053110545985,-0.09143867250233567,0.08357011025520886,0.023746353749507072,0.14523539507466396,-0.1421523669283114,-0.11240030704382217,-0.2267292816396208,-0.282855823675167,-0.18581228397045055,-0.28904098678203716,0.07219619216387034,-0.00608194579107418,0.17091937115878095,0.23894824203978884,0.3116694339439426,0.05956448971205183,0.08144060694822086,0.1264742747367097,0.0740968070496941,-0.10411954365001562,0.00561024420617061,-0.08167172899107633,-0.21449713088041827,-0.21373984509700525,0.034390789075347435,-0.06851182390026914,-0.05875011328675333,0.17427819072372516,0.019093778938951794,-0.12119349688744899,0.01274516059117361,-0.02001735617700921,-0.035658698777957534,-0.027029072105698465,-0.35485856910873537,-0.18008559239929264,-0.29046244283618694,-0.09731129229698902,0.026337283497725527,-0.20430043691049732,0.11752495606697574,0.17539708147337488,0.16571124143291224,0.12094839017489573,0.36445557523905064,0.19347775542635665,-0.13333814443435094,0.0318583359886557,0.16170820318585172,0.0717211007302027,0.03856848878837662,-0.044272632071287905,0.08594742998134662,0.13247374743382362,0.1925543207771209,0.0580598444179845,0.045509025601337016,0.05701831662284352,-0.006298551294838457,0.005363832803368467,0.001683601294930714,-0.08007144956195231,-0.08264525913777164,-0.13180455998209226,-0.09415869101337507,-0.10885731802723132,-0.0025868148288812178,0.006776144159643833,0.051116830620494484,0.23455510946527033,0.17784684159699127,-0.045466785406492516,0.0766147100404866,0.21758957601710296,0.09934178823940293,-0.013345326114177953,0.04867005209970357,-0.026057147629163932,-0.0468606155432704,0.09760514630257067,-0.10202014762133403,-0.07858961555072831,0.060936859260688044,-0.07732544477238479,0.005294069317640754,0.035849353451521224,-0.19872246820315773,0.07352292042440442,0.00025279840276232305,0.17981327456329455,0.19191570618360168,-0.24023458460644823,-0.07024983144315387,-0.10968633863071436,-0.06714390180454981,-0.1408463660593659,-0.12222724124055846,-0.2138018182956991,-0.010516802486559222,0.12451048969720536,0.17949672716367554,0.33088905684906394,0.22157118179809895,-0.04009715320219328,0.008852193502617867,0.15334117567853495,0.12001241135800672,0.033847346318314014,-0.13096500081400742,-0.019883840653790112,-0.23824658480049388,0.13681255542439208,0.07184960550891985,0.06519953726965749,-0.021397528843458517,-0.12262662695596294,-0.008802914369150601,0.0670932395222695,0.12735699089838512,-0.0902008433099533,-0.2071899813136503,-0.017318698083757283,0.03450930923606456,-0.04241366321614878,0.030573140003630418,0.14198552303976206,-0.03669352930022896,0.06911574533722048,0.012694564999106678,0.0019233056911035196,-0.004362707718459091,0.06889232057760675,-0.0514595405546573,-0.15705087132182421,0.03705891978614864,0.014983983549418007,-0.04070922486044541,-0.057714374178237354,0.014754947328954401,-0.1494844777434732,0.13496980601731362,-0.026729405418515713,-0.02686614860613149,-0.03178578656430876,-0.13811237730871015,0.03781465106373723,0.026225803401703975,0.09610707428133686,0.0040141067560579054,-0.020496219610334567,0.12424134531591012,-0.08481706420225456,-0.061817293779618816,-0.14416423912866352,-0.13409156482455023,-0.08250968952079686,-0.21298055307979671,-0.09637664013927413,-0.06527010326312759,-0.009697567831657993,-0.05706935188566355,0.11624874763146063,0.01951691299428182,-0.08618558144284837,-0.031925251002546264,0.09202345788127819,0.17681636671999112,0.1269710653601705,0.06491571724493253,0.1590442864202388,0.051264693721759694,0.04861741160177875,0.10230148910216055,0.016970595178154822,-0.03729059813340475,-0.13051750392132674,-0.08070809065711872,0.02719039207783802,-0.013069907072145035,0.20401998498412657,-0.05548622112991549,-0.2021599839033236,-0.12813084610521566,-0.04178153565279264,-0.08241974246374346,-0.04741248599353434,0.016481543553349166,-0.03993550110117029,-0.07116260071475167,-0.005678203286161876,-0.06350639065587435,0.06076843691583419,0.008231345613290138,-0.020667945443329363,0.05111733479807898,-0.08453428744667367,-0.04429185071334919,-0.10006206699634532,-0.03479549726795712,-0.06347517816472817,-0.008437796498502135,-0.10567368336577504,-0.11346855460893726,0.166472335795269,0.22651058949448097,0.15694963785097638,0.014465595877843683,-0.2008842932912278,0.09448196652265398,0.0008372207962791644,-0.035702153060245115,0.06520375653280865,0.06560350516037622,0.16730048330369676,0.22797502887391966,0.04933178915859081,-0.05529819054083259,0.02083923986144404,-0.13050308724002388,-0.036303734663345494,-0.10207198765970138,0.09658959017287763,0.12967656683633474,-0.02298558071775015,0.05108921238043371,0.04127722153198425
