0,1,2,3,4,5,6,7,8,9,10,11,12,13,14,15,16,17,18,19,20,21,22,23,24,25,26,27,28,29,30,31,32,33,34,35,36,37,38,39,40,41,42,43,44,45,46,47,48,49,50,51,52,53,54,55,56,57,58,59,60,61,62,63,64,65,66,67,68,69,70,71,72,73,74,75,76,77,78,79,80,81,82,83,84,85,86,87,88,89,90,91,92,93,94,95,96,97,98,99,100,101,102,103,104,105,106,107,108,109,110,111,112,113,114,115,116,117,118,119,120,121,122,123,124,125,126,127,128,129,130,131,132,133,134,135,136,137,138,139,140,141,142,143,144,145,146,147,148,149,150,151,152,153,154,155,156,157,158,159,160,161,162,163,164,165,166,167,168,169,170,171,172,173,174,175,176,177,178,179,180,181,182,183,184,185,186,187,188,189,190,191,192,193,194,195,196,197,198,199,200,201,202,203,204,205,206,207,208,209,210,211,212,213,214,215,216,217,218,219,220,221,222,223,224,225,226,227,228,229,230,231,232,233,234,235,236,237,238,239,240,241,242,243,244,245,246,247,248,249,250,251,252,253,254,255,256,257,258,259,260,261,262,263,264,265,266,267,268,269,270,271,272,273,274,275,276,277,278,279,280,281,282,283,284,285,286,287,288,289,290,291,292,293,294,295,296,297,298,299,300,301,302,303,304,305,306,307,308,309,310,311,312,313,314,315,316,317,318,319,320,321,322,323,324,325,326,327,328,329,330,331,332,333,334,335,336,337,338,339,340,341,342,343,344,345,346,347,348,349,350,351,352,353,354,355,356,357,358,359,360,361,362,363,364,365,366,367,368,369,370,371,372,373,374,375,376,377,378,379,380,381,382,383,384,385,386,387,388,389,390,391,392,393,394,395,396,397,398,399,400,401,402,403,404,405,406,407,408,409,410,411,412,413,414,415,416,417,418,419,420,421,422,423,424,425,426,427,428,429,430,431,432,433,434,435,436,437,438,439,440,441,442,443,444,445,446,447,448,449,450,451,452,453,454,455,456,457,458,459,460,461,462,463,464,465,466,467,468,469,470,471,472,473,474,475,476,477,478,479,480,481,482,483,484,485,486,487,488,489,490,491,492,493,494,495,496,497,498,499,500,501,502,503,504,505,506,507,508,509,510,511,512,513,514,515,516,517,518,519,520,521,522,523,524,525,526,527,528,529,530,531,532,533,534,535,536,537,538,539,540,541,542,543,544,545,546,547,548,549,550,551,552,553,554,555,556,557,558,559,560,561,562,563,564,565,566,567,568,569,570,571,572,573,574,575,576,577,578,579,580,581,582,583,584,585,586,587,588,589,590,591,592,593,594,595,596,597,598,599,600,601,602,603,604,605,606,607,608,609,610,611,612,613,614,615,616,617,618,619,620,621,622,623,624,625,626,627,628,629,630,631,632,633,634,635,636,637,638,639,640,641,642,643,644,645,646,647,648,649,650,651,652,653,654,655,656,657,658,659,660,661,662,663,664,665,666,667,668,669,670,671,672,673,674,675,676,677,678,679,680,681,682,683,684,685,686,687,688,689,690,691,692,693,694,695,696,697,698,699,700,701,702,703,704,705,706,707,708,709,710,711,712,713,714,715,716,717,718,719,720,721,722,723,724,725,726,727,728,729,730,731,732,733,734,735,736,737,738,739,740,741,742,743,744,745,746,747,748,749,750,751,752,753,754,755,756,757,758,759,760,761,762,763,764,765,766,767,768,769,770,771,772,773,774,775,776,777,778,779,780,781,782,783
0.16796407025834745,-0.0556461074729905,-0.04728764133432919,-0.10176732832359714,0.09207029682448778,-0.22462433579600502,0.1800107103136713,-0.07059115619749037,0.03743344349772668,-0.019407503655721532,0.1517403275965207,-0.20048453705774213,-0.026661934956120993,-0.03305347701887374,0.11858642431753613,-0.1044729284147177,-0.011713286863024065,-0.08225630790011726,0.009750908563578922,0.06381105526359893,-0.10453238382927221,0.12000190487598134,0.09568860595129947,0.05577896778220321,0.0956151288184611,-0.06284325202541341,-0.006759488659845274,-0.08804740953388698,-0.02125927407058211,0.05856508056583499,-0.063636541280511,-0.034145818793581355,-0.0631877536881989,-0.07900517220464054,-0.06481198225334803,-0.0019371459678719802,-0.12346347628308868,0.0241728421381731,0.16623777806278558,0.0701019756135793,-0.025929313230828886,-0.09291713787346445,-0.07060402012405623,0.17649964515132563,0.01494387570979789,-0.054378356856029576,0.025945847203413582,0.21600498015240224,0.018279809180647068,0.0663976496569042,0.03515439577747276,-0.02969911789072128,-0.10872228591019412,-0.029404738349271223,-0.015359889445458389,0.06419185301023525,0.08942787527947041,0.09863974202237566,0.03408707688424511,0.09104634114424767,-0.07089445175031484,0.13084970913448715,0.05289540679030796,-0.03274208562441104,0.04127908116009737,0.03269329253765593,0.16620227641550106,0.18101425894339,0.26519458890400066,-0.0410957723157953,-0.0291683038948154,0.06812240484157903,0.029965160350561116,0.02623295908422534,-0.02071538591138668,-0.1697139043555772,0.03884249756918235,0.1440467105732333,0.0784889779403875,0.09327678640674683,-0.017305421618387433,-0.014645717997336962,0.02418567299084797,0.04653469861284202,0.025359505904696454,0.01743039847276546,-0.06154106955619797,0.03458359426973339,0.015159360045291278,0.12447097845870031,0.1445988904762545,0.037886683691124,-0.1702563704687418,0.03728212647924641,0.1852018486015501,-0.011321811827043024,-0.14730801157523477,0.12416136510000637,0.4201641883642178,0.5496363268351139,0.15025718852253275,-0.1785207895427096,-0.18393649826492167,-0.0808176266606038,-0.17524825942346645,0.22479336415578033,0.3977183648339636,0.14227862737618222,0.04685651785896148,0.011897643210460364,-0.1320573126214021,0.037045473096246374,0.09014559865052327,-0.08043324928724649,0.040595606000686874,-0.12980138950448816,0.0006715060861398498,-0.12976978136719994,0.15737469430688683,0.015901198266576558,-0.052463988794058385,-0.1322108879832884,-0.16019773906128032,-0.3823582109282406,-0.3761602937244595,0.3273143460238671,0.40800666349652825,0.026781903202980836,-0.03967378760690085,0.2873201568877793,-0.3281825779265627,-0.4286841177355224,-0.23469913302403336,0.06792773033010098,0.23353177327176872,0.24286054079570962,0.28032713472588733,-0.07665411580112336,0.07654654916221942,0.010111039498837779,-0.013127443298715291,-0.004645053360895116,0.09339408689435919,0.049116642189534036,-0.035548927081239315,-0.030842926557178175,-0.05403741437373102,-0.2161445803860753,0.0008634612262304149,0.18417037078144535,0.11100076443006124,-0.10169534620312133,0.10339120737513154,-0.28005784138392015,0.1882265360519895,0.38961362107251346,-0.07660026277506365,0.04062042909677016,-0.16096017777086621,-0.08027792446865703,-0.18762392652759952,-0.2846925215220581,-0.08524977293521722,0.03713761762954907,0.1603198193719664,-0.018247081934079843,0.09119708960851775,0.03101633797202375,0.22459950678899662,-0.18438959944453667,-0.05718894120540292,0.03073815982006639,0.018492202502217572,-0.306670314228233,-0.09533576505574948,-0.05617543595211137,0.22851135057157065,0.09071973111012037,0.05580978523176423,-0.00811906289169454,0.4419951968334566,0.5099722858664179,0.24905787598542642,0.17566774240879776,-0.3037942435121663,-0.47545236227038906,-0.45482242819234775,0.05021345587084667,-0.4046996851226139,-0.6889139689068708,-0.3731079753608625,-0.10010116286871637,-0.010670297557035401,-0.008184470620299101,0.012746953023013492,-0.18640739941588122,0.06577516913803438,0.03818975979781084,0.10200564541978993,-0.08080327354671601,-0.424446556238417,-0.1306588830726917,-0.05964320266991518,0.1827449652218954,-0.21931862955446285,-0.2320641712935603,-0.02996833584521388,-0.09679279348537338,0.34310354244134794,0.08458772881408158,-0.19308376135675548,0.6816048319571968,0.28250514974244784,-0.2209166833282551,-0.41504741254254524,-0.2737518483837576,-0.18368563684103914,-0.19097216355777652,-0.0020763674544417338,-0.23398435474588006,0.08109588828958941,-0.10315373418670341,0.0717218678650921,0.0008090462902888157,-0.11640541148061395,0.2506961413566443,-0.015772891582629407,-0.20117376771271803,-0.4168999711040478,-0.11245549433738798,0.5486891300552547,-0.0033691325327712815,-0.28160489376454284,0.35382244943942925,0.10600475880400992,-0.3909852260238728,-0.48090192321488806,-0.2466291194209322,0.3214482550730544,0.7612579635663813,-0.014157351740369303,-0.07772832070868456,0.10579482454405911,-0.2901746351844739,-0.32901318154734804,-0.20008759973607493,-0.3463581726868062,-0.09587682848156687,0.07769498227426448,-0.4316807818328499,-0.09623547008643016,-0.02094456993787741,-0.27408921277748227,0.19981298556158264,-0.05143373539111659,-0.30648664159552874,-0.007687569282741074,0.07922297171936077,0.13843148399055497,-0.11650503496476368,-0.02040354210664585,0.3623623216463834,0.8381051180826962,0.006588877695856531,-0.5908959739974547,-0.06607530954604254,-0.06989084365150054,0.07752448257197633,-0.007382815544889405,-0.6565721898873904,-0.3647534689543124,0.11223183905007651,-0.29009629770520745,-0.1571273010429019,-0.6095796432548226,-0.1612936561840304,-0.4653834035232599,-0.2225385725071107,-0.0710045765090817,0.14155240602273156,-0.07296489581166413,-0.03583611894824529,-0.0820427528987515,-0.3031296940115339,-0.11811105330448893,-0.2128303614454176,0.02353747254134141,-0.11405338315551916,-0.23517228562604892,0.6542199185403668,0.5779484496009669,-0.13156303226643246,-0.05707002219676177,0.004908512850850715,-0.3726843802393139,-0.08627351468331046,-0.0458646057083744,-0.34069064543003175,-0.7581288560806995,-0.3297662116720436,-0.05145060016009157,-0.4519633739300748,-0.2915854313265162,-0.13699400467205347,-0.19515373691647303,-0.08688814528379189,-0.05298753451150022,-0.06590354993471903,0.06816828718900281,-0.05415785065230851,0.06936480464773899,-0.2825462795420406,-0.1289220815761095,-0.4376825948098911,0.36823184631715405,0.45662195924473825,0.5786084620445887,0.5279805104221829,-0.1289587633073278,-0.4006900325606195,0.4500787534446002,-0.1461829655532092,0.2675167905351404,0.019662455272462413,0.7160579822747306,0.13110168394315636,-0.7966993806139285,0.06086346430957023,0.07858260334658679,0.020613891771352384,-0.2482137355428224,-0.12497417596504544,0.013576059535171728,-0.009732397865632927,0.11429464466595349,-0.05822067623635485,-0.19785239849797615,-0.18849390586419418,-0.25912545878178805,-0.28458198538812934,-0.12679620278333623,-0.09771485217932184,0.13011776175091863,0.5756436037530838,0.5419208917833874,0.4315366810428993,-0.3787037640527993,-0.3080446103810766,-0.299176736480193,-0.3933252615184429,-0.03766403313740896,0.2925520439181929,0.6806860257819076,0.9132830573844639,-0.02700966352894779,-0.37028721037490764,0.22569972432987193,0.14526383350130243,-0.43535359249899674,-0.2274579458747168,0.14715616672291543,0.05757923538230072,-0.23947831763562177,0.0412573378021037,-0.018113712689036936,0.07715811050980323,0.05707255575941367,-0.28592658604315924,-0.05859760776969505,-0.12565380775552581,0.10156682262994694,0.28567306727351666,0.6095600929988266,0.3022235450662529,-0.2901246486198852,-0.33590703434206176,-0.13849290011676085,0.16639786069469936,-0.032433745576643656,0.4153898605552317,1.0936000938447463,1.537052465874403,0.05241547118613022,-0.8819205791602224,0.37777472253295297,0.09612716393009607,-0.2507239330200524,-0.07560930371647624,-0.1738536950571356,-0.03853667118999218,-0.1413627026616994,0.18560388980278186,-0.041972945538045627,0.04566827006644751,-0.10091900387426042,0.08256171677603391,-0.3246430300134405,-0.023220538309597152,-0.0350781117870967,-0.10548649707056539,0.16474343467197347,-0.20402884659865397,-0.38068527819168874,0.13505800731320824,-0.5593226037343552,0.5503563964724852,-0.12995056758809662,0.33568365412558826,1.2048450599504898,0.6950709951326538,-0.1805092926885473,0.01310299666295497,-0.5079464787768538,-0.46711582802071216,-0.47020124201877367,-0.2823524503950474,-0.2690668912119247,0.24468860124819,0.0596868465201407,-0.20217620695643698,-0.017333658131887787,0.1490683290961012,-0.040774443398255956,-0.004730115088031343,0.011564528861437428,-0.35147017339976955,-0.10263513029210818,-0.30587174599206945,-0.3078789369080138,-0.13440970679105235,0.2586480931259824,-0.017599015632328824,0.02588125550400516,0.21560553627788523,0.5674790551118722,0.2183066238906406,0.5561448381915631,0.6985966031023687,-0.720595924499677,-0.10764370500627986,-0.7568628544153256,-0.847585493083344,-0.41749262791229047,-0.09944261369804643,-0.3499986345999528,0.16047456196169071,-0.04303006298623953,0.10842084495922269,-0.03294229941436879,0.1429112681206866,-0.08992086788653034,0.07758510604853308,-0.2544860543410342,-0.29467919390024533,0.09604459600017333,-0.2932076162244873,0.1580511314946193,1.3128774404160184,1.0397367825564767,0.1331397624994576,-0.10159742502608207,-0.12198624609511295,0.43480521368998204,0.6625645406356442,0.32088473055635974,-0.07417365521628765,-0.9251620697500254,-0.6827113191979638,-0.5125790448567641,-0.7806404706075961,-0.5567190307083811,-0.38273978825768595,-0.355582603988928,0.31873219944694203,0.0058229007267320936,-0.037300335289986115,-0.18968099483249998,-0.13859838090235818,0.008465909664134167,-0.14804742726397654,-0.3243577909674858,-0.5464149298954964,-0.22125997593101976,0.1032081295519496,1.0146950419875802,2.469045976486042,2.1625734100669227,1.3861267154413548,1.0483741371952595,1.2431147538666651,1.308442846167353,0.8005714639063931,0.035066506792889585,-0.6772246983996336,-0.47821861189738857,-0.9573098273565862,-0.27986495386457116,-1.0124059939290673,-0.9245282220982988,-0.21631144268876554,-0.11380176993233308,0.1759690912453326,-0.0365016242145078,-0.0375086529393365,-0.022142220630843826,0.024212819766600897,-0.09025945117118084,-0.007479335315974046,-0.38415631395583605,-0.40774697591101566,-0.0804604362943927,-0.06904708916254235,0.9142426356846137,1.9237006369954879,2.1310457850900972,1.7288152678824786,2.1247191493185107,1.8478817199544801,1.1962497897568258,0.25314130594481893,-0.5588651426425063,-0.9223269389695896,-0.24258004765913102,-0.1367740707627547,-0.6766341523447847,-0.7552601203823721,-0.4431052903261685,-0.06510425464027529,0.3051858672499019,0.2726976960803396,0.1934483970031281,-0.07158638345050053,-0.01963779709937269,0.04138413211735631,-0.0422819971710477,-0.16100738069556203,-0.3847670744032448,-0.8332769641525852,-0.7467672219826595,-0.15834866084983854,0.33589404736434336,0.8426005038436617,0.3455537995044767,0.4706077164447376,0.3385446713150954,0.5919952712893594,0.14844142179663364,-0.14321909668855928,-0.538139581909062,-0.8545830510648376,-0.511793658110162,-0.19699351032583656,-0.3743017760652846,-0.5888068981566129,-0.062245827545751566,0.2162962530936396,0.03674133368765283,0.2328084827316099,-0.057408785543161915,0.04488967307298328,0.09085775247439323,-0.014560458341843063,0.1337429414502799,-0.19914763324792437,-0.7107943753144226,-0.40429671107667847,-0.5723459986819256,-0.3042923151828186,-0.17112990153803231,-0.4029225034750785,-0.5573911671508243,-0.38768324817105027,-0.15259190942132697,-0.4216440854537511,-0.680483775428359,0.12659488912979613,-0.09076389447232243,0.18051681775770437,-0.07973132948807642,0.4828371172162449,-0.25945995013154544,-0.22748281207698004,-0.0009465272304066811,-0.05816311806714429,0.18681316920926044,0.048944326682000765,0.19011225356633374,-0.07198524980379037,0.019661791717583282,-0.24490307636248632,-0.08946845093770402,-0.1057809415837179,-0.30652667254137234,-0.19596456682866917,-0.7563192073163792,-0.38656604458042243,3.3576486564126316e-05,0.00885928609378161,-0.7793241665575141,-0.47278517058705466,-1.099975660490948,-0.7849718010088678,-1.0224847868111704,-0.3569693624128457,-0.05606098701929609,0.20023908491298775,0.014256624587859501,0.05555070388718071,-0.3637951614137743,0.2386942150791982,0.043506233792108905,0.1383287042762395,0.27908721375601114,0.018056656189185092,-0.1872379520950505,-0.08602902820322345,0.12801431650148318,-0.09983656746626723,0.04636463503897686,-0.12042305459086955,-0.10566614921033719,-0.345892669238579,-0.3823095223569326,-0.7580935597330264,-0.2797897761307849,-0.15969306347905612,-0.09356753658070577,-0.27083184922182885,-0.45520119077085325,-0.7387834426774357,-0.43140256431474466,-0.05544462799069998,-0.4617196564890705,-0.3162939249288023,0.05043863499618264,0.021506726712290036,-0.06851021378342262,0.31148439974906544,-0.19558474616392796,-0.10540426271982557,0.21133616074845607,0.16445494227593174,-0.1038229219241884,0.08936323888180034,-0.0983886983114704,0.07883185706392776,-0.19995135025912214,-0.24435921755621837,-0.5197949848783154,-0.6281532460557253,-0.2623233421398452,-0.7315607912842141,-0.49213923060592407,-0.4498908372929459,-0.7052290980053566,-0.5590441764785643,0.11047749090276686,0.1327938225659581,0.09928302304401361,-0.5542601401502404,-0.3230131715286787,-0.49959620404174276,-0.17924540355677754,0.05727607037615981,0.4116351275956171,0.1541498379494204,-0.13083550066482094,0.1362007223071578,-0.24331571902644952,0.02860402377667623,-0.18440200931158995,0.014502445636484462,0.046556108431700834,0.09151663107171112,-0.08677166480843362,-0.08353571522446784,-0.29271774567325753,-0.5229370265585429,-0.48926397063585525,-0.29172341495397497,-0.11380291591406971,-0.15210091780718216,-0.44967543369309465,-0.22677429277788233,-0.4856808930661891,-0.6687101373893578,-0.4403382457842719,-0.1878285136608154,0.34271199663243224,-0.11269574411737385,-0.047885922976823925,0.30533494217006274,0.30036216555442324,0.0395885009257831,-0.10764985446850885,-0.08717191848428654,0.07272399395614595,0.12784362430595264,-0.11260648996924486,-0.040463476551441745,-0.07355046148549688,0.1279017550880318,-0.00038071548949966525,0.1522967474013352,-0.07954646946249819,-0.23404000993945784,-0.49228487133678456,-0.21701088152556297,-0.32959433611601,-0.4167447021543867,-0.3095838287725326,-0.6291397856279005,-0.736179135956015,-0.597482402521509,0.031180710262981803,0.4437421842783195,0.27911605772450837,0.3395050816401232,0.17464053587344266,0.0926865917649149,-0.044808016953717826,0.1776166989345579,-0.09397474624832847,-0.02211885262073488,-0.14655221675515304,0.03163623653035504,0.016332593551302732,0.008471295789095744,-0.0079497790375527,0.1104513629672767,0.10215162014985407,0.0781186719065409,0.33812074893961236,-0.09092728115155913,-0.10731278900959398,-0.15664487923849177,-0.005959254256778991,-0.05424576588797258,-0.15465411098778312,-0.007660029028645742,0.0541620203744551,0.18431299464528275,0.06475700720410557,0.16620369064217963,0.12128955683304812,0.002564038210022634,0.07251231906946738,-0.006351646961849556,0.03558352147035776,-0.03297623247157924,0.1546010242991921,0.003462593506854796,0.13399214244493296,-0.03837028045466479,0.06453348030809869,-0.062408844407704084,-0.08956139121305706,-0.06490549926032596,0.0009428652850425332,-0.016343812004751435,0.15944659535394107,-0.10941057531243945,-0.10440356763373104,0.17419070885377028,0.06203138827487347,-0.18708368397207678,0.05222240273511807,0.020939424762090052,-0.20713717290925748,-0.014452784593600849,0.025132110695255977,0.11010126693860867,0.12362580505363573,0.032184237737948644,0.1429573710340749,-0.004057241862771209,-0.06520715740242586,-0.08147840132028192,0.07075428959335883,-0.18723857576077463,0.07331029100400108,-0.10512777284716862,-0.030392875679057456,0.05606772416730816
0.1261809647222984,-0.1896812217943267,-0.07623094655318957,0.009293043879467644,-0.0552217588166109,0.09054918477627653,-0.20425218190348998,0.04056703869926,0.04697889229243691,0.00929491435632041,0.11461054790069035,-0.11857055071248676,0.11507604995186209,-0.06617338430134163,0.0770637767025735,-0.028028470212507785,0.08582118755704868,0.08243386761799358,-0.14201848271589654,-0.01106224473889546,-0.00485635721200123,-0.01940065190352596,-0.07117940186804038,0.18953066409951363,0.025296542299709394,0.15988847407547152,-0.05252799070904174,-0.10179280148892868,0.017611652534135783,-0.051936785769590356,0.2434014708755138,0.028929159561069256,0.11964678131612438,-0.018036124254327858,-0.028037980707540683,0.001613281138129177,0.04034024775472548,0.08949812090301862,-0.007390380066919787,-0.06337947078483123,-0.10288172705046962,-0.004598469856604106,0.06186112591725129,0.05127026130734702,0.004322846574750711,-0.05481841408194569,0.019253074975556124,0.06119074506544938,0.0003082473611239954,0.015515887885923438,-0.010612248913452181,0.09602386335096569,-0.03943315209171156,0.022940436738812832,0.043829677643366566,0.07693913046751202,0.1539753512306102,0.07193225556257733,0.06430865210822963,-0.1426381772304402,0.06503471851563347,0.2337617357415828,-0.07835781141537515,-0.09654139991151117,-0.01283014968812661,0.11042201168720157,0.06097442851866033,-0.041310126896159864,-0.005912135190548496,0.11122836132103653,0.07978096849927055,0.25048665020509747,0.10305783195613988,0.03868571414678426,0.06689403798682057,-0.032397217653011685,-0.09815248038421863,0.018922087205232956,0.05245497286276034,-0.13526732501295596,-0.047890435324780635,-0.03252329562581151,0.030951114893585804,-0.02165973124438069,0.04889654567661251,0.014198099264356523,0.11042550139957966,-0.1667393040275727,0.16955761638174371,0.14578765988940298,0.010061646548756208,0.06987154114464972,0.06919749657316965,-0.06263655457744181,0.03067515688992032,0.09686083593055153,0.05367368607662898,0.13305625695491827,0.029885460831885334,0.019601116138196956,-0.0708404709685709,-0.035209668304041306,-0.04575853647742429,0.1582625748599174,0.017257021922525855,-0.09912797512433874,0.04312338309035748,-0.01471411467097262,-0.30251153071381787,0.052347128324365146,-0.15090443477326249,0.06223331666777951,-0.09173948526089487,-0.14144556104714576,0.05383749445310282,-0.14502518834980385,-0.041418090075933146,0.02377571246029792,0.06631029191412191,0.07694009234039133,-0.0003036859493775685,-0.07016792523655194,0.21068201075603396,-0.0292099731916714,0.22486174647287366,0.002668982167127724,0.16697067715920683,0.15471630811073436,-0.0641810147149254,0.057617233899576445,0.09472152831127337,0.07646042183123111,-0.01342666700655402,0.04034710374482642,-0.02523504034421555,-0.11180412876075324,0.10552011851155507,-0.050799674042587686,0.14188194277011132,0.064082762421223,-0.08487779270913227,-0.011732957311966335,-0.024240403502339945,-0.08225185846537725,0.052926699897681055,-0.042594320921590406,0.16782653800090652,0.08764847162883158,-0.0795088774410264,0.014436732214665064,0.0034432126529729745,-0.11328220845899405,0.15809704350529308,0.18008748476506592,0.19110215515241466,0.04909169100881231,0.18420465533262875,0.01854239230449795,0.1282220483243057,0.21542161322618122,0.05777061223904383,-0.10098827707836674,2.5623793598353128e-05,0.06816902770677487,0.12986586665109937,-0.10406648175034752,-0.014870324455231208,0.026970764553746918,0.04788670706843942,0.09543373447970963,-0.09038431707580377,-0.03653095066858643,0.10533523702347847,0.05082315857270071,0.06066008841307179,0.1293669743642662,0.02923135609525152,0.09846790311115804,0.03163361373773851,-0.07029900100036945,-0.05182773229603979,0.10368194621168442,0.07888300507384281,0.031043891670808586,0.11429831825880689,-0.03162230196511267,0.06104192549676246,0.04966635518636552,-0.027651303652456865,-0.17478916293791952,0.17563185218941865,0.04878331844365009,-0.2398495706260307,-0.013898687374787574,0.04990900707462149,-0.018192666428673638,0.062419800708520184,-0.09280547067072463,0.022100003612181035,0.001443085913751326,-0.007008468226115515,0.0026252673410612,0.04721190763703433,0.118823161125965,-0.004168632828262321,0.02137605303517268,0.09652538840734422,0.04070975657586072,0.11154273695085376,0.15999661670413273,0.25557584829796903,0.1130656654267919,-0.13022579430949266,0.09262881686791583,0.12198660902203207,0.04788944954014682,0.055314772543445634,-0.18500963063699305,0.08898911223997406,-0.0021473898585897544,-0.09277370744277988,-0.04955622922337396,-0.07726977825708037,0.0655119465700251,0.06059810204559573,0.1559770033972888,0.0702672115424801,-0.12473120078676392,-0.12119297119944458,0.13830500411988308,0.17895604212858515,0.004433559893763354,0.12235595721589665,-0.04925787562831004,-0.08883180368211725,-0.04883798800200135,0.04320761481402738,0.061353781273870374,0.1236345751582874,0.11895974857310185,0.2026278417956469,0.2776743976204806,0.12328073541694379,0.28712734396246564,0.012937050107398642,0.008199831681616612,0.07446960493275402,0.019162218268660953,0.17531833494210264,-0.0342290111054472,0.14326532718909304,0.024080703588102593,0.26105103787679157,-0.04138197742093455,-0.013610128636010094,0.02572460375667844,-0.20296402428874832,0.08292204648650053,0.07887657456983524,0.055569140568904905,-0.0987002659817664,-0.10057546294544882,0.12612832825005874,0.165668925269604,0.21202651540739498,0.017936979970275317,0.06746104422495926,0.1547388525054141,-0.042105330784958844,0.07960811117200856,0.19235434348652836,0.24808496362502863,0.10640303994940492,0.2325193686045798,0.10545730097933538,0.09082303437514827,0.03992642003525069,0.059917978495033,-0.009773521028444834,-0.008733568686942058,-0.06166329702346311,0.030664211309886964,0.009484725620275929,-0.13655715749670752,-0.011044798944227151,-0.05994413984197256,-0.15927675883901513,0.09737639899679282,0.20103326462694482,0.2854761308120661,0.21100233637967608,-0.03315149150495994,0.1697734874833176,0.2597099420755276,0.011470908551347015,0.2602986717189848,0.1937506848724457,0.131465977295651,0.12334536171890025,0.07215839562771689,0.24574586259734443,0.053602643575933126,0.05590002771187275,0.07722824327639387,0.08457664976819596,-0.1412165721762699,0.15103980671080705,0.02731697673000671,0.06131351070363095,0.025003400614575358,-0.010995683207460628,-0.02462043807085613,0.02418727669094978,0.03885142279661042,0.14065051695283537,0.07591043730086637,0.042371467897036094,0.25813520246498467,-0.0729740436184974,-0.0647891576517144,0.12962126068941446,0.14863024951113354,0.06214678595364294,0.14627471503022046,0.020431032910608892,0.2200659738911526,0.04471516785131708,0.19928068606021895,0.15077190522127815,0.07608236735802816,0.08647002487328267,0.12552645528264195,-0.161985594425303,0.06570078882673128,-0.027173297673207496,0.18440404890256726,-0.06474281805500931,0.11908394206157741,-0.24604911547393887,0.09052196266485026,0.03894538855489995,-0.008163459382467585,0.008954872616922118,0.03614433645893801,0.14132587897259738,0.0770735880465376,-0.11239112561512012,0.051634383546335316,0.3320525030391407,0.15966667661979322,0.26782158039717807,0.10934740949504712,0.07488290262510486,0.08089934893647285,0.06638865776841239,0.1810442622666579,-0.028239379012197984,0.023128512326054375,0.09087540608806889,0.004169398511805906,-0.09913094731183163,0.0716481098437905,-0.08865426973357879,-0.03843116291811698,-0.0784202099550541,-0.006533356010706769,-0.03767854129693449,-0.04074511777404297,0.08411261204524646,0.19270257166546376,-0.010201184866232347,0.11331219552656198,0.06005505615780333,0.0956741274047116,0.18039289560125485,0.08042977987659033,-0.00024219179141806604,0.059899559082900754,0.12750685113273916,0.10111558648446668,0.11926909432523121,-0.10036156826370625,-0.03282050502385079,-0.026975791860468435,-0.15007626853787961,0.14238271813217226,0.016608140421740768,0.21260632910469868,-0.11806936113975174,0.15148233213053575,-0.049757902442153695,-0.03116052149128602,-0.0945063710498011,-0.0905337020044077,-0.12763669900338087,0.026222073825354127,-0.11859497975248941,-0.008578573102228931,0.033437497969602235,0.13107531397764768,0.1216526193692398,0.1637398534464737,0.17916349068744594,0.0919440458297755,0.11534466737533235,0.04276211923421023,0.09946955341043752,0.28191535366022774,0.023185741028147848,-0.021789117958766663,0.2043840663412463,0.04515105856041747,-0.039988655416127596,-0.10896276202983883,0.11589028624330071,-0.06933870826890241,-0.02335894136796601,0.08789368597387191,0.032411702092058216,-0.003708299835098258,-0.017010830752427143,0.11897721402267958,0.2273633100294223,-0.05177826571018843,0.05796620614268566,0.21427380416619132,0.14831122572210104,0.015732540188757888,0.0891666043315873,0.08127263108711892,0.04671150798907843,0.041264589878096065,0.1371394072813221,0.10752862315219935,0.2618885395709939,0.10758910248830396,0.004432520316872451,0.14820577945506416,0.13263548492045701,0.11997946566113574,0.17146454223424018,0.11840628798838393,0.03895915388472539,0.13494784237063726,0.06583685865993637,0.3173471055000554,0.11937565730934674,0.11999264692673284,0.1334863544811661,0.012370804270441606,0.1358473943401354,0.006613047197191781,-0.0793854771605767,-0.035116489386199955,0.09771802152822008,-0.06633078524300916,0.1441523345637595,0.052001208254547016,0.18932026720457645,0.03509592181416932,0.31518540382996596,0.2639068060120494,0.08270383033606739,0.29854601348048915,0.03951718435866303,0.03099703830442139,0.034279184493184046,0.19397641477047503,0.24730409439193912,0.010081387261635233,-0.027839822932816696,-0.052402982772610227,0.1923591036878989,0.19709321626763987,-0.006138118127869968,0.05882518116645994,0.004096329614603276,-0.0016749016590472151,0.10101120234033423,0.050115554808298345,0.044316835218240924,0.0012393557859634052,0.148146268118748,0.06178058100808652,0.0836562659568261,0.087397438316165,-0.03821854622336625,0.08334423348832591,0.10674428135840953,0.1929593680578906,0.058679240738144435,-0.06155353070663576,0.17911766667183676,0.194142443258779,0.20254804495828488,0.2880064993479051,0.10801373325060129,0.03798986661381415,0.0860193675818757,-0.15023850402729141,-0.07671522014607135,0.09830486853743295,0.018282946761229033,-0.12286884618216182,0.07032030776711573,0.1042773081233469,0.07211195968391788,0.004225712051130453,-0.06901109562449553,0.04186122090248904,0.10552777390753534,0.047419528411664656,0.1584216306371043,0.10089174167629072,0.1250861615818043,-0.08468300159577502,0.24302183401093186,0.3396379289530552,0.07931965898071608,-0.11010967307614343,0.09236429757009912,0.04142743632182064,0.010603361019077212,0.20141225720007652,-0.08588589162068128,0.11114882376097865,-0.0999717874548407,0.1698341618858285,0.07350050628450076,-0.014167263655545511,0.021775983593719787,0.06328377111506307,0.0873765366166944,0.0871740375644149,0.060734125966321495,-0.04003565185619747,0.0811455460344988,-0.10298094389598081,0.150933313844517,0.17757328917579257,0.26666492985505297,0.021248949543932107,0.09837534481639247,0.2024477778164601,0.17353987053300524,0.10310255448360174,0.12440445758302587,0.04075710196155724,0.14505059763861974,0.046750517487565944,0.1439203076509327,0.09212012343825955,0.1287845224971466,0.0354748258328554,0.045100583878873945,0.006939738440928345,0.017912149557277622,0.012268138954916631,-0.0261231967351925,0.2871352583658073,-0.08000427415162417,-0.11294432163329328,-0.07471714979107297,-0.062372103725490985,0.01564705647607009,0.17426821601808973,0.23032972600200735,0.12155428353387979,-0.10107862591371378,0.17096831168134624,-0.03503923165294769,0.06426628981696628,0.023853419835635128,0.18487015533652917,0.03384167699387525,0.11876623234738028,0.1117256360126345,0.10032534997903977,0.10814852101756481,0.14563130317918596,0.014080671322621674,0.12938961690832926,0.02169480192992202,0.038531428499399396,0.07979943104037712,0.13135577270852813,0.05689514093334421,0.0102253016258973,0.07645723673652162,-0.15015379524099487,0.1684675541043478,-0.12438073270381607,0.1013791433500929,-0.03618049490228191,0.09858113655949338,0.05732600753656454,0.12759285919543964,0.040768183842602855,-0.11160266713985185,0.12460364495408639,0.06037442903067929,0.06092952541185962,0.014938603442203975,0.26030458929398,0.018697241381941537,0.11962317129842374,-0.067370565988712,0.19240794758310475,-0.015664109978422637,-0.2254177766300467,0.2953513435499827,-0.0936899835019669,0.13884988520394326,0.08076449012998804,0.0697068422780209,-0.01876157284600488,0.0233084631734986,0.12678126740656948,-0.025477202392565155,0.03108631740505627,0.10042399757766318,0.019941948286602465,-0.017412001079988748,0.18553572691167172,0.08540890896201757,0.07590169363979984,0.033602459011076315,0.018069047791877155,0.20437708919927403,0.18526998055050997,-0.14749194643343605,0.019266521120514066,0.15178861787763426,0.27850389010231447,0.23874270158131497,0.12109258695283612,0.15962958992704776,-0.03241840963922859,0.08913087117372104,-0.11774316405339494,-0.04943745002997358,0.03820292269357619,0.22121436018467674,0.07918327320471615,0.031769583708812076,-0.012621481626427478,-0.12775008584105377,0.06530513337373116,-0.0302344576256979,0.026412363079476166,-0.0852122671747676,0.03630151599936225,-0.12589169355636778,0.10334320630749606,0.2238133310307623,0.2002017732859554,0.3341162550103801,0.14843789145797467,0.13640499538759845,0.13538833466950317,-0.06990598615432238,0.2319801925017935,0.1111723742979059,-0.011820467683547756,-0.08193386626130514,0.06621325038932149,0.08870911427249328,0.016333019879071896,0.022673515966131007,-0.014051111590686704,0.0041469572463010565,0.13790100741402578,0.14444866322263164,-0.14563081370731656,0.01817774998965121,-0.11586671161989687,-0.13511647323682943,0.04776109447994916,-0.09028559215411376,-0.31124361660195515,0.08236849676292285,0.15434132577523516,0.24881546050230907,0.02524004395495035,0.2270190646179745,-0.18200030083727164,-0.06749133699170669,0.05831598627917659,0.028939217201072127,0.1424373801433369,0.10472397501927133,-0.002193202001983964,0.15583722508055628,0.07464501690352102,0.17745507317354173,-0.0771686748687138,0.03375224871064728,-0.038511274323408645,0.08498388187436699,-0.017568342067259265,-0.020798345082851038,-0.12826209013551615,0.03521385379357723,0.11545685224257148,0.09519379146811924,-0.3078987548080107,-0.16449906808947892,0.20276121603942598,-0.010986642355604894,-0.001556885617828224,0.15240765497931855,0.0639348263996062,-0.015024514366007555,0.01191182828928641,0.2142903804998123,-0.14758200713833755,0.1309487927864569,-0.012859853667467265,-0.01054329924430374,0.20578995251406013,-0.05283941775574987,0.09335841879351615,-0.027380799076897975,-0.13803206628724546,-0.011857208344140379,0.12128731802012749,-0.014192822369527255,0.05932905734017314,0.023242206170173557,0.009070010441901514,-0.037362907631261134,0.017568135644408494,-0.1998005986469086,-0.04418136738895443,-0.18033762501833284,0.03204062905492817,0.045386601477812274,-0.06883336566185971,0.10110912024196045,0.06928466108099327,0.0506680962450966,-0.009932762808368033,0.06885779143376335,0.11755727595269677,-0.053913244614344345,-0.07290005900998148,0.12506956846952955,-0.22240856869034437,-0.2512667717810094,-0.1723860523353113,0.0253209015665986,0.0198675254121086,0.05403647098420799,0.011991184597616108,0.1581248554152624,0.16196521922837906,0.12028793852845175,-0.1111931525065974,0.04074466324119971,-0.08223339342793808,-0.04568046612130709,-0.0979344446636895,0.005515833759213672,0.05904976080298131,0.01250783285196849,-0.11469641661669766,-0.14633636735293432,-0.06807739574705925,-0.06881248363688285,0.08566247204845912,-0.028000161378383293,-0.013780520403488015,-0.01010327186099649,0.114274799730979,0.16605842046235592,0.047355538535775316,-0.020241871563047176,0.1471906282343416,0.050439139979177844,-0.03749965659387457,0.10544424577191011,0.025109869243307315,-0.13901619825304581,0.06707750523918575
0.027062547115297826,-0.18858411528463057,-0.21802428858261966,0.01071012747479607,0.06541565239569605,0.05793803195053827,-0.13901795045267948,-0.037620967973389895,0.06373901884062799,-0.156495193941413,0.005608325155683756,0.018412953877534215,0.08956955465514307,-0.24805829672178814,0.011580317774782781,0.19889227709418345,-0.06504070694133834,-0.03454390582545338,0.09247924995960394,-0.07923423317049852,0.11277551539757166,0.05113334306222982,-0.16032731557559723,0.0071393687057417,-0.14881816896092168,0.09233480878091865,-0.17098742033935507,-0.18409534453413776,-0.11665041418964212,-0.08322723967757861,0.12857410568957875,-0.004745726579635601,0.026180651599295154,0.10457158847927271,-0.07238335614174801,-0.05999209182426409,-0.08598682787706964,0.07640825562455456,0.16131863885007647,0.02411536289949911,-0.06278906598780405,-0.04896268020465341,-0.11303878060549719,0.07025566128082822,-0.10874384948358304,-0.02798927418877352,-0.11920401092977917,-0.19165665718838776,-0.2560764720094234,-0.09129757661118847,0.019161273815115617,-0.03456782187670547,-0.02527746180775326,-0.11005796110090094,-0.09608812927819452,-0.10969020735166635,0.018203393053772728,0.20184551065213194,-0.016560253603803792,-0.13982289397417216,0.12437417976736902,-0.10275767931469149,0.05320539318460144,-0.04563387365637027,0.007661918194813499,0.33970046108648594,-0.06977913435832997,-0.04587508053453869,0.0446330097373033,-0.009123888337059965,-0.03699331851985282,-0.06770518828573358,0.07115705107146754,0.10873593453754904,-0.09870564742659026,-0.11930806871527695,0.18351491026587574,-0.14276184883443752,0.06846477424092853,0.04135844571774588,-0.11318685461348577,0.0728862550462692,-0.11324160768953948,-0.11187508290853504,-0.1418749969092755,0.08050834746294488,-0.047872007510014136,0.1057854454115604,-0.0834007522011112,0.05890153719940284,0.14059592025284864,-0.009154505362543577,-0.12081891670014702,-0.04377350331787573,0.11781089543287886,0.07635190708830238,-0.037788267063372606,-0.16984220509906367,0.07187679368171888,0.16341672939462526,0.16770018334440767,0.05208257637443399,-0.003452477729440895,-0.06441558095032598,-0.0392657340020083,-0.15448696344012786,0.20940847923677225,-0.008668027318890157,0.2358601218117549,-0.01048255542231139,-0.16473487600019399,0.1832365371655251,-0.08890267544898142,-0.046710675140059915,0.16189671195494185,0.14297566979909096,-0.20473812831638843,-0.0028841630409203833,-0.11009238401022471,0.05073894970421005,0.16211067609912305,-0.07513491462248714,0.12587571502127942,-0.11866715087040264,0.18024386060796996,-0.12150887700014083,-0.0793230413633758,0.022465414517909264,-0.1639953999320946,0.10669008658261328,-0.13205303518999031,0.04549085862048467,-0.14967853789210636,-0.011074553038204885,-0.028005801969040033,-0.05423579649866356,0.044653833223834274,-0.11342432500179307,0.1494772513865381,0.01783084632938255,-0.28206437685441643,0.19763618452657425,0.04234317759214976,0.15430020071700068,-0.01526458359615504,-0.22739877369695033,-0.04429956174781009,-0.14103053196576737,-0.033238796967717574,-0.05427238622103147,0.026774653170938703,-0.15875724697566457,-0.0029633147275394452,-0.07426183986290305,0.0371653287679542,-0.20522481168837559,-0.1366225177950134,0.02772943682032561,-0.20891919139028275,0.006077246060120267,0.046538966292619666,-0.0949954349698635,0.04003234029514722,0.07008507156663649,0.13850687248142637,-0.048032446980694705,-0.013014335107778077,0.07833023695831222,-0.07748437802925426,0.0018960447264839103,-0.0724562085594575,-0.23230366373729824,0.03695473746126347,0.1681583784062383,-0.027955304467536725,0.0016082852352509735,-0.05803379978813846,-0.06543859514123145,0.058951195413490046,0.14425823562603643,0.22366405617818133,0.09679315904400371,-0.07337646762719847,-0.18347619998058387,0.05089137635380824,-0.0939139137906281,-0.17564367228563713,-0.22271033508668936,-0.20037055351078203,0.0018306125291755132,-0.0683213667936176,-0.19953289497231,0.06522766089578255,0.02960839818272514,-0.03332120230406087,0.057312271375144754,-0.08568899074233285,0.0939298993551896,-0.14568728473930193,-0.09222847547400836,-0.14251535592635567,-0.03945273435733288,-0.08214433375046606,-0.058560494349033966,-0.03445491443418336,0.016267468543618244,-0.01560820816624779,-0.048938209452145734,0.037514426408002746,-0.10058131772506039,-0.18401923292167682,0.06956109526607518,0.09349119770741561,-0.11765642354204148,-0.0846493544188755,-0.22778247564382506,-0.11492321217096606,-0.04859387921164449,-0.05106849540356672,-0.12096571064982907,0.16737382267194617,0.03052530776145653,0.08546002128693286,0.037129580820157514,0.08438586052343798,0.0894365810961293,-0.02724004258129989,0.07356320275116035,0.19661434702956931,0.16281985699661716,0.04057595437232546,0.12380749002935941,-0.19836646171729166,0.05918304593815211,-0.1111247910945024,-0.3134705710984566,-0.12477378142880638,-0.026828313866946604,-0.18650524952953962,0.04638008081142712,-0.009239781380654906,-0.30902530109738674,-0.09117268097264514,-0.14677716523613443,-0.1818526728353757,-0.1293505946664558,-0.1098462965628233,-0.14446269522455724,-0.04213365363649402,0.06878430364835549,0.13193342355247714,0.14237213812461083,-0.06029643380369819,-0.017893529960214438,-0.09550477821473054,0.08517356760414178,-0.19626486174823932,-0.1910586386500224,-0.09172150946278458,-0.009918207325812615,-0.09521904407926694,-0.10367259536221801,-0.11524993589172211,-0.046316800038624845,-0.1323169137838104,-0.13231413559824362,-0.08718949951749001,-0.21392614699677964,-0.15636961638757618,-0.283143732542056,-0.09517980194485255,-0.04878046170374754,-0.15490895070616786,-0.04695914720969754,-0.012498649094969606,0.0028944118006138126,0.010128695767471264,0.10925820365655965,0.06201384538637584,0.08423088998589649,0.030172182618692613,-0.10935066910007317,0.03141259526855194,-0.03886549340322054,-0.10416493401594848,-0.13821830785426448,-0.018083030851652367,-0.07957302624523016,0.15353876535048855,0.055927368569815186,-0.1330473334583315,0.04255317747478258,0.1392529577686495,-0.10043210212916506,0.01174330769394766,-0.14229577602293927,-0.2673370277444653,-0.4145553568657755,-0.26099914019013376,-0.11756415486186847,-0.12332751529073194,-0.02523588497367886,-0.08709076161629425,0.016249478757606205,-0.017384475774194677,-0.11486290427105286,-0.0276366419805753,-0.060537788037648206,-0.15817728366996928,0.13779102658094614,-0.015635487634744285,-0.045152685588598,0.045888926031584704,-0.03593110813891569,0.09029275860807905,-0.14841807561592318,-0.16601384227332086,-0.07202604358996974,0.05800516949225896,0.04259480250782919,0.004715120211299821,-0.1670268108285548,-0.17589725486793711,-0.26057201853026857,-0.075073381730341,0.03794492312927868,-0.25855363714597396,-0.05925980772974157,-0.11105005634590681,-0.05844319430064687,0.13128645910337522,0.07716281991414455,0.14257563719184835,-0.16194402353165366,-0.0465160170297108,-0.048502410642113025,-0.06187884214602131,0.03982468023085613,0.0829543485476565,-0.1210749949901578,-0.1148849316839103,-0.12793120471968955,0.15071604056533097,-0.05488590862035824,-0.08590189549426364,-0.13019468867078796,-0.18046520410163847,0.05400423129543551,0.013885739795338407,0.02400001070970444,-0.16315180074085323,-0.09701112055865684,0.05692741106134938,0.25650239444924444,0.1771163120580148,0.02657321186732895,0.0755887852424771,-0.052405939504514214,0.22418555852573202,-0.028623277615488236,-0.01092070242012338,-0.026384980886957392,0.16888543387088473,0.011794031828582843,0.105515910450049,-0.014302098336036786,-0.12739170411796313,0.0702602695662672,-0.07614771705808976,-0.10958426496895356,-0.008510818855262076,0.060103908270335606,0.07392455314923026,-0.24763910621232962,-0.2453315909614484,0.184755768326123,0.10599048170649573,-0.09653744154014006,-0.06473477140395888,0.06599842110500731,0.3378767889674236,0.09181966706216195,0.1831900375565786,-0.03298602669061502,-0.08498671686659304,0.01755339573609932,-0.11700265233421372,-0.10349987405274852,0.12989023182654008,-0.19109291242402374,0.012009922598165003,-0.035521342800422566,-0.04023848799463739,-0.13620257859384222,-0.20747647915067793,-0.07286918750288263,-0.12846702848926822,-0.010131880121035412,0.05169381918307533,-0.06413917154013446,-0.12305273052469744,0.03891502460748072,-0.011781400420050488,0.068110289445208,0.046411728021317905,-0.10969934681870325,0.008374025358332881,0.08024980231787182,-0.05115383523600827,-0.07106082162900856,-0.019577131498080682,0.014772851682669,-0.04689061174596457,0.20155984784929004,0.1385537458541864,0.21687217803536513,0.01346706085342997,-0.08322623717658222,-0.11068402590446853,-0.014437276265588645,-0.1287629870847861,-0.06623812363583056,-0.04760574763908197,0.08292265793492488,-0.06290107225594971,-0.10994202455412697,-0.02581102890340008,0.04689417148807685,0.0812844065378794,-0.10797178128297476,0.12024137432666208,0.2868944983509493,0.10279423882631347,-0.13343811524730284,-0.29020632565888416,-0.21124552946740505,-0.21572575221965654,0.0708418982360765,-0.05113058199873276,0.009220278843992399,0.06393609358584838,-0.07467054951115941,0.1342167287975317,0.08404527005583866,0.20437642258720273,0.02605750798070193,0.022994782314888364,-0.031313944386979584,0.14470644881043732,-0.21325930393607778,-0.05606177274338059,-0.036123139339057336,-0.16108051465336085,-0.06926547374040902,-0.2241028518483846,0.02438172414834024,-0.15534547785258568,-0.001063848024343083,0.02435727470175194,0.04533238402865195,-0.1559903418571895,-0.24723592777799291,-0.2140337405833808,-0.18359100962665495,0.009989548403707605,-0.1425606794788441,0.16409707017941616,-0.043169273578285955,-0.08486689023114859,0.12345604877653274,0.16091325566772838,0.0421048351607107,-0.016664778447894647,0.08679731739223835,-0.09788862185391141,0.08914781674642824,-0.14163802505830278,-0.011237600029872551,-0.001365380337206745,0.1219445856386697,-0.19235663604845976,0.02505877667289734,-0.003278723407137791,-0.06129137120723174,-0.1856321758613076,-0.1857577986515615,-0.044424463504996806,0.027938383067722106,0.09368858682679856,-0.15167010863537303,-0.24366550068187426,-0.11684461830583316,-0.1981513670866814,0.010884227900729331,0.039456080172780565,0.03115624367646545,-0.07680340060703844,-0.15732133035535395,-0.08174824540521981,0.05927618613016595,0.07006971590015279,0.10810936983148331,0.14130572765044994,0.08422218440249826,0.0005245615721095004,0.02357222301442064,-0.025845540162114676,0.11640003080072335,0.05571399778876576,0.042461528633601704,-0.1381379946846262,0.07434738526502162,-0.18059660067638217,0.0626704488199251,0.12332196581020564,-0.16499192260948267,-0.0366802635311246,-0.2379471761300328,-0.23559328750895914,-0.06965702195153554,-0.0610843943169037,-0.1901822560752878,-0.06444248463811894,-0.04741575462380472,-0.07568279897046046,-0.12603122237404946,-0.004167857837067658,0.05307718042003117,-0.01692865073004236,0.19011518305903607,0.017928150620906642,-0.024326835999912644,0.04533950447870425,-0.1134637954252528,0.04038428665680459,0.1707774142563108,-0.08439798794823097,0.05002058435300675,0.02579668506467952,-0.20010787633218102,0.12778514858810597,-0.1295610194056217,-0.015452805439573891,0.029951000110462526,-0.08626588547199202,-0.0054739392038183465,-0.10538587432429915,-0.0424282153758337,-0.07311199266801473,0.06390151915934747,-0.32971399423039205,-0.06268127087875786,-0.08979314841084884,-0.10938725447962189,-0.0714611716735134,-0.04771107958599684,0.057822278561005455,-0.10432041556050142,-0.023034896372549945,0.024449570887618764,-0.11849913817215979,0.10840104805496988,0.23877329787175086,-0.0566218257722688,0.09870254162967887,-0.025684171074022568,0.041931790035969536,-0.09909805282964415,0.15303625809707017,-0.05785363715085428,0.0754165067668081,-0.003998396067718764,-0.2136275919697793,-0.27458857820135935,-0.008020203035207864,-0.002470994111308026,-0.16681137538801413,-0.20557513737066832,-0.02352369604347296,-0.014991376015284535,0.0588696066048508,0.010359930660285514,-0.09305335054587384,-0.10931853822810975,-0.185481679755521,-0.003375230044346544,0.188308351724876,0.044866554758658445,-0.010897920063375165,-0.15507338001014184,-0.06895723400130066,0.011939437402017502,-0.006292660568779049,0.08008593167489651,-0.03490568861127571,0.014917959647330961,-0.09608128443142576,-0.10543107013119665,0.06940354813221027,-0.13951572919357846,-0.08506883971407615,-0.18541383246614535,-0.05836543957609866,0.02978228213618265,-0.07502796110085753,-0.08894891624966828,-0.023729215862874662,-0.025528376299039198,0.023471820078882398,0.016108308118123485,-0.09959710204610302,0.06435878888712021,0.10445106493928714,-0.08618771585530885,0.02046015776685484,0.10536129743492582,-0.040271418665530204,-0.13503434778987602,0.003393743558455403,0.16257492856692013,-0.08557260874827222,-0.032056807596708724,-0.11914373689189682,-0.10530732317662923,-0.08416021699280775,0.020790708565682783,-0.1831632325598481,-0.139545107429094,-0.12944482152002693,-0.14906811028595746,-0.20308941561967,-0.18147895472932898,-0.16712948403195796,-0.17185732652107188,-0.018047388981948145,-0.1493811446533414,-0.10299135804700417,-0.10531921168928303,0.008466043269332778,-0.010099037146255197,0.090972444697334,-0.0748014046072499,0.08838056881362114,0.09133127355924663,-0.029166743269058736,-0.06517371842313341,0.01532232932988956,-0.07796891594200972,0.2011313129795331,0.009371859153877293,0.04899720354368604,-0.18037386230805766,-0.24773427883273658,-0.03029932447083784,-0.0635789027636912,-0.17211875164701212,-0.12690849719010716,-0.09565824223593504,-0.015358409101413145,-0.012451928058287121,-0.31322002126376125,-0.11762522434373311,-0.17563661606672903,-0.08830253786510407,-0.02570975767500227,-0.15065442433085333,0.2768508882499216,0.24314904404061788,0.08714558900147445,0.06626080419074906,-0.10733710883142257,0.23481491452614442,-0.0010882465750904572,-0.015259524062128455,0.11735913940905686,0.02268088195905567,-0.07871114871444414,-0.02142805571693098,-0.03986910865935517,-0.005802919664341133,0.028644684128950243,0.010896510892323137,0.07117214449194431,-0.04639297824458879,0.020194101293066993,0.11065414511201721,-0.17432337189305447,0.007675067348242114,-0.18413949621430956,-0.22504527288774367,0.1343621651791654,0.1251614645881952,0.06983160164528433,-0.04066171709449,0.14738138640932158,-0.13948722607766945,0.002137938835462563,0.045146185826113815,0.1257162204729038,-0.1555627429995802,-0.3093341086727433,0.008617058266395403,0.02883520513166372,0.013434496825775221,-0.08985911246759115,-0.004352755247901421,-0.1515673203081703,0.041681100223982234,0.07853913280051367,-0.09082292969648384,-0.2150329077499397,-0.036877255226828276,-0.0615406135537879,-0.036659701350447146,0.10596334233372323,-0.0020516138038243668,0.18785884193387434,0.0391507210947727,-0.08548190941684337,0.13847546918560674,0.004801062358309902,-0.04185953832934122,0.023070160809588017,0.007914175769016171,-0.15846487921043584,-0.08791520003441572,0.11220543821976284,0.01467281618375309,0.060978622307089565,0.09909529138930434,0.17634133410102684,-0.06680843257840777,-0.07252426813930148,-0.09086641269680834,-0.053926083836145056,-0.09419522723850382,-0.01480804798783174,-0.024388940585547678,0.03809110336375782,-0.14425058088813847,-0.07782625884952493,0.019142987402672326,0.05703040634298589,-0.2378174170954188,-0.07197515171580934,-0.04385820787841491,-0.21578173338369178,0.03291246291662575,0.11575837282400363,-0.19691380066453898,-0.162049833116189,0.09227605986460599,0.11062959348147959,-0.13020435485857385,-0.10168204433263706,0.06302190761133689,-0.02722234623158662,-0.055051616139633726,0.15649376490112035,0.026859930783865747,-0.18486809270943896,0.02239392155461586,-0.14340604769909165,0.07164733485092786,0.09568391945342668,0.04041152817560391,0.09027791885875547,0.19450441032817997,0.07028961354008488,-0.043276453615176534,-0.1135482622007888,0.01227967888786433,-0.11324750801442701,-0.14895925206449262,-0.045103963827417944,-0.18246746446220968,-0.13382389288616556,0.04534619362751036,-0.05226310446999107,-0.03378081250847942,-0.00551158292804687,-0.1983391546347689,0.01570240148958978,-0.0033029673688787617
-0.006878976954261998,0.03192630107629833,-0.218851086923863,0.18882462122087887,-0.03269344146093782,-0.1457797016821535,0.008794657870751114,-0.12947510229218298,0.0042809400013384645,0.051701893225873055,-0.13424801272656475,0.08218431292915603,0.010662446559429967,0.030205702571804192,0.035655190452974314,0.048785364277396825,0.10967784997428133,0.08368711479462738,0.04633270536414755,-0.07879229261019176,0.026274780263689988,-0.058141725423816196,-0.14723355735039992,-0.006496017504332929,-0.0936393396583081,0.11115580859542186,-0.006129249403273097,0.002167926888840637,0.07516228187607403,-0.04417072217491054,-0.02801781582427355,0.11410878624666153,-0.14072234510171105,-0.08919925484563274,-0.06019691132583477,-0.019686440185436496,-0.05882064730472709,-0.14178735199018083,-0.14302642212996716,0.11056638030502343,-0.012187597168586556,-0.1476481282025588,-0.11958789615767032,0.3228540067836928,0.10815980580298551,-0.17351846248362884,-0.04924550336892676,0.06960788577441418,-0.0298157561622092,0.11168134965104065,0.17205080019187488,-0.004418573874554891,0.027115621502963618,-0.019224558657626446,0.08592157662742068,0.14763418636696587,0.09108120741495297,-0.11065609055441249,0.07307793306298466,-0.06818977873192457,0.17005103929741736,0.04495473038588679,0.06426648190219027,-0.1428399200242353,-0.17627727581585312,-0.07085395269349115,-0.1708982655392535,-0.03444164852391094,-0.32555455232858044,-0.14482247811151702,-0.21621221842019994,0.047403554324309594,-0.18304701775725976,0.15323722387320304,-0.07894917331786393,-0.1297228432736122,0.07276007758108048,-0.005212739464220373,0.04216989832194207,0.1164726776732661,-0.11204424075407514,-0.0759965801472442,0.005682383055750409,0.054393209868647804,-0.07271982756888114,-0.08167286149269724,0.07477510243956352,0.071822448230435,0.11484751341347427,-0.032926807990414336,-0.32712500245809645,0.0033946408517347443,-0.13741653476139784,-0.5010684959456593,-0.3370467603577918,-0.29485015589994024,-0.4104009785313999,-0.6768153072823765,-0.39644661472232356,-0.15171432582247935,-0.36407945774733036,0.0062316938090107325,-0.25914112911862053,-0.016131791335406362,-0.1486520629404022,-0.14571406724111102,0.16936866374744994,0.1995871930102483,-0.17960640821752402,-0.1311696456896802,0.007058985930849793,-0.10729436214590364,0.07366684471910835,-0.08206317254388173,-0.05411410380921851,0.017429903934961546,-0.2015483592877211,-0.03129280354004428,0.1989607217163247,0.13582767868136542,-0.17721717998821354,-0.10884266267489419,0.004961121764989104,-0.09202458575222092,-0.1971265021552602,-0.1383619728652768,-0.14380041539871996,-0.4090445791688275,-0.13090883053288424,-0.27627008156851357,-0.16405838941937,0.2688269512190033,0.19182440860410807,0.29634824544734134,0.5907901984641163,0.31458812562485056,0.21705774280694906,0.05792211569565086,0.05787626951836542,-0.1372507563276058,-0.05705552128712245,-0.028583717343688097,-0.04706549111325597,-0.030698208252031484,0.052455668040821565,0.15579624611483667,0.15957925442282087,-0.04000128830716442,0.06863472356651305,0.04374606882600073,0.15595440814092348,0.032020705813015714,-0.012013418114230717,-0.6449585080343664,-1.2739919811322733,-2.067025147773659,-0.8720499223216248,0.13471831102541706,0.4078852568874712,0.365312024173535,0.5121688511042379,0.18063543446873456,0.3678186939782962,0.351908267612235,0.0030608218575307877,-0.007860813400164755,-0.12220628185761233,0.00935914334003265,-0.12414293505916087,0.00341110650479312,0.05622423651385582,0.06010338293994811,0.2912596519422629,0.4568396659870277,0.268609515816458,-0.18223652168977922,-0.2205683564114792,0.19632210069985354,-0.2177957452677545,-0.019187441191610997,0.595033600859768,-0.28092070933010677,-1.47557992964303,-3.021582927144682,-1.6511334093240493,0.2798571055679225,0.635687453551917,0.33175004601249064,0.519988952351511,0.726245550732182,0.4778994388138928,0.5137009459260585,-0.14422833805618443,-0.2648409205248493,0.0924337477056742,0.09856888902240768,0.008024529727179226,0.01384780104810217,0.11636265132222819,0.31583848431556955,0.27072760750829983,0.12292082603186341,0.2767251440221361,0.028391814159024538,-0.8125064894817695,-0.11482220788965394,0.07778699650277424,0.37326568613333966,0.31005327692077495,-0.43772468842278167,-1.819417486202103,-2.19159040363821,-1.0381885383336913,0.1809305683858995,0.016415369447265113,0.06237806563200579,0.28396624472535914,0.006037121375017118,0.33760486363892467,0.2191188233955445,-0.061613389573852484,-0.04037436614502436,-0.2605287101561506,-0.14558520150869664,0.15833656889497502,0.09108106314298228,0.10288069887057381,0.2711103080703873,-0.0625807959928613,0.5697859911414208,0.07802498877405077,0.18228150597750903,-0.15305409397941916,0.4442583089239585,0.9966251482912499,0.548717413197618,0.5206218713304648,-0.7260231757534984,-1.560500708868767,-2.106822525480579,-1.278776253381477,0.33754766469163994,0.6354704117041198,-0.6162883795420486,0.13621511693626204,-0.2599429950894381,0.39685509693623955,0.15584590884704477,-0.17174621937570234,-0.2796583000536857,-0.007270239788217212,0.057424565845251074,0.005544874746265012,-0.06153107182738053,0.08977950223321257,0.14728938620883328,0.4305298302921719,0.36296871281578663,0.45141545341645867,0.06008299256236387,0.09888357994945764,0.6086315300183062,0.5893521559838873,0.39090668771495085,0.8889739241091341,-0.0351257402305457,-1.480692442004531,-1.0110016964805648,0.6325824846561429,0.8985435153943612,0.6000537972224366,-0.43590488143681394,0.9840599261658206,0.8670434975137521,0.49440939667552325,0.6261521414138258,-0.12206885430732889,-0.10219026198796778,-0.25592539956564253,0.03699781230935712,0.030279489362098882,0.23236621880685887,0.2060759199199039,-0.08984596082440617,-0.03298403559421499,0.13891970058712655,-0.5344815209643422,-0.320571487098622,0.2079490061840975,-0.06190717794842882,0.10613764021031272,1.0375853880275747,1.094883096478929,-0.384869434442114,-1.8135267495840692,-1.1176582145301777,0.134158009982277,1.107670437603702,0.48678342491890464,0.019336703535454292,0.3504766493291194,0.2688657734642081,0.3685795418444948,0.23273627906855845,0.058089158126732515,-0.004832527026606959,-0.10957853349310148,0.09406431883354512,-0.1559161114368954,0.10390411273807547,0.38604658702789607,0.20072604925718635,0.0053773615628374275,0.19690081671475534,-0.028269138772977556,-0.3651202347837047,-0.5346795336404983,0.5868672924162893,0.7089871470916632,0.9134999364091817,0.8989931869225757,-1.393961717463881,-2.221734011251888,-1.3506605795562077,-0.27857295144934935,0.23720820666699208,0.7616585140551893,0.10451958859916088,0.3339685864042739,0.0989500837324274,-0.13622412274706772,-0.13762474316371626,0.11455334619792043,-0.2198594708305367,-0.10799136001865253,-0.09016751196487141,0.046032865365193784,0.04963839619837212,0.24568539991965918,0.37517783586614295,-0.16447315824945108,0.562874482301643,0.44047815100619464,0.2569355701005559,0.3238932417377082,0.4228783757458036,0.424343083770063,1.0220452754947464,0.22829939336565952,-1.5200903468169988,-1.2591229824244656,-0.13830977855574594,0.05740008634090976,0.7435796409776526,0.6107523008889092,-0.267310515740832,0.7240962621218799,0.07644333219618435,-0.17599092610208486,-0.5420181734137798,-0.1766420138064258,-0.2652709691825728,-0.08383775958617569,0.04853704603641637,-0.006896585297390387,-0.2382676673109493,0.23280515891508705,0.26482000823294866,0.40736120623163935,0.33400507124637335,0.8938511982564469,0.08504821389083857,0.859433244602459,0.07250457520778343,-0.17480683818877857,0.41957547279066354,-0.7733322914328716,-1.3759035134439501,-0.7842257935283237,-0.6058133922640574,-1.0534929543394984,0.25098241243105374,0.5518462855981908,-0.4450829069321017,0.3091762169452757,-0.37352052877834574,-0.06774145240865044,-0.20473674900191752,-0.26410956413243847,-0.19855111630885144,0.03908907565965833,0.0219310809498419,-0.010787759035665992,-0.09813157389585199,0.09009139038458962,0.08280681931210111,0.2566842564262037,0.8167788858661871,-0.3219181400052496,0.077463635533658,0.3116500257849137,0.0498567096614082,-0.10849881801569389,-0.1400079358267146,-1.2085208048320473,-1.7692382933335773,-0.7793715149747887,-0.270940928524622,-0.368941326167364,0.21376028240059958,0.3457153468029824,0.6014538878448136,-0.3839744553803795,-0.9346780799389346,-0.6964930056261968,-0.460225500187937,-0.52954737677637,-0.26519004051126654,0.09187007973604117,-0.09139885763841717,0.05390275025471493,0.16572917977336926,-0.07857845715436593,0.05297418973495848,-0.0394555099543074,0.3180827205587385,-0.0546175933464603,0.4890296170768888,-0.12903325673711397,-0.14325405024983462,-0.23063046129813575,-0.7418608581014452,-1.3763180702033135,-1.0081423860554577,-0.2790664005637386,-0.15576503148939183,-0.3736858889350655,0.04246743028654012,-0.003955546458139669,0.13614072318057968,-0.6741572314300622,-0.8908720841320608,-0.2814494057991504,-0.8805859384677672,-0.7469193928203587,-0.08200375735698513,-0.008254524247662197,-0.002362203038634063,-0.005745254896590706,-0.030417747452316738,0.0636520206629035,-0.04825162561190827,-0.1378253370699132,-0.4455119669080232,0.04926798310163307,0.3205056552548907,0.08977722207510182,-0.4275259404871808,-0.6984784120442662,-1.1333330199497984,-1.0762328358575193,-1.0756636168357836,0.4866670775377773,0.6834548644414915,0.3857703794491703,-0.2639126332966514,0.0053688753851586345,-0.02305712952606556,-0.3883569233330184,0.4827851467501388,-0.17470664416054438,-0.5411925303637974,-0.6216549840932896,-0.18897790034388007,0.011187834835271413,-0.06003897484139797,-0.010528556824163177,-0.20199385109933468,0.04193864393840147,0.08308642688774748,-0.031013841910280348,-0.13733871372000708,-0.6557722791143157,-0.3695471673679146,-0.38653093413712264,-0.9345024799775157,-1.1998870208697212,-1.1584693229408245,-1.626431637032295,-0.850864435065387,0.8301147457460417,0.40621325672824227,0.1875154820125432,0.17822279308807673,0.6483976337607101,0.20500685728001025,0.15272865828889118,0.010666149775734693,-0.4448690472533717,-0.28525864865842215,-0.33778105029406746,0.07472508673950484,0.06469513185771714,-0.10755664072275394,0.09809496453049049,0.1368745146654608,0.03412637966667241,0.060638960241815906,-0.07402835372917316,-0.0383973594883718,-0.10921155442500884,0.10911088328191193,0.1855411244082257,-0.3719799821627864,-0.9440023514160657,-1.4805825678968207,-1.4660382610803937,0.25146914910481377,1.2644270168879181,0.7384042430196709,0.46371179877449753,0.4736904182472271,0.4593286691311653,0.2327932265863958,0.39739532796475696,0.3938900659243204,-0.3030086339260643,-0.17465526103499296,-0.08385219714942845,0.24943281638289705,-0.04889684368154825,0.17688007431599018,-0.06122293983400734,0.014266802915460706,-0.1317120824314924,-0.0022305752608617266,-0.11452988848513584,-0.043144781513721406,-0.14914412976160113,-0.2774094193295628,0.14431265810804533,-0.5506274643787953,-1.4491153818727571,-1.596069295907003,-1.103851314974551,0.40846066883120974,0.9072838881564553,0.16555362493475925,-0.3442250453269427,0.17452115355951361,-0.251805360187175,0.39321080395315794,1.091282201057736,0.5542663454176537,0.008344982345169805,-0.032990539727372196,0.05120442192911847,-0.05000085067838265,0.004307485704542509,-0.14802721139192135,-0.18594823411232872,0.03166332613849935,-0.1864663402517037,-0.1774214922955758,-0.19772514858085197,-0.12197577073733566,-0.18054845018999188,-0.35999710399390744,-0.7364417895248266,-1.2123761826421398,-1.1969230365250292,-0.9370993922619526,0.1328689352951355,0.36592737656130747,-0.015448392488258727,-0.006561371419810388,-0.1110357038228189,-0.28470640676772174,-0.14218444118050047,1.0492682825519655,0.8749624222974149,0.1604258927352468,-0.2338915873162674,-0.33386552933540053,-0.11842678993569121,-0.11804420041777783,0.18529963386986925,0.07613470842600044,-0.07088798126077245,0.0018823849275460647,0.02917482594900048,-0.07233705497365023,-0.25258756910034236,0.06528267718011709,-0.4665115670485659,-0.5938626815342523,-0.941497756615187,-1.4279510569338558,-0.8930095440475725,-0.260004463207704,-0.21057837403706436,-0.00016707122195288763,0.6619254697589196,0.2699032514259876,-0.35475492711549284,-0.14144342922487388,0.480975425705199,1.188753968202878,0.74463049089621,0.11856290882050034,-0.4290735807807606,-0.2592500174731151,0.06644143612180996,-0.12339392353384261,0.08976169578102128,0.06759174093035704,0.10066316243504661,-0.037166097166280006,0.10654269972387302,0.05528491370808821,-0.03776500157099172,0.0013241344006473992,-0.3070103616448525,-0.7461385573663057,-0.946254692703551,-0.7507819394381862,-0.8770224817050017,-0.13334352850696843,-0.7023322779478729,0.28298531015496,0.27596215716539063,0.43658879464001177,-0.04741496145002863,0.04799774638385873,0.4189249727696018,0.6544027918823193,0.03651627743116966,0.04718313415409445,-0.5865350554184661,-0.20331972045384744,-0.0873190003585895,0.06735545021578886,-0.14932295694926193,-0.07956365825479203,-0.06462398782879607,-0.01742429139706823,-0.15481948737846468,-0.151889631306621,-0.048475295101958284,-0.07486673721068585,-0.13815815268859663,-0.28563763907965734,-0.8070327774493936,-0.7230274244528575,-0.3950524734212297,-0.7196639460747944,-0.7411349418256054,-0.11439849411283727,0.02235310722785411,0.5340461131543351,0.4514362314390797,0.20930648645580896,0.20960987364473668,-0.2847753719190195,-0.5733552669863291,-0.4091795762919201,-0.7158260432400962,-0.5437808125766673,-0.12043014886238301,0.12969311636047565,0.2192434068911346,0.22777004620464228,0.07488725047333362,0.0264892588433092,0.011185887574029964,-0.02592393690627147,-0.13502671545415149,0.055984099189349844,-0.02587655920471955,-0.1902134891147574,-0.16283129885931263,-0.3919644926361695,-0.4189110392561047,-0.14088369034974418,-0.33000527747062663,0.18776762894432436,0.2924956564913622,0.0722698988663003,-0.04880024963433196,0.37645197676396125,-0.013587765481189722,-0.8641054696137667,-1.099779920980572,-0.536912404550117,-0.6088589584011602,-0.5194322076371509,0.23637186781931893,-0.10846404401764637,0.009366111583588192,-0.04938565773982205,-0.07261238412235575,-0.06915218163017679,-0.007533702148297171,0.09185523862685445,0.07841836867203335,-0.044173096343744264,-0.2441205464906296,0.07975989776180174,0.4107361654721379,0.3139625018299239,-0.33078923568013197,-0.0176362221903602,0.4279957708100659,0.1749714946097628,0.29665057740793543,0.42116341674045166,-0.02458816587868962,0.2011276269498272,0.09839189524134866,-1.1008151837411346,-0.9293901137871763,-0.3160875336523719,-0.17314120378387804,-0.14901027470455036,0.059259412895039484,-0.07635652600185182,0.035563445688337,-0.12982451203524534,-0.11604971219017905,0.2064898504716661,0.010806351740792447,0.10801313240534516,-0.27379024004955044,-0.12595034366670238,-0.23196123811000863,-0.16452137488490598,0.060408558454810864,-0.31881377050408244,-0.7124044378285352,-0.8700370097655906,-1.0165869164891226,-0.5594269328647193,-0.42652794908225117,0.12416502321665494,-0.49314591762684734,-0.601858891999144,-0.43963813322119477,-0.39176657676101323,-0.5627371048282395,-0.1067146673271394,-0.08697694673018566,0.04824750958213468,0.05145903141661737,0.03514521334517251,-0.07704005404882665,0.0009954567482585168,0.11966391784443632,-0.020818313242364498,0.042309106246639916,0.16251644952414265,0.18863578450013224,0.15369606569978064,0.010466986390748986,0.007207202184038086,-0.01879249081132543,-0.022213881214671213,0.023958669992549572,-0.20542640497310957,-0.020112055097291248,0.04446113815707412,-0.024848042869178282,-0.06562201833249472,0.06424091021218559,-0.016155526640984342,0.13944975739170665,-0.0787588713161149,-0.1747245350411113,-0.02813252324755246,-0.040096494084060436,0.12001050996150042,-0.27627250387962526,0.0486731678327675,-0.027720262066457942,-0.04812459675144001
-0.012405702395271301,0.0647737028542369,0.008400382224274118,0.25602190935533237,0.0378825237518983,-0.02888638370925515,-0.0347695896039898,-0.0034196208631866263,0.17725362026982341,0.07250931942314555,0.155901692944051,-0.10822315012048954,-0.030225591046474244,0.025606044944487302,-0.002065703803172589,0.08848637327017307,0.12334801901702987,-0.018414378731736666,-0.2690070777502645,-0.07408397143832866,-0.10185288311490344,0.07645000294333672,0.22254494527159605,0.05250542913995864,0.20017525589946297,0.05199963845684372,0.13049542289894475,0.050609253516082774,0.09373538069953995,-0.07450130012578692,-0.012811530473734815,0.1690091044425052,0.11116886777381678,-0.11732109537367975,0.12570857809804534,0.14297352299884536,-0.005410546457533372,0.05531953419685969,-0.03822162723979372,0.04914127395565946,0.0405100217283308,-0.014176679041390458,0.01963875512021644,-0.013972270522159897,0.09400030864917903,-0.04270224511166608,0.05638021123253931,0.05164580755249104,-0.055801788036602414,-0.02022385815920069,0.049811689405422264,0.15563936868847092,-0.04585229834633651,0.005812462131932297,-0.00042729708264274035,-0.15714274402589537,0.003409250385265167,0.09339003541719888,0.09631134757608416,-0.02980798514261141,0.07181800253057981,-0.00669474321065978,0.05411240224209243,0.11314168869822926,-0.05573394935853161,-0.01816410077557576,-0.27882029348459775,0.054642338463145694,-0.16970445203049997,-0.054609140142425856,0.026771169735841354,0.3866307371169272,0.5739954909278054,0.2947715055749761,0.19960902351090268,0.06272651519825494,0.16086980364643472,0.1737805544293253,0.17204480997347316,-0.0640651560851835,-0.06343026741707146,0.10865092060075533,0.11211521446750929,-0.186801375572222,-0.06345819923921171,-0.2012913174251477,0.003470969769261847,0.03312583956843866,0.05302872511050514,0.08889201027012782,0.10136275573727313,0.01830502389586306,-0.19821787024318183,-0.23942657358732164,-0.49188212699937633,-0.5782109558283625,-0.08507682877846438,0.17241075335557224,0.3343029937006979,0.05188669295149276,0.203827874497778,0.35348787656960173,0.3250251291874544,0.31870420589625054,0.5320325655822916,-0.014264765314626006,-0.24586269399542965,0.15307147825010564,-0.07946867352429367,0.13071980377057577,-0.16527759182737248,0.10405834081646072,-0.12319606692558592,-0.08052349091496346,-0.10628482743999083,0.0867940814324225,-0.045650029276495474,0.04581125070474203,0.2870518828705382,0.41105003147247127,0.23663351651522455,-0.19231741563698992,-0.1622232104221099,0.5283799244957571,0.3787231005341758,-0.13532898362865456,-0.19612988848341156,0.35424589201268203,-0.14508425008992104,-0.07495331115423635,0.2020499909707594,0.1878702692747981,-0.2660094529824844,-0.14964919858651077,-0.041095653739952144,-0.019279985892791354,0.14488726152171694,-0.13658683651350853,0.11462402943092821,0.039004447471750074,0.09979049807661995,0.22045552469919613,-0.023666123879180448,0.0661991785786503,-0.07666433469689089,0.31385277872122164,0.6389074717380421,0.41085005108027134,0.012434512690276792,-0.0727469048561965,0.2579322148966893,0.027280743477064842,0.011189020235888702,-0.03344171574411907,0.19763110942948595,0.403935704203755,-0.018042321837372872,-0.05458108874473401,0.15948719501116082,0.0094186163074691,-0.6233249291131548,-0.9554145421026702,-0.0143886082622423,0.10044787974128136,-0.05333809406318042,-0.15688988495068662,0.09029903640384908,-0.09477279589858449,-0.0400514092881745,0.024685344070033352,-0.02035731109347974,-0.07371956833849996,-0.09243140632878481,0.12469955325542037,-0.027674437993975076,-0.1636431939735187,-0.03432854022272014,-0.23384932151579926,-0.0016888785895764484,0.4527418471634092,-0.39122306547310554,-0.005190214540227993,0.1702245631602594,-0.15833760084889292,-0.07178845172181604,0.6630365727449227,0.14240815802341933,-0.46607124929169397,-0.46905825646092103,-0.6426305298915488,0.27103948052245835,0.2529310498952957,-0.060325707667183204,-0.0005865213280622362,0.1744958542486734,0.12882770728340834,-0.11760946030433019,0.26032794209567184,0.08635707170183204,-0.23200405115949407,-0.12665012613180776,-0.027808684498166546,0.15725778809452678,-0.06343424494864719,-0.044851634586762314,-0.27989621900744455,-0.5722695415487807,-0.8245711985079422,-0.47166316002100167,0.38552673765685075,1.0402613128277196,0.26800624732404277,0.46844392831804793,1.124923407643256,-0.3561545273018768,0.04280096957180254,0.10766348066366001,-0.16732822080624896,-0.1222677617376899,-0.058128828440702336,0.2572421057401435,0.27606974631738795,0.12254197016123898,-0.06683271763488176,0.0025442132390654125,0.15143198269582855,-0.1413830947773068,0.0032017575262660806,-0.1646820434115588,0.1280659165955943,0.12908469620148327,-0.68728491672486,-0.16354534393986064,0.018981407754871553,0.2867882091130281,0.1255362396879847,-0.14964158917461032,-0.16398026366782792,0.17670345983908387,0.03756816188411336,-0.22588013855514288,0.07632498220728047,-0.028105722555771265,-0.5915626893246158,-0.4558264274248974,0.13000500732490655,0.20478528463137752,-0.13004336258213023,0.4147293643516419,0.23612532761961522,0.018209632812813934,-0.08172718755927276,-0.1229265978644236,-0.12875078894754755,-0.18906212171707495,-0.401960654388388,-0.09042557566396556,0.16978466403832732,0.2206743968696552,-0.11260117269766565,-0.030629250351765974,-0.2697572238604775,0.17263598998478097,0.31387157692833373,-0.6880635421754182,-0.548704122756528,0.23115227950214598,0.48888165793867844,0.3914085744118416,-0.7221067381295505,-0.514390502200749,-0.6956792997810946,-0.26867829762820417,0.23484548309491413,0.44648994702603695,0.03959580217405026,0.3078482310638184,0.17573992451973144,-0.04230355591849225,-0.0822923697241184,0.19468509037818282,0.15924718508679758,-0.3043410686956572,-0.001804086119689643,0.07890971437045478,0.2572238103933092,-0.32813403719268686,0.705261530018328,0.4222168614489871,0.14393396230562228,0.01021128365466876,-0.27291802968351103,-0.16483711512275007,-0.22090229744070494,1.317257368944304,0.4677940359086286,0.33800242267050085,0.2303145421698507,-0.0070432106919426285,-0.26180705885517513,-0.11546437443839459,0.14866997566345638,-0.37543232463337234,-0.0036350511509770115,-0.023930800049919227,0.09179119613088232,-0.0347623382301289,0.01054471641267883,0.04842179250514222,-0.10205072788476942,-0.3489510602451523,-0.2929593430389148,-0.31993014320699587,-0.48198300137414346,-0.05234596805743697,0.6782512739832006,0.41010267114851534,-0.43691461906792217,-0.6718016550587976,-0.7837279294999464,0.2694707048593026,1.0078226870069964,1.1620203975537289,0.013658666625610187,-0.017874925966974764,-0.004277227872284564,0.5895721302707803,-0.3901244848151137,0.03636948086072802,-0.16424602597155946,-0.4847625974343546,-0.48054683846328594,-0.2896177259307651,-0.05523842249049475,-0.026952966258502107,0.04304211713487533,-0.1258630732286161,-0.14738428105459267,-0.0880665901037838,-0.5756889390155674,-0.7932836499492159,-0.8597553507493108,-0.308675370327828,0.2483532604095529,-0.0475916013837324,-0.5790844416247708,0.22103508508683453,0.6702267929469701,0.9017646234737119,1.0907860620238754,1.101773758531333,0.13999462009505848,0.590856361497336,-0.20523760166947436,0.18151464310926976,-0.3231743670727825,0.0795650213228434,-0.2514314717955875,-0.6173074281153385,-0.302235321052854,-0.28479033526802683,0.23155638130322828,0.04418405672659023,0.060236264176254835,0.041240907080268126,-0.07547999464883891,-0.021920627542920682,-0.6195833677298019,-0.7564567459422992,-1.0203512472134544,-0.6695237100053876,0.23856457065617062,0.6898175106463448,0.2915265791426835,0.20970569672331768,0.1496380559138992,0.506693225177405,0.7540962730493076,0.9165948258659186,1.010185258187653,0.95501964305306,0.3075867100570654,0.16636852295789972,0.22813205487232724,0.017765350476396564,-0.2378181444083042,-0.8185125038282822,-0.7890166272654997,-0.14696364108686302,-0.04625980962265271,-0.1142135305818501,-0.19883305934535456,0.07462738682616389,0.1480542685314815,0.07658037213835046,-0.15469555550867203,-0.5768842979200438,-1.0398689802985868,-1.1564802850896316,-0.8732604202556417,-0.41009030931212526,0.25078641096885024,0.5551004131807727,0.870686482648475,0.8575050332802207,0.6691576386198521,0.952804639275136,0.4354332938765002,-0.18589679875549484,-0.056505842545225844,0.13434860561823964,-0.11214858930442824,-0.3224903694665406,-0.4306613241898763,-0.5743975774563761,-0.2678217939608878,-0.08321363897070268,-0.013114378019966079,-0.0010220097065818605,-0.07530986327947677,0.10635744852629074,-0.019168082896174367,0.12169821126545712,0.06356930578069989,-0.2981738341606484,-0.9321382643756692,-1.441285657942407,-2.6019962234351377,-3.052828767573126,-1.5753083139622466,0.14124688525521104,0.7520301943096956,0.7857893805831406,0.7886254495874078,0.35832801431940553,0.2587461789131617,0.0586897618052391,-0.12115095844284976,-0.01049353364041553,0.09832310147254397,-0.3300632454776901,-0.08598920132164249,-0.126812484410985,-0.015609027360003627,-0.31643872512858057,-0.22754126384064674,-0.12218649657342202,-0.03773634233304627,0.1536023701720953,0.037342048371064196,0.23772570292821293,-0.08758744871726283,-0.20006874165730937,-0.764664963290583,-1.6342559008588178,-2.499708667430639,-3.2840573930536494,-3.614974438610331,-2.6141238768832493,-0.6852062406794187,0.34940526992140797,0.16425426603395096,-0.14663699153142398,-0.2055845117807252,-0.09700265527847542,-0.578961503702507,0.6283385797951224,-0.3340464040665567,-0.4130157975124831,-0.16502682002233793,-0.061925311469776104,-0.32145775802548493,0.026508998409397376,-0.15959417839426812,-0.14276564270500564,0.03089833428774609,0.021390429881102187,-0.13321991305509792,0.19076135815335085,0.12700561022615348,-0.15309964240358617,-0.37060203924338325,-0.6238286964260832,-1.5077049811128995,-2.517686564530848,-3.4914250103459876,-3.7887171315819934,-2.9579366739165316,-2.2174187309621574,-1.542204684077076,-0.5538764453348438,-0.5891443064262198,-0.10206283469526305,-0.5321101536526877,-0.40568005973511706,-0.20996805610751668,-0.802987912203977,-0.0023870341471059426,-0.2575234676663881,-0.386504258390451,-0.1230201577864371,-0.3487797856625461,-0.14701768021544168,0.14201008791168582,-0.024464166327282384,0.16982650129844007,-0.12846118364357456,0.37788975326473884,0.3480713869690347,0.17769571616162358,0.6105756990374223,-0.0047852047080726,-0.3370522072565615,-1.616041103485715,-2.3509467370429045,-2.5791775855576002,-1.908617336458456,-1.1566806722352512,-0.05057803742198899,-0.3533311507688179,-0.212117840732644,-0.48745376337832236,-0.44903431997113025,-0.4595883572580879,-0.5432346340376113,0.24633072113525714,-0.36079686706745673,-0.5596379617095502,-0.3488082672905377,-0.2061602305507318,0.04565501338463647,0.08671727751312097,0.10749399885670492,0.017872602646542127,-0.11538118996903311,0.5440684377033057,0.30859106547954596,0.5522497133994698,0.6571271216525679,0.11770205009342628,0.12785828909799976,0.19793882090823958,-0.5070627564935648,-0.2261845990941894,-0.6167751782854018,-0.7435055751240155,-0.13737832494273566,-0.146302040386974,0.4578690308873395,-1.0175013508932473,-0.20054362148516527,-0.03333741536041805,0.2752159996638341,0.09136075536044659,-0.19074224839800608,0.09035683825288356,0.04650647399815301,0.046708110446067805,0.037428891885544206,-0.04342380984517565,0.1542356267939665,0.057699580608198214,0.04875270363232068,0.34555479285630425,0.3849497038364938,0.681082176754167,0.6538379655944581,0.33988884767360933,0.6208158364219517,0.8155061156809356,0.5419812499935972,0.5258250894992698,-0.3853243323086464,-0.3398487462012548,-0.05344049573814049,0.04634621434750932,0.15708190677255437,0.032391383714112695,0.24341969313277684,0.3858474562516772,-0.12695950537227108,-0.41654826513976256,0.15857846200359052,0.12611800985070518,-0.11756667846734101,-0.029214189422278963,0.06864294027629776,0.11360574422897078,0.01169066477035753,0.04768664269516985,0.09348650370962491,0.04330181179795482,0.7295306742508252,0.2673657164249414,0.1928590768444672,0.7692068797755826,1.1737098899030642,0.7549140314785354,0.82815800457539,0.6591254889940096,0.5667394817999704,0.25494004553456334,-0.8055514324994862,-0.047107795990266606,-0.922199572923004,-0.45288720398169696,-0.19928391871877155,-0.18773870500832243,-0.16499564892264987,-0.03235881362455592,-0.03803560783486763,-0.06722995738476957,-0.1662033531626354,0.16332804319297461,0.11792884467769237,-0.05072321509638717,0.03436765216044637,-0.12431492580771321,-0.004713160102405949,0.339731176890398,0.5608329394958891,0.3537934678900546,-0.6154246275507864,-0.3770764565030666,-0.07884283161000175,0.27596228048355786,0.27910609883581194,-0.20823288929645808,0.42683226621838494,-0.23398429067064422,-0.7502124800550375,-0.4392568099520735,-0.33299575616157295,-0.4157363438017148,0.03269536943368522,0.11399318268713063,0.14551112236382102,-0.09435785590881925,-0.22491221145673612,-0.08186957104490795,-0.18797495655307758,0.02332555536938399,0.01737084970988382,-0.07402335626464744,-0.059124103540474295,0.09325019514686804,0.0023851426090102145,0.326059186117532,0.4422752238005284,0.43360738006293775,-0.3142899375014255,-0.3768069073122282,-0.5778127094176687,-0.6979958621855438,0.4900905951478501,0.24415762464056587,0.14813052773565827,-0.10485638003474966,-0.033547261228341826,-0.01876487307406409,0.030031973381326477,0.09403501411113908,0.06942453271106185,-0.5395684570814967,-0.48034974832711785,-0.5142544542455876,-0.29111687239191625,-0.32701978115521463,0.18525544536217625,-0.03230254329853483,-0.0155753284097014,-0.09645957825904593,0.074991006935781,0.060585082487776824,0.1397002918400097,0.10944686419136136,0.24555689864051036,0.5533365909859376,0.43341471203411996,0.7780508516568415,0.41727307999459534,0.1442483922921711,0.48803173696992747,0.13983818394682293,-0.5499593219538338,-0.6471666831584099,-0.20950088350538493,-0.5951624223777391,-0.017872976579995717,0.08137973202215022,-0.3300978647564478,-0.7648176885133318,-0.48110566087349965,-0.13247794344929875,0.20066437955827163,0.0043638935244614055,-0.022238973345197522,-0.11136391589579427,0.04482261878352436,-0.12035596419732429,-0.010644114331775699,-0.014738049287202872,0.11542288970894708,-0.008198742166453967,0.15740599757503954,0.4132194584879752,0.4079760370702255,0.37720401959753147,0.47830787688165116,0.09587320454269978,-0.020583949159957135,-0.13005959929869654,0.01314377162438023,-0.06976885649122415,0.15208707986640058,-0.6097808297850427,-0.559133662023209,-0.11295774198883259,-0.1294313642759751,-0.4926417374686218,-0.08737980727073706,-0.0452898694801643,-0.2125817869998985,0.04085083767729215,0.06331530504886,-0.10318647765084914,-0.11610793183668623,0.00886183908334581,0.17413250719729492,0.16125691721185229,0.18925092247214012,-0.06748717084184337,0.17035353971357123,0.18222838398925303,0.2509062684358903,-0.013896987830852059,-0.4227508564281426,0.19513683440769167,0.2691612706996754,0.4551950867960204,-0.07455029530025556,-0.778043367151024,-0.02782636044929453,0.26062407634000473,0.23256735974063605,0.41266142610741274,0.06700716359680359,-0.18503934391427998,0.04471724410069148,0.03934161841927926,-0.07589949733367432,-0.11577871680786136,0.05458264116707274,-0.02371573192411454,0.11663311959401189,0.12475700933463361,0.08836339049551713,0.05020806556717696,0.04708578788637179,0.10645772353299644,-0.05498991480775688,-0.1445414894071432,0.07205897113199312,0.02834282546034521,0.023037580154838602,-0.027328923773333208,-0.2010042343544474,0.3487838256879867,0.24424071260883307,-0.13865548121727292,0.09595832293294047,0.11859196868845971,-0.059558612912721604,-0.041154458873699465,0.05312043131645136,-0.14169091099223147,0.044256625241048404,0.08505351988754085,-0.23769316081016328,0.16494640825060877,0.08393988865161185,-0.040023779152872425,0.02298595796689836,0.06944472939338493
-0.03198294348706982,0.04899000102394461,-0.2086386351996972,0.017639835021330187,0.1074997653240839,0.07158441087222489,0.01823569226731582,-0.08160272615084646,0.0034847681066662076,-0.12218130725139592,0.008509686489491812,-0.020992483780750082,0.04951289524003099,0.14129238774229097,0.08053283507332969,-0.08674504196428388,-0.10030082391122211,-0.09012387242730946,-0.09059597732083488,-0.10740444083180273,0.19560050234980228,0.12641189564060737,-0.06275828349096174,0.001414914346813656,0.24424952163159622,-0.18142049542536295,0.0360242899543179,0.1967761531005842,0.011331300646242123,-0.05868518941368429,0.12343577014063584,0.22252374254900628,-0.021842364431675566,0.11579486140879112,-0.10035447797896611,0.02143572416260076,0.060604904058487605,-0.0464432492438036,-0.0470362948706446,0.07571473158241944,0.1192694347326359,-0.1033828111742248,-0.0856505429705756,0.034698078915018186,-0.11542591726951906,-0.06857877052276112,0.062224483355747345,0.11402315067372795,0.051555224259332504,0.010569631394277775,0.16791813506702233,0.01666034010375954,-0.05634721492376946,-0.21067745758219023,0.049065504190270136,-0.04857933513204699,-0.038426377049355066,-0.014112894269756758,-0.08971163411908689,0.042214764942585296,-0.01786226917406672,0.2632205606714081,-0.0611577499364182,0.03728558043162722,-0.047221803940544135,0.1039418850798472,-0.0259407849416567,0.0730414117581425,0.07573339843420367,0.15292875747035223,-0.1079417645645409,0.10936758725286369,0.06882740518087217,0.1784933018702575,0.04890781675454109,0.14762885856408903,0.04851366142987246,0.0479505651016584,0.15801499419361106,0.07913614305784686,-0.010695316999182688,0.01224626021216803,0.027645838622754222,0.07335749545260903,0.05487755414954911,0.1753082425461168,-0.005942243635892282,0.144643679403665,-0.03388412322230095,0.045869022170151874,0.03848308063844066,0.0887314925699253,0.011315237629837929,0.29492163426747814,-0.09888737604725942,0.2776814145173366,0.1492200653067943,0.13258675873236203,0.12458577638612012,0.16807784645188098,-0.2685809951059623,-0.0802615375602488,0.06750208378767586,0.34369356428238534,0.29096346067091966,0.2458497981715499,0.15082103868591426,0.21532895684895278,0.1176255939020122,-0.05931694580557482,-0.08710902283388487,-0.0029523348361669885,-0.03358498719369463,-0.009252104525360223,0.1816722204148666,0.05506169681964366,0.13778092774161968,-0.04606367050378067,0.2099393430864953,0.05114521014051773,0.11875571055475374,0.2191838153482889,0.11669776213415506,-0.1215704235454142,-0.08202318269905251,-0.05915973933208215,0.3372008342858046,0.3192160067629107,0.0902517233066181,-0.08776446335288768,0.09879273708107966,0.4190507610642527,0.5128237292590451,0.3877212743682368,0.26324373169575677,0.2378532569151568,-0.0041665432378187066,0.05256794416643473,0.10987277524606211,-0.016074472082932334,-0.045015718262523784,0.03688875792153672,0.06705058094819716,0.058477999973682186,-0.1570085406939534,-0.09984614373743562,0.17361782795101297,0.49976945816479057,0.6966378450145589,0.4708002113299401,0.12439603916683731,-0.4530059842098086,-0.13014658216039335,0.2182691263882337,0.8356362171343708,0.5204210093961457,-0.0354519204741581,-0.6477828475154082,-0.4961805318348266,-0.22170728255451655,0.07703694829040074,0.012978862856940106,-0.04545717252914805,0.06995090259508063,0.32210384741972237,-0.020290345103837225,0.04134046091991731,-0.176177825349459,-0.07015423011845068,-0.08308237481768443,-0.06801383947288545,-0.01045797356031821,-0.00970065419321863,-0.055864982602370564,0.2502368974699603,0.6597898916720312,0.3507170572041153,0.27221313837173694,-0.4040223224089354,-0.5155523334661628,-0.5988357857087402,-0.3488018457026952,-0.04306298552192419,-0.7441146944272214,-0.5979828470680708,-0.18512469420366,-1.2914807518267246,-0.5189170430804639,0.08439603963530015,-0.0783910584094768,-0.14731374938503577,0.0667877294201663,0.020346129390910402,0.18059500127545716,-0.20655855563829284,-0.023049865362120794,-0.1840332203908984,0.055255322752997944,0.06778306433880378,0.15432439254846256,-0.058877710954033796,-0.2308231805267607,0.23105609898637516,0.7684395821199173,0.039357248642706344,0.2590557122867718,-0.4599709546282575,-0.5095094141480763,-0.2459709367602718,-0.5349733009962812,-0.48586329782877075,-0.7994105746058119,-1.15643840145484,-0.36831923319455334,-0.9645160207184141,-0.5567555304624883,-0.03156247374509735,0.07864397937590732,-0.25232330517485746,0.2025831712805929,0.35672457506798694,-0.19755128384584164,0.044837133432299565,-0.036521173738410954,0.08068259471995673,-0.003959948566670328,0.08510964312558478,-0.016726137382529444,-0.015330018093190538,0.333770662014269,0.6404543046707882,0.7560113387931118,0.47943597112748226,0.5192796742751125,-0.007612274111240842,-0.539773659412852,0.23338538523955915,-0.017651291807592402,-0.37006196048497897,-0.5103615672726932,-1.447803284678468,-0.6480512341454046,-0.8090645825638259,-0.5385980909997715,0.15415827352555705,-0.16177952154638353,-0.2451383430578641,0.2196445752971792,0.028708742614653195,-0.1102680651953032,-0.12368148883291143,0.014655863095399724,-0.08526142811030646,-0.029119700509919917,0.33143384915372026,0.027516175336710396,0.1041352361646105,1.0201321769233873,0.8977463016650465,0.6277156722290254,0.3118149704188496,-0.09719298536513428,-0.6292324979082626,-0.7103259035771537,-0.4894627563786483,-0.0025794191859173955,0.4594049298658611,0.26158286446677886,-0.19393418847269558,-0.3187599546820252,-0.46162783797801793,-0.4629755927106411,-0.44439881178293117,0.2731840548371636,0.09179812336861365,-0.03466837460824981,-0.10863341319264243,-0.1487391715139947,-0.06253718524259269,0.007426275911616693,0.07330299330077727,-0.21243259198496986,0.10464141935755672,-0.1724976580118824,0.25979624745186913,0.42806186608355024,0.6514450974138782,0.4642897075070423,-0.06303076357608974,-0.10030721394172902,-0.3413192106489979,-0.7360196463083082,-0.6885062625734204,-0.6923833279085365,-0.11443298281961588,0.7618913767711007,0.6654336139759406,0.6230724682695464,0.084085860625335,-0.25951117289934095,-0.4739470944243003,-0.05200253513456024,-0.0015187626620594035,-0.15896127527633125,-0.11866546649896964,-0.14841911682319042,0.06252876720099446,0.3003959632208888,-0.06322359755211861,0.07425386988145112,0.2875218771488253,0.025022995129932727,0.13184620732691718,-0.3287602698832294,-0.10481244978332764,0.14164557032739514,0.2701985439681158,0.3413423292355869,-0.47741849617568183,-0.3706973520752488,-0.7479669273136843,-1.4613799832286116,-0.404961914883701,0.4768778635822157,0.4734172939098303,0.6161346975262372,-0.3129298744156687,-0.521767384210652,-0.7245378585345688,-0.2291847778082705,-0.05362918736522464,-0.14250028473059903,-0.02187051885989424,-0.33656488189233613,0.035394751260327845,0.0004559800998320657,0.00780761402103048,-0.05330850960575891,-0.16895643059098367,-0.00412746343214883,-0.11445864248900522,-0.13602123588683052,-0.3668963889370573,0.47251176081853746,0.3794217114164252,0.19018355894128441,-0.17044940864119812,-0.32547842733705545,-0.9054077733954808,-1.1175164379093294,-0.658779181825605,-0.24797612532227872,-0.15813992437104954,0.6152822214729196,-0.2748442789066163,-0.9298188163117678,-0.2796752956270639,0.16256662941673258,0.3678513239131809,-0.05719093758767803,0.22894348615912646,0.15317375056490617,0.02750919272154949,-0.09663968478920247,0.0031778130672806765,-0.10684263839367943,0.04839187113275852,0.11592329214888282,-0.19350230985791453,-0.3036968252724375,-0.42303882142234595,-0.18562677011527612,-0.07130786773802637,0.11047909265977417,-0.17046759270051545,-0.3370596207586928,-0.7846935343827569,-0.6865622259771331,0.06611775857198121,-0.09028239183989437,0.10051019195419948,0.39492371385421093,-0.0819362517689578,-0.17953992836185242,0.18879778825429896,0.7089288925437229,0.3450337941089276,0.2962113330347975,0.07616440928213607,-0.19913609106667268,0.07821735102053926,0.07509212001442464,0.1530104136533924,0.057532772375256856,-0.14207578416176025,0.15946767679887994,-0.5520311309247475,-0.16278140549114614,-0.5429267300993535,-0.3202312522322716,-0.07843204875142583,0.08505618212945473,-0.06894787728909,-0.035143816169212645,-0.6916657932240483,-0.44483113235244376,0.8182662311965679,0.15736943159589037,0.32840008544702115,0.4630645425288959,-0.7642694115221851,0.037471284616066226,-0.031149353412301125,0.2309551597885868,0.5269302809628077,0.23247504120312223,-0.02990395087361763,-0.005911000289937259,-0.0220991969959464,-0.01689746051636168,0.09804327217123646,-0.16059936993264243,-0.0157809454560217,0.01032358417762392,-0.2187569370338141,-0.257696961678197,0.11705646793148392,0.1153339102082557,-0.31647912707895887,-0.28580335396629936,-0.8984312186648429,0.10863140114367958,0.11086922235099786,0.49714869832729247,1.295620164765737,0.34053287975030694,-0.22151948438552838,-0.23967061908193302,-0.47098134459163626,-0.22857788242924673,0.0675388536498417,0.08990545783880986,0.3942337836827734,0.3974655045464844,-0.04635530003673968,-0.038629820386449513,-0.2502160652904161,-0.04448507156752641,-0.19347637209421095,0.18012046561979125,-0.08187192995587277,-0.03357414020141481,-0.4440683248699272,-0.5280456456150776,0.010938596531196106,0.10417915182755152,-0.33712073810137677,-0.7814627417358169,-1.269900209226891,-0.24149278473420832,1.2490916095637328,0.6483868710591708,0.9145928001020451,0.6195441226694145,0.5340938745882142,0.11299809677613128,-0.31976922437956834,0.15484772374783456,-0.3127711043921847,0.2998600551435563,-0.15051539149493087,0.15106244504117053,0.19478582385749543,0.2143226619977622,-0.23747412827778375,-0.17458064128948672,-0.0014136444641070158,-0.05448987780897941,0.16425475867490394,-0.07410750407152512,-0.4721207487969825,-0.38831609760032854,-0.4687475366783198,-0.4162642039436532,-0.44287467903065464,-0.7811234189703946,-0.714676171460006,0.35614556802247144,1.230075250809267,0.586553086152061,0.9076686943345021,0.2262224615249278,0.2814179578939089,0.24988795560271782,0.3042725175131842,0.37059751731475554,-0.26446370847076645,-0.08993407569126531,-0.1526704049454595,0.32448258971472943,0.24385796525987527,-0.0594450598925079,-0.051388689415859584,0.018240649041978436,0.018725700850457563,0.20169555356440547,0.022348811745181586,-0.21860521048426496,-0.2866461689693085,-0.21619827569890376,-0.4019926506232788,-0.2453662340881977,-0.5728681975365996,-0.6367169892794239,-0.45328489794717725,0.2405797285792265,0.8881572597052345,0.8887569660331966,0.8144687883359406,0.24064692174881855,0.4479656564337082,0.2610647578403598,-0.011198329892632296,-0.031288563940056566,-0.09202358114769306,-0.5331456523179982,-0.39118445690338505,0.007712850248749782,0.17377790196135093,0.19318804260594968,0.13497793982772477,-0.0009077520365417417,-0.18977689242131585,-0.03857443438987037,0.07557084459691109,-0.004879531855116229,-0.34728693022134577,-0.2729385802794324,-0.2821302155344533,-0.42597934165020646,-0.5068881321394514,-0.38882179193498545,0.15889017935544375,0.9612732486155843,0.842957722808246,0.8473452219570329,0.3011103961553282,0.1703533342387119,0.05512523419043763,-0.18663515916240422,-0.5009600748127072,-0.3446581478877984,-0.18957701331559482,-0.10437361336614154,-0.394967299925846,-0.1701091895197125,-0.006022242612982033,-0.06258500287971193,-0.10738032821644378,0.07765003558779689,0.017983120706441487,0.13811708861611013,-0.09988122663905334,-0.16870251753975735,-0.4146820385816786,-0.5395622968195147,-0.27168546314358005,-0.19852128499688815,0.10467314645787229,0.25499096735680393,0.7010181429036524,1.508501684153144,1.1077191396601718,0.4462184333143042,-0.11930899810278947,0.10056454968830857,-0.39362303639839225,-0.5078578617917067,-0.017551904997885406,-0.1940749895050537,-0.3739538845811456,-0.2688507516470638,-0.044295568391953415,-0.07846836726044708,-0.12625636565161724,0.07977355737603721,0.00905707934597491,-0.12698673331752536,0.006952209954805768,-0.025804370158107066,-0.11035583712666794,-0.09942201590029556,-0.5252997922871153,-0.41109721076487915,-0.41535434837749713,-0.10083793747271129,0.2657301216269757,0.31846172542595724,0.49918541567406927,0.7013900250685136,0.6500425105397297,0.059766449885941694,0.10426572089985699,0.018679963985403197,-0.6382372841379652,0.4296959905882469,0.1793029600958366,-0.008829956761127768,-0.09891278483722403,-0.17563952589333243,0.15096366373395592,0.19849849518952684,0.17235098515732097,0.038137180839369705,0.0480185811015714,0.05123384110006348,-0.012090573256415374,-0.0004109350599684786,-0.03220308201311665,-0.08075148498060643,-0.10438886220331524,-0.19600490629649503,-0.3736083103623789,-0.19604343024917983,-0.15580098049781968,-0.26828919490645026,0.2620333412511025,0.35841688568528973,0.3053474674404754,-0.38337102385953226,-0.1738504160597314,0.4668988547124072,0.21894025057644845,0.36443801262155034,-0.22850966374796633,0.03775041316270241,-0.14496791211757484,0.309755968211974,-0.12757912843373131,-0.2831760212210291,-0.06898427395876039,-0.10806179468794963,0.010385100206801865,0.03004690352282951,-0.20448570124620644,0.06775968738133564,-0.019692499663411626,0.08607438019812898,0.2362713151541822,-0.3785345344194478,-0.2119642716017912,-0.7085945498893252,-1.3880204624199803,-0.8812769329890456,-0.9239217594317021,-0.9819116150799941,-0.19851668858446653,-0.01761922617754889,0.40866553538013833,0.9768606169880629,0.37006963343375515,0.07650779258366196,-0.2876212337410318,0.3634996454746984,0.1251874638457458,0.07762756205444266,-0.36984618820152204,-0.3596052073301717,-0.4896917128726185,0.09930823885915231,0.068010611487741,0.0594363042265905,-0.027160761886524103,-0.12838985999902672,-0.04085470548750842,-0.025025715738824273,0.08841808208161686,-0.15415882556699542,-0.43131723599363575,-0.685084444531686,-0.9627676148631279,-0.9007943027385323,-0.894141752104821,-0.3593450278160315,-0.17988099614905811,0.11170455412127275,0.4703852813303895,0.5510183030927649,0.24752683306864623,-0.35785352052741193,-0.33308808373619725,-0.2578688504192526,-0.3496350793451024,-0.3115071800060018,-0.3249097301039711,-0.20815733412975543,-0.06558750370919213,-0.17073901278058762,0.12958010595761837,-0.032492638461581076,-0.032629381649197355,-0.03754901960737523,-0.1486225172993727,0.054002703678655874,0.014037316428518637,0.0003187794092683946,-0.026359705072804183,0.00983400540800624,-0.21663526240505462,-0.36285596386503677,-0.2574422743793828,0.007281559790193192,-0.34216825282979985,-0.32093019696774505,-0.2734452667419284,-0.21077926949029746,-0.4855900774047249,-0.46044326260728,-0.16252230203971132,-0.1719067739535848,-0.2700750200141718,-0.27895820594178555,-0.11175323826627057,0.09306720360089084,0.17245294713133158,0.1190684200159654,0.059656025471721365,0.15328105337719014,0.04550146067869323,0.042854178558712284,0.09653825605909178,0.010527008739093404,-0.10693627722244198,-0.20671199326708467,-0.21062233997669458,-0.13017971635542314,-0.15715782054348293,0.19813996584626214,-0.10032766220753842,-0.23130994357187307,-0.41226293264155744,-0.1975008867731798,-0.2618547541878544,-0.45579034124926426,-0.28177406282967915,-0.23003491327292452,-0.10200700585311494,-0.02849876231295958,-0.11937582432476722,-0.025226306252659272,-0.026882195759259254,-0.029975000183449018,0.04533056313940042,-0.09018993715180501,-0.05005508375641566,-0.1058253000394141,-0.04055873031102359,-0.06923841120779697,-0.014201029541566943,-0.11143691640884384,-0.11579430904785044,0.1693643713872381,0.22754125820996088,0.15339830505336155,0.015187729641149585,-0.19604715437642625,0.07859711864243574,-0.04633250433884858,-0.09820788619470863,0.07243308679959015,0.01635574476709158,0.02808186195181777,0.18646762844693668,0.10292080534190881,0.006658903008343015,0.02450879239446507,-0.12745311880371088,-0.03760675053162197,-0.1174631714271613,0.09170063176033819,0.12391333379328032,-0.028748813760815735,0.04532597933736724,0.035513988488917785
